<?xml version="1.0"?>
<opencv_storage>
<stage20>
  <maxWeakCount>24</maxWeakCount>
  <stageThreshold>-1.3928580284118652e+00</stageThreshold>
  <weakClassifiers>
    <_>
      <internalNodes>
        0 -1 12048 3.2158170361071825e-03</internalNodes>
      <leafValues>
        -1.0136986523866653e-01 6.2990653514862061e-01</leafValues></_>
    <_>
      <internalNodes>
        0 -1 43267 2.1212906576693058e-03</internalNodes>
      <leafValues>
        -3.3383446931838989e-01 4.1904684901237488e-01</leafValues></_>
    <_>
      <internalNodes>
        0 -1 64331 -2.5828920770436525e-03</internalNodes>
      <leafValues>
        5.2001923322677612e-01 -2.7732229232788086e-01</leafValues></_>
    <_>
      <internalNodes>
        0 -1 33845 -2.9217600822448730e-02</internalNodes>
      <leafValues>
        -5.3899806737899780e-01 2.3701326549053192e-01</leafValues></_>
    <_>
      <internalNodes>
        0 -1 77464 -2.3060580715537071e-03</internalNodes>
      <leafValues>
        5.6348156929016113e-01 -2.5269079208374023e-01</leafValues></_>
    <_>
      <internalNodes>
        0 -1 75723 1.8102109432220459e-02</internalNodes>
      <leafValues>
        -1.3528193533420563e-01 7.2953194379806519e-01</leafValues></_>
    <_>
      <internalNodes>
        0 -1 69656 -2.9867194825783372e-04</internalNodes>
      <leafValues>
        2.8461062908172607e-01 -5.4212099313735962e-01</leafValues></_>
    <_>
      <internalNodes>
        0 -1 1889 4.9868144094944000e-02</internalNodes>
      <leafValues>
        -1.4207281172275543e-01 8.2137387990951538e-01</leafValues></_>
    <_>
      <internalNodes>
        0 -1 62211 -3.0165584757924080e-03</internalNodes>
      <leafValues>
        -5.2721536159515381e-01 2.2014191746711731e-01</leafValues></_>
    <_>
      <internalNodes>
        0 -1 19164 8.2068587653338909e-04</internalNodes>
      <leafValues>
        3.1334275007247925e-01 -3.8637718558311462e-01</leafValues></_>
    <_>
      <internalNodes>
        0 -1 49585 -9.8731834441423416e-04</internalNodes>
      <leafValues>
        -3.7704968452453613e-01 2.8609296679496765e-01</leafValues></_>
    <_>
      <internalNodes>
        0 -1 53882 3.4571683499962091e-03</internalNodes>
      <leafValues>
        -1.9990178942680359e-01 5.7840245962142944e-01</leafValues></_>
    <_>
      <internalNodes>
        0 -1 56912 7.8719988232478499e-04</internalNodes>
      <leafValues>
        1.9778917729854584e-01 -5.6680077314376831e-01</leafValues></_>
    <_>
      <internalNodes>
        0 -1 31314 -1.0404692962765694e-02</internalNodes>
      <leafValues>
        1.5958930552005768e-01 -7.3183596134185791e-01</leafValues></_>
    <_>
      <internalNodes>
        0 -1 65711 -2.5219243252649903e-04</internalNodes>
      <leafValues>
        4.1105747222900391e-01 -2.8976482152938843e-01</leafValues></_>
    <_>
      <internalNodes>
        0 -1 61634 -1.4440815430134535e-03</internalNodes>
      <leafValues>
        6.1986559629440308e-01 -1.7991049587726593e-01</leafValues></_>
    <_>
      <internalNodes>
        0 -1 14780 -7.0447204634547234e-03</internalNodes>
      <leafValues>
        6.4622849225997925e-01 -1.5545150637626648e-01</leafValues></_>
    <_>
      <internalNodes>
        0 -1 65409 2.1312898024916649e-03</internalNodes>
      <leafValues>
        -2.0165871083736420e-01 4.5883527398109436e-01</leafValues></_>
    <_>
      <internalNodes>
        0 -1 77815 -1.2246792204678059e-02</internalNodes>
      <leafValues>
        4.5081403851509094e-01 -2.2682626545429230e-01</leafValues></_>
    <_>
      <internalNodes>
        0 -1 37688 1.8809821456670761e-02</internalNodes>
      <leafValues>
        2.2701841592788696e-01 -5.6928634643554688e-01</leafValues></_>
    <_>
      <internalNodes>
        0 -1 10725 -5.2956603467464447e-02</internalNodes>
      <leafValues>
        4.3596228957176208e-01 -2.6932337880134583e-01</leafValues></_>
    <_>
      <internalNodes>
        0 -1 76577 -1.5461919829249382e-03</internalNodes>
      <leafValues>
        6.7222470045089722e-01 -1.6868942975997925e-01</leafValues></_>
    <_>
      <internalNodes>
        0 -1 51026 -3.8088893052190542e-03</internalNodes>
      <leafValues>
        6.2419730424880981e-01 -1.7270170152187347e-01</leafValues></_>
    <_>
      <internalNodes>
        0 -1 43539 2.0519069221336395e-04</internalNodes>
      <leafValues>
        -2.5720065832138062e-01 3.8914954662322998e-01</leafValues></_></weakClassifiers></stage20>
</opencv_storage>
