<?xml version="1.0"?>
<opencv_storage>
<stage5>
  <maxWeakCount>14</maxWeakCount>
  <stageThreshold>-1.6036638021469116e+00</stageThreshold>
  <weakClassifiers>
    <_>
      <internalNodes>
        0 -1 25477 -7.2099012322723866e-03</internalNodes>
      <leafValues>
        5.5002701282501221e-01 -6.6583544015884399e-01</leafValues></_>
    <_>
      <internalNodes>
        0 -1 35183 2.4841899052262306e-02</internalNodes>
      <leafValues>
        -3.4759259223937988e-01 6.2989753484725952e-01</leafValues></_>
    <_>
      <internalNodes>
        0 -1 32680 -9.4746658578515053e-03</internalNodes>
      <leafValues>
        4.3922996520996094e-01 -4.7331440448760986e-01</leafValues></_>
    <_>
      <internalNodes>
        0 -1 47742 -1.8440417479723692e-03</internalNodes>
      <leafValues>
        2.6433420181274414e-01 -5.9838694334030151e-01</leafValues></_>
    <_>
      <internalNodes>
        0 -1 24071 -8.4442719817161560e-03</internalNodes>
      <leafValues>
        3.6556279659271240e-01 -4.2006450891494751e-01</leafValues></_>
    <_>
      <internalNodes>
        0 -1 70415 -6.8655121140182018e-03</internalNodes>
      <leafValues>
        2.0381218194961548e-01 -7.3189425468444824e-01</leafValues></_>
    <_>
      <internalNodes>
        0 -1 49842 -2.5168187916278839e-02</internalNodes>
      <leafValues>
        5.9588015079498291e-01 -2.6885110139846802e-01</leafValues></_>
    <_>
      <internalNodes>
        0 -1 75926 -6.8252172786742449e-04</internalNodes>
      <leafValues>
        -8.2504850625991821e-01 1.9954486191272736e-01</leafValues></_>
    <_>
      <internalNodes>
        0 -1 69807 1.5179111505858600e-04</internalNodes>
      <leafValues>
        -7.1903508901596069e-01 1.4834283292293549e-01</leafValues></_>
    <_>
      <internalNodes>
        0 -1 634 -1.3624966144561768e-01</internalNodes>
      <leafValues>
        6.0169249773025513e-01 -2.3021803796291351e-01</leafValues></_>
    <_>
      <internalNodes>
        0 -1 31530 -1.0738754644989967e-02</internalNodes>
      <leafValues>
        2.5662559270858765e-01 -5.9072327613830566e-01</leafValues></_>
    <_>
      <internalNodes>
        0 -1 25645 1.7993096262216568e-02</internalNodes>
      <leafValues>
        1.4751397073268890e-01 -7.5851750373840332e-01</leafValues></_>
    <_>
      <internalNodes>
        0 -1 65270 -1.0696112178266048e-02</internalNodes>
      <leafValues>
        2.9133516550064087e-01 -3.5894373059272766e-01</leafValues></_>
    <_>
      <internalNodes>
        0 -1 48088 3.3509894274175167e-03</internalNodes>
      <leafValues>
        -7.1329706907272339e-01 1.5342457592487335e-01</leafValues></_></weakClassifiers></stage5>
</opencv_storage>
