<?xml version="1.0"?>
<opencv_storage>
<stage16>
  <maxWeakCount>40</maxWeakCount>
  <stageThreshold>-1.3333642482757568e+00</stageThreshold>
  <weakClassifiers>
    <_>
      <internalNodes>
        0 -1 56977 -1.7828356474637985e-02</internalNodes>
      <leafValues>
        5.7947349548339844e-01 -1.5943962335586548e-01</leafValues></_>
    <_>
      <internalNodes>
        0 -1 8307 3.0417513847351074e-01</internalNodes>
      <leafValues>
        -1.7716209590435028e-01 4.6919465065002441e-01</leafValues></_>
    <_>
      <internalNodes>
        0 -1 18361 2.0832484588027000e-03</internalNodes>
      <leafValues>
        -4.0314099192619324e-01 2.1297940611839294e-01</leafValues></_>
    <_>
      <internalNodes>
        0 -1 18342 -2.8115814551711082e-02</internalNodes>
      <leafValues>
        3.9815086126327515e-01 -1.8864469230175018e-01</leafValues></_>
    <_>
      <internalNodes>
        0 -1 78109 -1.8806165317073464e-03</internalNodes>
      <leafValues>
        2.2032572329044342e-01 -2.9250586032867432e-01</leafValues></_>
    <_>
      <internalNodes>
        0 -1 72661 -4.4517433270812035e-03</internalNodes>
      <leafValues>
        1.4069071412086487e-01 -4.5550847053527832e-01</leafValues></_>
    <_>
      <internalNodes>
        0 -1 70294 2.0779560145456344e-04</internalNodes>
      <leafValues>
        -1.7954269051551819e-01 3.2918086647987366e-01</leafValues></_>
    <_>
      <internalNodes>
        0 -1 42396 -3.5048127174377441e-03</internalNodes>
      <leafValues>
        1.0064206272363663e-01 -6.0518920421600342e-01</leafValues></_>
    <_>
      <internalNodes>
        0 -1 58379 2.2672405466437340e-03</internalNodes>
      <leafValues>
        -2.0201954245567322e-01 2.9004716873168945e-01</leafValues></_>
    <_>
      <internalNodes>
        0 -1 52054 -4.0252804756164551e-03</internalNodes>
      <leafValues>
        -3.3750250935554504e-01 1.6594967246055603e-01</leafValues></_>
    <_>
      <internalNodes>
        0 -1 37580 -2.1216152235865593e-02</internalNodes>
      <leafValues>
        -7.5486576557159424e-01 7.8144468367099762e-02</leafValues></_>
    <_>
      <internalNodes>
        0 -1 70353 4.7869998961687088e-03</internalNodes>
      <leafValues>
        -5.6998282670974731e-01 9.7990430891513824e-02</leafValues></_>
    <_>
      <internalNodes>
        0 -1 26872 -9.7665451467037201e-03</internalNodes>
      <leafValues>
        1.5998598933219910e-01 -3.3586099743843079e-01</leafValues></_>
    <_>
      <internalNodes>
        0 -1 25097 -4.8037480562925339e-02</internalNodes>
      <leafValues>
        -7.1538907289505005e-01 7.4179209768772125e-02</leafValues></_>
    <_>
      <internalNodes>
        0 -1 66566 -6.7191425478085876e-04</internalNodes>
      <leafValues>
        -4.7668632864952087e-01 1.0844468325376511e-01</leafValues></_>
    <_>
      <internalNodes>
        0 -1 75250 -2.5708312168717384e-03</internalNodes>
      <leafValues>
        3.1297117471694946e-01 -1.8779869377613068e-01</leafValues></_>
    <_>
      <internalNodes>
        0 -1 72655 -9.1698542237281799e-03</internalNodes>
      <leafValues>
        8.3983525633811951e-02 -7.2445195913314819e-01</leafValues></_>
    <_>
      <internalNodes>
        0 -1 23951 -4.0278822183609009e-01</internalNodes>
      <leafValues>
        -8.4014964103698730e-01 5.1579553633928299e-02</leafValues></_>
    <_>
      <internalNodes>
        0 -1 33197 2.9232311062514782e-03</internalNodes>
      <leafValues>
        4.9729682505130768e-02 -7.9061585664749146e-01</leafValues></_>
    <_>
      <internalNodes>
        0 -1 12609 -3.7550874985754490e-03</internalNodes>
      <leafValues>
        2.3074197769165039e-01 -2.2206188738346100e-01</leafValues></_>
    <_>
      <internalNodes>
        0 -1 74558 -4.0219672024250031e-02</internalNodes>
      <leafValues>
        -7.4033141136169434e-01 6.4916752278804779e-02</leafValues></_>
    <_>
      <internalNodes>
        0 -1 78222 -7.4983510421589017e-04</internalNodes>
      <leafValues>
        3.2304057478904724e-01 -1.6233669221401215e-01</leafValues></_>
    <_>
      <internalNodes>
        0 -1 72591 7.0619098842144012e-03</internalNodes>
      <leafValues>
        8.9842930436134338e-02 -6.6621124744415283e-01</leafValues></_>
    <_>
      <internalNodes>
        0 -1 31177 1.5961524331942201e-03</internalNodes>
      <leafValues>
        -2.4491503834724426e-01 2.1944499015808105e-01</leafValues></_>
    <_>
      <internalNodes>
        0 -1 76285 8.1107812002301216e-04</internalNodes>
      <leafValues>
        -2.2318884730339050e-01 2.5058588385581970e-01</leafValues></_>
    <_>
      <internalNodes>
        0 -1 31400 -7.7422675676643848e-03</internalNodes>
      <leafValues>
        -8.1444197893142700e-01 6.7790098488330841e-02</leafValues></_>
    <_>
      <internalNodes>
        0 -1 72536 -7.7416177373379469e-04</internalNodes>
      <leafValues>
        -8.9092761278152466e-01 4.4946365058422089e-02</leafValues></_>
    <_>
      <internalNodes>
        0 -1 2751 6.8410234525799751e-03</internalNodes>
      <leafValues>
        -1.6033330559730530e-01 3.2992160320281982e-01</leafValues></_>
    <_>
      <internalNodes>
        0 -1 2354 1.3461577892303467e-01</internalNodes>
      <leafValues>
        -5.8773882687091827e-02 7.4290049076080322e-01</leafValues></_>
    <_>
      <internalNodes>
        0 -1 29880 -1.0337561368942261e-02</internalNodes>
      <leafValues>
        1.9755119085311890e-01 -2.5073164701461792e-01</leafValues></_>
    <_>
      <internalNodes>
        0 -1 56365 5.4044560529291630e-03</internalNodes>
      <leafValues>
        5.8830324560403824e-02 -8.5057395696640015e-01</leafValues></_>
    <_>
      <internalNodes>
        0 -1 46937 1.4747789129614830e-02</internalNodes>
      <leafValues>
        -1.1995536088943481e-01 5.1067823171615601e-01</leafValues></_>
    <_>
      <internalNodes>
        0 -1 12296 -3.5672318190336227e-02</internalNodes>
      <leafValues>
        -7.0523148775100708e-01 8.5211403667926788e-02</leafValues></_>
    <_>
      <internalNodes>
        0 -1 74410 -8.9055916760116816e-04</internalNodes>
      <leafValues>
        -6.8930155038833618e-01 5.8320384472608566e-02</leafValues></_>
    <_>
      <internalNodes>
        0 -1 52003 -1.3770075747743249e-03</internalNodes>
      <leafValues>
        2.9139825701713562e-01 -1.7895027995109558e-01</leafValues></_>
    <_>
      <internalNodes>
        0 -1 11252 7.7522109495475888e-04</internalNodes>
      <leafValues>
        -1.9189476966857910e-01 2.7497711777687073e-01</leafValues></_>
    <_>
      <internalNodes>
        0 -1 66604 1.4221614226698875e-02</internalNodes>
      <leafValues>
        7.8569419682025909e-02 -7.3011022806167603e-01</leafValues></_>
    <_>
      <internalNodes>
        0 -1 5690 -2.4020764976739883e-03</internalNodes>
      <leafValues>
        3.9927312731742859e-01 -1.4434570074081421e-01</leafValues></_>
    <_>
      <internalNodes>
        0 -1 46567 1.8667409196496010e-02</internalNodes>
      <leafValues>
        8.3332784473896027e-02 -7.4128729104995728e-01</leafValues></_>
    <_>
      <internalNodes>
        0 -1 58365 1.7068057786673307e-03</internalNodes>
      <leafValues>
        -1.6997087001800537e-01 3.0920591950416565e-01</leafValues></_></weakClassifiers></stage16>
</opencv_storage>
