<?xml version="1.0"?>
<opencv_storage>
<stage3>
  <maxWeakCount>14</maxWeakCount>
  <stageThreshold>-1.6311100721359253e+00</stageThreshold>
  <weakClassifiers>
    <_>
      <internalNodes>
        0 -1 4441 1.4692895114421844e-02</internalNodes>
      <leafValues>
        -2.2715671360492706e-01 7.6544666290283203e-01</leafValues></_>
    <_>
      <internalNodes>
        0 -1 70210 1.3438198715448380e-02</internalNodes>
      <leafValues>
        -6.1269414424896240e-01 4.4335821270942688e-01</leafValues></_>
    <_>
      <internalNodes>
        0 -1 57400 -2.2616777569055557e-03</internalNodes>
      <leafValues>
        3.8195675611495972e-01 -5.2185976505279541e-01</leafValues></_>
    <_>
      <internalNodes>
        0 -1 36571 -1.6725432127714157e-02</internalNodes>
      <leafValues>
        2.4813172221183777e-01 -7.8800362348556519e-01</leafValues></_>
    <_>
      <internalNodes>
        0 -1 67095 4.1534197516739368e-03</internalNodes>
      <leafValues>
        -6.9342404603958130e-01 2.8927490115165710e-01</leafValues></_>
    <_>
      <internalNodes>
        0 -1 31625 -1.3076644390821457e-03</internalNodes>
      <leafValues>
        2.3311787843704224e-01 -6.0762953758239746e-01</leafValues></_>
    <_>
      <internalNodes>
        0 -1 29149 3.8064956665039062e-02</internalNodes>
      <leafValues>
        -2.6152133941650391e-01 6.5703099966049194e-01</leafValues></_>
    <_>
      <internalNodes>
        0 -1 74298 6.5128412097692490e-04</internalNodes>
      <leafValues>
        -6.6145676374435425e-01 2.1863004565238953e-01</leafValues></_>
    <_>
      <internalNodes>
        0 -1 74584 -1.1200242443010211e-03</internalNodes>
      <leafValues>
        -8.7141180038452148e-01 1.5431293845176697e-01</leafValues></_>
    <_>
      <internalNodes>
        0 -1 5314 -2.4179071187973022e-03</internalNodes>
      <leafValues>
        4.5109066367149353e-01 -3.1903851032257080e-01</leafValues></_>
    <_>
      <internalNodes>
        0 -1 31011 -2.0886089652776718e-02</internalNodes>
      <leafValues>
        -8.2844913005828857e-01 1.8204188346862793e-01</leafValues></_>
    <_>
      <internalNodes>
        0 -1 42473 -8.8415900245308876e-03</internalNodes>
      <leafValues>
        1.7268459498882294e-01 -6.8568730354309082e-01</leafValues></_>
    <_>
      <internalNodes>
        0 -1 78119 5.0585432909429073e-03</internalNodes>
      <leafValues>
        -2.9598742723464966e-01 4.9153009057044983e-01</leafValues></_>
    <_>
      <internalNodes>
        0 -1 25646 -7.1015213616192341e-03</internalNodes>
      <leafValues>
        -8.3474493026733398e-01 1.5616592764854431e-01</leafValues></_></weakClassifiers></stage3>
</opencv_storage>
