<?xml version="1.0"?>
<opencv_storage>
<stage17>
  <maxWeakCount>39</maxWeakCount>
  <stageThreshold>-1.4421126842498779e+00</stageThreshold>
  <weakClassifiers>
    <_>
      <internalNodes>
        0 -1 52702 -1.2001689523458481e-02</internalNodes>
      <leafValues>
        5.7513296604156494e-01 -1.5415549278259277e-01</leafValues></_>
    <_>
      <internalNodes>
        0 -1 22926 3.0396658927202225e-02</internalNodes>
      <leafValues>
        -2.7766728401184082e-01 3.8319528102874756e-01</leafValues></_>
    <_>
      <internalNodes>
        0 -1 25466 -5.9200935065746307e-03</internalNodes>
      <leafValues>
        1.5426139533519745e-01 -5.7825779914855957e-01</leafValues></_>
    <_>
      <internalNodes>
        0 -1 77408 1.4607035554945469e-03</internalNodes>
      <leafValues>
        -2.5937274098396301e-01 3.4651061892509460e-01</leafValues></_>
    <_>
      <internalNodes>
        0 -1 64414 9.8076891154050827e-03</internalNodes>
      <leafValues>
        -5.4055941104888916e-01 1.3479615747928619e-01</leafValues></_>
    <_>
      <internalNodes>
        0 -1 57635 -2.8444301337003708e-02</internalNodes>
      <leafValues>
        5.2757948637008667e-01 -1.2793639302253723e-01</leafValues></_>
    <_>
      <internalNodes>
        0 -1 76783 -5.1388181746006012e-03</internalNodes>
      <leafValues>
        2.9948818683624268e-01 -2.2249475121498108e-01</leafValues></_>
    <_>
      <internalNodes>
        0 -1 72653 -6.7616133019328117e-03</internalNodes>
      <leafValues>
        9.0020939707756042e-02 -6.9422703981399536e-01</leafValues></_>
    <_>
      <internalNodes>
        0 -1 72633 -3.6996535956859589e-02</internalNodes>
      <leafValues>
        -6.1538624763488770e-01 9.3383446335792542e-02</leafValues></_>
    <_>
      <internalNodes>
        0 -1 10593 -1.0134120285511017e-01</internalNodes>
      <leafValues>
        -7.1353852748870850e-01 6.7096665501594543e-02</leafValues></_>
    <_>
      <internalNodes>
        0 -1 25379 -9.2928600497543812e-04</internalNodes>
      <leafValues>
        -7.5839138031005859e-01 6.8205513060092926e-02</leafValues></_>
    <_>
      <internalNodes>
        0 -1 36482 7.2250170633196831e-03</internalNodes>
      <leafValues>
        8.2463152706623077e-02 -6.0907429456710815e-01</leafValues></_>
    <_>
      <internalNodes>
        0 -1 4428 8.5162799805402756e-03</internalNodes>
      <leafValues>
        -1.4081518352031708e-01 4.0842083096504211e-01</leafValues></_>
    <_>
      <internalNodes>
        0 -1 68553 -2.5944681838154793e-03</internalNodes>
      <leafValues>
        2.8023675084114075e-01 -2.1004153788089752e-01</leafValues></_>
    <_>
      <internalNodes>
        0 -1 41404 1.1874625459313393e-02</internalNodes>
      <leafValues>
        1.2232057750225067e-01 -5.0719892978668213e-01</leafValues></_>
    <_>
      <internalNodes>
        0 -1 35911 -6.2005907297134399e-02</internalNodes>
      <leafValues>
        -7.2011798620223999e-01 7.9278744757175446e-02</leafValues></_>
    <_>
      <internalNodes>
        0 -1 58966 -6.0816801851615310e-04</internalNodes>
      <leafValues>
        2.6701718568801880e-01 -2.2494581341743469e-01</leafValues></_>
    <_>
      <internalNodes>
        0 -1 73010 1.1613842099905014e-02</internalNodes>
      <leafValues>
        7.6502092182636261e-02 -8.2542288303375244e-01</leafValues></_>
    <_>
      <internalNodes>
        0 -1 57392 5.2222766680642962e-04</internalNodes>
      <leafValues>
        -2.5065928697586060e-01 2.0802646875381470e-01</leafValues></_>
    <_>
      <internalNodes>
        0 -1 38486 7.7563133090734482e-03</internalNodes>
      <leafValues>
        9.1361545026302338e-02 -6.5131878852844238e-01</leafValues></_>
    <_>
      <internalNodes>
        0 -1 57593 4.6387687325477600e-04</internalNodes>
      <leafValues>
        -2.2088688611984253e-01 2.4752427637577057e-01</leafValues></_>
    <_>
      <internalNodes>
        0 -1 19990 1.2530013918876648e-03</internalNodes>
      <leafValues>
        -1.7372411489486694e-01 3.0648705363273621e-01</leafValues></_>
    <_>
      <internalNodes>
        0 -1 47305 1.1732098646461964e-02</internalNodes>
      <leafValues>
        -7.1732878684997559e-02 7.5354301929473877e-01</leafValues></_>
    <_>
      <internalNodes>
        0 -1 34209 -1.6856383299455047e-03</internalNodes>
      <leafValues>
        2.1952518820762634e-01 -2.9106324911117554e-01</leafValues></_>
    <_>
      <internalNodes>
        0 -1 62264 -7.7994717285037041e-03</internalNodes>
      <leafValues>
        4.1846343874931335e-01 -1.4298976957798004e-01</leafValues></_>
    <_>
      <internalNodes>
        0 -1 74581 -3.5957986256107688e-04</internalNodes>
      <leafValues>
        -5.0593477487564087e-01 1.1904992908239365e-01</leafValues></_>
    <_>
      <internalNodes>
        0 -1 51495 -2.9258016496896744e-02</internalNodes>
      <leafValues>
        3.6131218075752258e-01 -1.6996234655380249e-01</leafValues></_>
    <_>
      <internalNodes>
        0 -1 72382 2.3845038958825171e-04</internalNodes>
      <leafValues>
        -2.7190119028091431e-01 2.3867405951023102e-01</leafValues></_>
    <_>
      <internalNodes>
        0 -1 19337 7.4408557265996933e-03</internalNodes>
      <leafValues>
        7.5097665190696716e-02 -7.6181811094284058e-01</leafValues></_>
    <_>
      <internalNodes>
        0 -1 58971 3.1722241546958685e-03</internalNodes>
      <leafValues>
        -1.7183874547481537e-01 3.3575111627578735e-01</leafValues></_>
    <_>
      <internalNodes>
        0 -1 47158 -7.6062055304646492e-03</internalNodes>
      <leafValues>
        1.4325986802577972e-01 -3.9841529726982117e-01</leafValues></_>
    <_>
      <internalNodes>
        0 -1 42071 -7.9753212630748749e-03</internalNodes>
      <leafValues>
        -7.6670491695404053e-01 6.9645993411540985e-02</leafValues></_>
    <_>
      <internalNodes>
        0 -1 25847 3.1227683648467064e-03</internalNodes>
      <leafValues>
        8.1844530999660492e-02 -5.9120976924896240e-01</leafValues></_>
    <_>
      <internalNodes>
        0 -1 38966 1.6342501621693373e-03</internalNodes>
      <leafValues>
        -1.5138776600360870e-01 3.7139010429382324e-01</leafValues></_>
    <_>
      <internalNodes>
        0 -1 52334 -2.7994520496577024e-04</internalNodes>
      <leafValues>
        2.4293833971023560e-01 -2.3231235146522522e-01</leafValues></_>
    <_>
      <internalNodes>
        0 -1 47932 8.4143988788127899e-03</internalNodes>
      <leafValues>
        7.1145169436931610e-02 -7.6504665613174438e-01</leafValues></_>
    <_>
      <internalNodes>
        0 -1 32689 -6.6527416929602623e-03</internalNodes>
      <leafValues>
        1.7025545239448547e-01 -3.3383190631866455e-01</leafValues></_>
    <_>
      <internalNodes>
        0 -1 64380 1.6605967655777931e-02</internalNodes>
      <leafValues>
        -9.3432798981666565e-02 6.4261049032211304e-01</leafValues></_>
    <_>
      <internalNodes>
        0 -1 68584 3.4756492823362350e-03</internalNodes>
      <leafValues>
        8.2149676978588104e-02 -7.9106193780899048e-01</leafValues></_></weakClassifiers></stage17>
</opencv_storage>
