<?xml version="1.0"?>
<opencv_storage>
<stage1>
  <maxWeakCount>10</maxWeakCount>
  <stageThreshold>-1.1615705490112305e+00</stageThreshold>
  <weakClassifiers>
    <_>
      <internalNodes>
        0 -1 64902 1.1823463719338179e-03</internalNodes>
      <leafValues>
        -3.8396623730659485e-01 7.2146117687225342e-01</leafValues></_>
    <_>
      <internalNodes>
        0 -1 48277 -8.6691677570343018e-03</internalNodes>
      <leafValues>
        4.6646556258201599e-01 -5.3810596466064453e-01</leafValues></_>
    <_>
      <internalNodes>
        0 -1 42649 -2.1899227052927017e-02</internalNodes>
      <leafValues>
        5.7411950826644897e-01 -3.7914696335792542e-01</leafValues></_>
    <_>
      <internalNodes>
        0 -1 54379 -4.6695051714777946e-03</internalNodes>
      <leafValues>
        4.5573794841766357e-01 -4.3951126933097839e-01</leafValues></_>
    <_>
      <internalNodes>
        0 -1 64808 -5.3844200447201729e-03</internalNodes>
      <leafValues>
        3.6287921667098999e-01 -4.3231481313705444e-01</leafValues></_>
    <_>
      <internalNodes>
        0 -1 48625 1.4783077873289585e-02</internalNodes>
      <leafValues>
        1.6147276759147644e-01 -7.2933799028396606e-01</leafValues></_>
    <_>
      <internalNodes>
        0 -1 13639 1.2285683769732714e-03</internalNodes>
      <leafValues>
        -4.0751031041145325e-01 2.8730896115303040e-01</leafValues></_>
    <_>
      <internalNodes>
        0 -1 56915 -5.4842187091708183e-04</internalNodes>
      <leafValues>
        2.4659109115600586e-01 -3.9816796779632568e-01</leafValues></_>
    <_>
      <internalNodes>
        0 -1 47881 -3.1572890002280474e-03</internalNodes>
      <leafValues>
        -4.7331622242927551e-01 1.9800157845020294e-01</leafValues></_>
    <_>
      <internalNodes>
        0 -1 38429 -2.8031235560774803e-03</internalNodes>
      <leafValues>
        4.5310708880424500e-01 -1.9714902341365814e-01</leafValues></_></weakClassifiers></stage1>
</opencv_storage>
