<?xml version="1.0"?>
<opencv_storage>
<stage2>
  <maxWeakCount>8</maxWeakCount>
  <stageThreshold>-6.1808711290359497e-01</stageThreshold>
  <weakClassifiers>
    <_>
      <internalNodes>
        0 -1 13957 2.0627081394195557e-02</internalNodes>
      <leafValues>
        -1.9275122880935669e-01 7.6312249898910522e-01</leafValues></_>
    <_>
      <internalNodes>
        0 -1 48507 3.3073108643293381e-03</internalNodes>
      <leafValues>
        -4.3194374442100525e-01 5.8916491270065308e-01</leafValues></_>
    <_>
      <internalNodes>
        0 -1 17477 -1.7264697700738907e-02</internalNodes>
      <leafValues>
        5.9591656923294067e-01 -4.5099830627441406e-01</leafValues></_>
    <_>
      <internalNodes>
        0 -1 70942 -2.3904355242848396e-02</internalNodes>
      <leafValues>
        7.1307086944580078e-01 -2.9300910234451294e-01</leafValues></_>
    <_>
      <internalNodes>
        0 -1 68288 2.5424238294363022e-02</internalNodes>
      <leafValues>
        -2.6080527901649475e-01 8.1248348951339722e-01</leafValues></_>
    <_>
      <internalNodes>
        0 -1 49903 -9.3834064900875092e-03</internalNodes>
      <leafValues>
        7.1261167526245117e-01 -2.9530990123748779e-01</leafValues></_>
    <_>
      <internalNodes>
        0 -1 26767 -2.0387377589941025e-03</internalNodes>
      <leafValues>
        6.7024850845336914e-01 -2.7438488602638245e-01</leafValues></_>
    <_>
      <internalNodes>
        0 -1 76202 1.2987944064661860e-03</internalNodes>
      <leafValues>
        -3.8083842396736145e-01 5.6814873218536377e-01</leafValues></_></weakClassifiers></stage2>
</opencv_storage>
