<?xml version="1.0"?>
<opencv_storage>
<stage8>
  <maxWeakCount>12</maxWeakCount>
  <stageThreshold>-1.0658090114593506e+00</stageThreshold>
  <weakClassifiers>
    <_>
      <internalNodes>
        0 -1 2821 2.1297540515661240e-02</internalNodes>
      <leafValues>
        -2.5806450843811035e-01 5.8500528335571289e-01</leafValues></_>
    <_>
      <internalNodes>
        0 -1 78051 -1.3795310631394386e-02</internalNodes>
      <leafValues>
        6.4405989646911621e-01 -2.2435653209686279e-01</leafValues></_>
    <_>
      <internalNodes>
        0 -1 65300 -3.0709439888596535e-02</internalNodes>
      <leafValues>
        4.2535191774368286e-01 -3.3972808718681335e-01</leafValues></_>
    <_>
      <internalNodes>
        0 -1 66982 -1.6858552116900682e-03</internalNodes>
      <leafValues>
        3.5419547557830811e-01 -4.9516609311103821e-01</leafValues></_>
    <_>
      <internalNodes>
        0 -1 52653 -2.5388125795871019e-03</internalNodes>
      <leafValues>
        2.8310582041740417e-01 -4.4211533665657043e-01</leafValues></_>
    <_>
      <internalNodes>
        0 -1 7341 1.3161284849047661e-02</internalNodes>
      <leafValues>
        -2.9302367568016052e-01 4.4347193837165833e-01</leafValues></_>
    <_>
      <internalNodes>
        0 -1 45912 -3.2513305544853210e-02</internalNodes>
      <leafValues>
        5.4312354326248169e-01 -2.3739208281040192e-01</leafValues></_>
    <_>
      <internalNodes>
        0 -1 41218 2.1357499063014984e-02</internalNodes>
      <leafValues>
        -2.5980401039123535e-01 6.0233938694000244e-01</leafValues></_>
    <_>
      <internalNodes>
        0 -1 29777 1.1327639222145081e-03</internalNodes>
      <leafValues>
        -3.7912559509277344e-01 3.7186521291732788e-01</leafValues></_>
    <_>
      <internalNodes>
        0 -1 61825 6.4037105767056346e-04</internalNodes>
      <leafValues>
        -5.0879341363906860e-01 2.8221803903579712e-01</leafValues></_>
    <_>
      <internalNodes>
        0 -1 51023 -1.4612112194299698e-02</internalNodes>
      <leafValues>
        7.2159349918365479e-01 -2.0178268849849701e-01</leafValues></_>
    <_>
      <internalNodes>
        0 -1 53598 5.9931259602308273e-03</internalNodes>
      <leafValues>
        1.8847101926803589e-01 -8.8759911060333252e-01</leafValues></_></weakClassifiers></stage8>
</opencv_storage>
