<?xml version="1.0"?>
<opencv_storage>
<cascade>
  <stageType>BOOST</stageType>
  <featureType>HAAR</featureType>
  <height>20</height>
  <width>20</width>
  <stageParams>
    <boostType>GAB</boostType>
    <minHitRate>9.9500000476837158e-01</minHitRate>
    <maxFalseAlarm>5.0000000000000000e-01</maxFalseAlarm>
    <weightTrimRate>9.4999999999999996e-01</weightTrimRate>
    <maxDepth>1</maxDepth>
    <maxWeakCount>100</maxWeakCount></stageParams>
  <featureParams>
    <maxCatCount>0</maxCatCount>
    <featSize>1</featSize>
    <mode>BASIC</mode></featureParams>
  <stageNum>20</stageNum>
  <stages>
    <!-- stage 0 -->
    <_>
      <maxWeakCount>11</maxWeakCount>
      <stageThreshold>-1.4129915237426758e+00</stageThreshold>
      <weakClassifiers>
        <_>
          <internalNodes>
            0 -1 101 2.1647149696946144e-02</internalNodes>
          <leafValues>
            -5.1432996988296509e-01 7.7836519479751587e-01</leafValues></_>
        <_>
          <internalNodes>
            0 -1 771 1.7768520861864090e-02</internalNodes>
          <leafValues>
            -3.1103757023811340e-01 7.1323764324188232e-01</leafValues></_>
        <_>
          <internalNodes>
            0 -1 1024 -1.2298259884119034e-02</internalNodes>
          <leafValues>
            4.6822077035903931e-01 -3.8620379567146301e-01</leafValues></_>
        <_>
          <internalNodes>
            0 -1 60 6.2061861157417297e-02</internalNodes>
          <leafValues>
            -2.8372794389724731e-01 4.7638532519340515e-01</leafValues></_>
        <_>
          <internalNodes>
            0 -1 869 7.1930448757484555e-04</internalNodes>
          <leafValues>
            -2.9483944177627563e-01 3.2795631885528564e-01</leafValues></_>
        <_>
          <internalNodes>
            0 -1 48 2.7046669274568558e-03</internalNodes>
          <leafValues>
            -2.5124320387840271e-01 3.5327941179275513e-01</leafValues></_>
        <_>
          <internalNodes>
            0 -1 715 -3.3811753382906318e-04</internalNodes>
          <leafValues>
            2.6701629161834717e-01 -2.8255513310432434e-01</leafValues></_>
        <_>
          <internalNodes>
            0 -1 273 -6.9743301719427109e-03</internalNodes>
          <leafValues>
            3.1782025098800659e-01 -2.2238805890083313e-01</leafValues></_>
        <_>
          <internalNodes>
            0 -1 375 1.6019616741687059e-03</internalNodes>
          <leafValues>
            -1.9986520707607269e-01 3.8280925154685974e-01</leafValues></_>
        <_>
          <internalNodes>
            0 -1 4 -3.6977034807205200e-01</internalNodes>
          <leafValues>
            5.6869322061538696e-01 -1.4509609341621399e-01</leafValues></_>
        <_>
          <internalNodes>
            0 -1 991 -5.7794724125415087e-04</internalNodes>
          <leafValues>
            3.3356398344039917e-01 -1.9455002248287201e-01</leafValues></_></weakClassifiers></_>
    <!-- stage 1 -->
    <_>
      <maxWeakCount>22</maxWeakCount>
      <stageThreshold>-1.4056117534637451e+00</stageThreshold>
      <weakClassifiers>
        <_>
          <internalNodes>
            0 -1 170 1.2152398005127907e-02</internalNodes>
          <leafValues>
            -4.3334838747978210e-01 6.5424627065658569e-01</leafValues></_>
        <_>
          <internalNodes>
            0 -1 771 2.2335242480039597e-02</internalNodes>
          <leafValues>
            -2.9213598370552063e-01 6.5871042013168335e-01</leafValues></_>
        <_>
          <internalNodes>
            0 -1 946 -2.7785863727331161e-02</internalNodes>
          <leafValues>
            5.1773607730865479e-01 -2.9015079140663147e-01</leafValues></_>
        <_>
          <internalNodes>
            0 -1 193 -3.6070436239242554e-02</internalNodes>
          <leafValues>
            3.0602288246154785e-01 -4.0794590115547180e-01</leafValues></_>
        <_>
          <internalNodes>
            0 -1 389 1.2185216182842851e-03</internalNodes>
          <leafValues>
            -2.6255482435226440e-01 3.3147403597831726e-01</leafValues></_>
        <_>
          <internalNodes>
            0 -1 592 -7.0094579132273793e-04</internalNodes>
          <leafValues>
            2.9535120725631714e-01 -2.7594622969627380e-01</leafValues></_>
        <_>
          <internalNodes>
            0 -1 409 -1.3651961926370859e-03</internalNodes>
          <leafValues>
            3.2085850834846497e-01 -2.3830413818359375e-01</leafValues></_>
        <_>
          <internalNodes>
            0 -1 505 -6.1452379450201988e-03</internalNodes>
          <leafValues>
            3.3765628933906555e-01 -2.0931567251682281e-01</leafValues></_>
        <_>
          <internalNodes>
            0 -1 547 1.5393082052469254e-02</internalNodes>
          <leafValues>
            9.8944850265979767e-02 -6.6385382413864136e-01</leafValues></_>
        <_>
          <internalNodes>
            0 -1 682 -6.7595951259136200e-04</internalNodes>
          <leafValues>
            3.1104671955108643e-01 -2.1977405250072479e-01</leafValues></_>
        <_>
          <internalNodes>
            0 -1 44 1.2343105860054493e-02</internalNodes>
          <leafValues>
            -2.3321573436260223e-01 2.4379794299602509e-01</leafValues></_>
        <_>
          <internalNodes>
            0 -1 633 7.5597059912979603e-04</internalNodes>
          <leafValues>
            -1.6415089368820190e-01 3.4926685690879822e-01</leafValues></_>
        <_>
          <internalNodes>
            0 -1 871 9.2833605594933033e-04</internalNodes>
          <leafValues>
            -2.3235034942626953e-01 2.2805064916610718e-01</leafValues></_>
        <_>
          <internalNodes>
            0 -1 593 -5.2824519574642181e-02</internalNodes>
          <leafValues>
            6.9987016916275024e-01 -8.8820852339267731e-02</leafValues></_>
        <_>
          <internalNodes>
            0 -1 279 -6.7289045546203852e-04</internalNodes>
          <leafValues>
            3.0623143911361694e-01 -1.6612434387207031e-01</leafValues></_>
        <_>
          <internalNodes>
            0 -1 160 -3.5677909851074219e-02</internalNodes>
          <leafValues>
            -6.4867985248565674e-01 8.8393636047840118e-02</leafValues></_>
        <_>
          <internalNodes>
            0 -1 386 -2.9273211956024170e-02</internalNodes>
          <leafValues>
            -7.7159041166305542e-01 5.9889782220125198e-02</leafValues></_>
        <_>
          <internalNodes>
            0 -1 963 5.9750297805294394e-04</internalNodes>
          <leafValues>
            -1.7909523844718933e-01 3.0356863141059875e-01</leafValues></_>
        <_>
          <internalNodes>
            0 -1 441 -1.8804952502250671e-02</internalNodes>
          <leafValues>
            5.0211304426193237e-01 -1.1009021848440170e-01</leafValues></_>
        <_>
          <internalNodes>
            0 -1 105 -1.3569314032793045e-02</internalNodes>
          <leafValues>
            4.6516290307044983e-01 -1.2107439339160919e-01</leafValues></_>
        <_>
          <internalNodes>
            0 -1 1074 -4.0303618879988790e-04</internalNodes>
          <leafValues>
            2.5517031550407410e-01 -2.0757883787155151e-01</leafValues></_>
        <_>
          <internalNodes>
            0 -1 540 5.0966185517609119e-04</internalNodes>
          <leafValues>
            -1.9102261960506439e-01 2.5054138898849487e-01</leafValues></_></weakClassifiers></_>
    <!-- stage 2 -->
    <_>
      <maxWeakCount>31</maxWeakCount>
      <stageThreshold>-1.3084146976470947e+00</stageThreshold>
      <weakClassifiers>
        <_>
          <internalNodes>
            0 -1 249 -1.1328497901558876e-02</internalNodes>
          <leafValues>
            6.8097907304763794e-01 -2.9227322340011597e-01</leafValues></_>
        <_>
          <internalNodes>
            0 -1 839 2.2566696628928185e-02</internalNodes>
          <leafValues>
            -2.4140109121799469e-01 6.4313107728958130e-01</leafValues></_>
        <_>
          <internalNodes>
            0 -1 97 4.0944091975688934e-02</internalNodes>
          <leafValues>
            -2.3140831291675568e-01 5.4825186729431152e-01</leafValues></_>
        <_>
          <internalNodes>
            0 -1 503 -1.5498429536819458e-02</internalNodes>
          <leafValues>
            4.7125434875488281e-01 -2.0098629593849182e-01</leafValues></_>
        <_>
          <internalNodes>
            0 -1 698 1.8529778346419334e-02</internalNodes>
          <leafValues>
            -3.3740529417991638e-01 3.3059594035148621e-01</leafValues></_>
        <_>
          <internalNodes>
            0 -1 541 1.1154669336974621e-03</internalNodes>
          <leafValues>
            -2.1413990855216980e-01 3.0659732222557068e-01</leafValues></_>
        <_>
          <internalNodes>
            0 -1 575 -9.3603075947612524e-04</internalNodes>
          <leafValues>
            1.7176234722137451e-01 -3.4042063355445862e-01</leafValues></_>
        <_>
          <internalNodes>
            0 -1 749 -2.1834489889442921e-03</internalNodes>
          <leafValues>
            3.1747156381607056e-01 -1.9515743851661682e-01</leafValues></_>
        <_>
          <internalNodes>
            0 -1 257 3.7426520138978958e-02</internalNodes>
          <leafValues>
            9.7707100212574005e-02 -5.2863615751266479e-01</leafValues></_>
        <_>
          <internalNodes>
            0 -1 191 -6.5057225525379181e-02</internalNodes>
          <leafValues>
            -5.6077069044113159e-01 9.0448252856731415e-02</leafValues></_>
        <_>
          <internalNodes>
            0 -1 563 -2.6784595102071762e-02</internalNodes>
          <leafValues>
            -7.1963471174240112e-01 6.0468334704637527e-02</leafValues></_>
        <_>
          <internalNodes>
            0 -1 551 6.5781976445578039e-05</internalNodes>
          <leafValues>
            1.2876604497432709e-01 -3.1691262125968933e-01</leafValues></_>
        <_>
          <internalNodes>
            0 -1 275 1.0481284931302071e-02</internalNodes>
          <leafValues>
            -1.8129637837409973e-01 2.8185868263244629e-01</leafValues></_>
        <_>
          <internalNodes>
            0 -1 718 -1.5579517930746078e-03</internalNodes>
          <leafValues>
            2.1765556931495667e-01 -1.9329303503036499e-01</leafValues></_>
        <_>
          <internalNodes>
            0 -1 697 4.0414944291114807e-02</internalNodes>
          <leafValues>
            -8.5303522646427155e-02 5.4196220636367798e-01</leafValues></_>
        <_>
          <internalNodes>
            0 -1 1006 2.6161652058362961e-02</internalNodes>
          <leafValues>
            -1.8996311724185944e-01 2.4223755300045013e-01</leafValues></_>
        <_>
          <internalNodes>
            0 -1 23 9.6105365082621574e-03</internalNodes>
          <leafValues>
            -2.2204135358333588e-01 1.8423570692539215e-01</leafValues></_>
        <_>
          <internalNodes>
            0 -1 624 -1.4741001650691032e-02</internalNodes>
          <leafValues>
            -5.8453768491744995e-01 6.4423471689224243e-02</leafValues></_>
        <_>
          <internalNodes>
            0 -1 166 6.3991602510213852e-03</internalNodes>
          <leafValues>
            6.5845638513565063e-02 -5.1814413070678711e-01</leafValues></_>
        <_>
          <internalNodes>
            0 -1 925 -6.5261125564575195e-03</internalNodes>
          <leafValues>
            -6.9382768869400024e-01 4.4434685260057449e-02</leafValues></_>
        <_>
          <internalNodes>
            0 -1 195 1.1841584928333759e-03</internalNodes>
          <leafValues>
            -1.5643945336341858e-01 2.3959773778915405e-01</leafValues></_>
        <_>
          <internalNodes>
            0 -1 951 1.4599913265556097e-03</internalNodes>
          <leafValues>
            -1.9122561812400818e-01 2.3731555044651031e-01</leafValues></_>
        <_>
          <internalNodes>
            0 -1 1032 4.8018453526310623e-04</internalNodes>
          <leafValues>
            -1.3212004303932190e-01 2.7266076207160950e-01</leafValues></_>
        <_>
          <internalNodes>
            0 -1 941 3.6537642590701580e-03</internalNodes>
          <leafValues>
            -1.4725640416145325e-01 2.3871354758739471e-01</leafValues></_>
        <_>
          <internalNodes>
            0 -1 589 1.0480329394340515e-02</internalNodes>
          <leafValues>
            5.0573412328958511e-02 -6.8420922756195068e-01</leafValues></_>
        <_>
          <internalNodes>
            0 -1 357 -4.5170739293098450e-02</internalNodes>
          <leafValues>
            -6.4281344413757324e-01 4.3205030262470245e-02</leafValues></_>
        <_>
          <internalNodes>
            0 -1 510 -1.9030172843486071e-03</internalNodes>
          <leafValues>
            2.1591627597808838e-01 -1.4289602637290955e-01</leafValues></_>
        <_>
          <internalNodes>
            0 -1 678 -5.9944026172161102e-02</internalNodes>
          <leafValues>
            -7.6732927560806274e-01 4.2032193392515182e-02</leafValues></_>
        <_>
          <internalNodes>
            0 -1 6 -3.5210976004600525e-01</internalNodes>
          <leafValues>
            5.2201539278030396e-01 -7.1998648345470428e-02</leafValues></_>
        <_>
          <internalNodes>
            0 -1 537 -4.8008304089307785e-02</internalNodes>
          <leafValues>
            2.8770801424980164e-01 -1.1429811269044876e-01</leafValues></_>
        <_>
          <internalNodes>
            0 -1 52 3.4805904142558575e-03</internalNodes>
          <leafValues>
            -1.4454573392868042e-01 2.1816672384738922e-01</leafValues></_></weakClassifiers></_>
    <!-- stage 3 -->
    <_>
      <maxWeakCount>38</maxWeakCount>
      <stageThreshold>-1.2192027568817139e+00</stageThreshold>
      <weakClassifiers>
        <_>
          <internalNodes>
            0 -1 101 3.3681891858577728e-02</internalNodes>
          <leafValues>
            -2.5155279040336609e-01 6.3931763172149658e-01</leafValues></_>
        <_>
          <internalNodes>
            0 -1 839 1.3612171635031700e-02</internalNodes>
          <leafValues>
            -3.3654072880744934e-01 4.6369373798370361e-01</leafValues></_>
        <_>
          <internalNodes>
            0 -1 63 4.9430094659328461e-02</internalNodes>
          <leafValues>
            -2.4056272208690643e-01 4.6109104156494141e-01</leafValues></_>
        <_>
          <internalNodes>
            0 -1 265 1.3351062079891562e-03</internalNodes>
          <leafValues>
            -2.1540768444538116e-01 3.3335125446319580e-01</leafValues></_>
        <_>
          <internalNodes>
            0 -1 782 7.7626057900488377e-03</internalNodes>
          <leafValues>
            -2.4531129002571106e-01 2.7451208233833313e-01</leafValues></_>
        <_>
          <internalNodes>
            0 -1 339 -4.0801633149385452e-03</internalNodes>
          <leafValues>
            2.6040896773338318e-01 -2.7982404828071594e-01</leafValues></_>
        <_>
          <internalNodes>
            0 -1 188 -5.1292125135660172e-03</internalNodes>
          <leafValues>
            1.5972687304019928e-01 -2.8656062483787537e-01</leafValues></_>
        <_>
          <internalNodes>
            0 -1 715 -6.0122995637357235e-04</internalNodes>
          <leafValues>
            2.2342918813228607e-01 -2.1263642609119415e-01</leafValues></_>
        <_>
          <internalNodes>
            0 -1 336 -1.7555825412273407e-02</internalNodes>
          <leafValues>
            -5.3370893001556396e-01 7.6438769698143005e-02</leafValues></_>
        <_>
          <internalNodes>
            0 -1 853 1.7682846635580063e-02</internalNodes>
          <leafValues>
            -1.1518748849630356e-01 4.0911218523979187e-01</leafValues></_>
        <_>
          <internalNodes>
            0 -1 445 4.8490188783034682e-04</internalNodes>
          <leafValues>
            -1.5527541935443878e-01 2.8350213170051575e-01</leafValues></_>
        <_>
          <internalNodes>
            0 -1 306 -4.3196035549044609e-03</internalNodes>
          <leafValues>
            3.3963912725448608e-01 -1.3249629735946655e-01</leafValues></_>
        <_>
          <internalNodes>
            0 -1 852 -4.7830669209361076e-03</internalNodes>
          <leafValues>
            -5.3783625364303589e-01 8.2953497767448425e-02</leafValues></_>
        <_>
          <internalNodes>
            0 -1 806 -9.4877148512750864e-04</internalNodes>
          <leafValues>
            2.8389877080917358e-01 -1.5595735609531403e-01</leafValues></_>
        <_>
          <internalNodes>
            0 -1 697 3.2372981309890747e-02</internalNodes>
          <leafValues>
            -8.9683033525943756e-02 4.3794286251068115e-01</leafValues></_>
        <_>
          <internalNodes>
            0 -1 1052 -1.0227678343653679e-02</internalNodes>
          <leafValues>
            2.3801815509796143e-01 -1.7173443734645844e-01</leafValues></_>
        <_>
          <internalNodes>
            0 -1 534 7.8916642814874649e-03</internalNodes>
          <leafValues>
            8.8191993534564972e-02 -4.4263532757759094e-01</leafValues></_>
        <_>
          <internalNodes>
            0 -1 365 -5.4778911173343658e-02</internalNodes>
          <leafValues>
            -5.7155930995941162e-01 6.6743858158588409e-02</leafValues></_>
        <_>
          <internalNodes>
            0 -1 424 4.4853071449324489e-04</internalNodes>
          <leafValues>
            -1.6840799152851105e-01 2.4453520774841309e-01</leafValues></_>
        <_>
          <internalNodes>
            0 -1 591 -1.6201492398977280e-02</internalNodes>
          <leafValues>
            -6.8640285730361938e-01 5.4953262209892273e-02</leafValues></_>
        <_>
          <internalNodes>
            0 -1 373 -1.5450767241418362e-02</internalNodes>
          <leafValues>
            4.8233109712600708e-01 -8.9971914887428284e-02</leafValues></_>
        <_>
          <internalNodes>
            0 -1 894 -1.6598980873823166e-03</internalNodes>
          <leafValues>
            2.7488887310028076e-01 -1.4862199127674103e-01</leafValues></_>
        <_>
          <internalNodes>
            0 -1 586 6.9252476096153259e-03</internalNodes>
          <leafValues>
            5.0451848655939102e-02 -6.9950109720230103e-01</leafValues></_>
        <_>
          <internalNodes>
            0 -1 490 1.3488118536770344e-02</internalNodes>
          <leafValues>
            8.0080240964889526e-02 -3.9890462160110474e-01</leafValues></_>
        <_>
          <internalNodes>
            0 -1 49 3.1579893548041582e-03</internalNodes>
          <leafValues>
            -1.7927841842174530e-01 1.9435814023017883e-01</leafValues></_>
        <_>
          <internalNodes>
            0 -1 738 -2.1185245364904404e-02</internalNodes>
          <leafValues>
            -8.9587086439132690e-01 3.6261118948459625e-02</leafValues></_>
        <_>
          <internalNodes>
            0 -1 962 3.7348340265452862e-04</internalNodes>
          <leafValues>
            -2.1987473964691162e-01 1.5432325005531311e-01</leafValues></_>
        <_>
          <internalNodes>
            0 -1 728 -7.5308145023882389e-03</internalNodes>
          <leafValues>
            3.2711046934127808e-01 -1.0878206044435501e-01</leafValues></_>
        <_>
          <internalNodes>
            0 -1 1019 2.4539423175156116e-03</internalNodes>
          <leafValues>
            7.1026302874088287e-02 -5.4694545269012451e-01</leafValues></_>
        <_>
          <internalNodes>
            0 -1 682 -6.8692013155668974e-04</internalNodes>
          <leafValues>
            2.1834281086921692e-01 -1.6676336526870728e-01</leafValues></_>
        <_>
          <internalNodes>
            0 -1 970 7.7025899663567543e-03</internalNodes>
          <leafValues>
            4.1331619024276733e-02 -7.3181957006454468e-01</leafValues></_>
        <_>
          <internalNodes>
            0 -1 128 -1.0295126587152481e-02</internalNodes>
          <leafValues>
            -3.1890726089477539e-01 8.7495468556880951e-02</leafValues></_>
        <_>
          <internalNodes>
            0 -1 567 -4.0710933506488800e-02</internalNodes>
          <leafValues>
            -7.2254592180252075e-01 4.2266707867383957e-02</leafValues></_>
        <_>
          <internalNodes>
            0 -1 418 1.2885405682027340e-02</internalNodes>
          <leafValues>
            4.7019600868225098e-02 -5.3731739521026611e-01</leafValues></_>
        <_>
          <internalNodes>
            0 -1 467 1.7571558710187674e-03</internalNodes>
          <leafValues>
            -1.2325699627399445e-01 3.1558591127395630e-01</leafValues></_>
        <_>
          <internalNodes>
            0 -1 210 -3.5534084308892488e-03</internalNodes>
          <leafValues>
            2.4782039225101471e-01 -1.1901827156543732e-01</leafValues></_>
        <_>
          <internalNodes>
            0 -1 178 7.0963717997074127e-02</internalNodes>
          <leafValues>
            -4.0029607713222504e-02 7.0235276222229004e-01</leafValues></_>
        <_>
          <internalNodes>
            0 -1 409 -4.2835419299080968e-04</internalNodes>
          <leafValues>
            1.7774218320846558e-01 -2.2462353110313416e-01</leafValues></_></weakClassifiers></_>
    <!-- stage 4 -->
    <_>
      <maxWeakCount>50</maxWeakCount>
      <stageThreshold>-1.1916460990905762e+00</stageThreshold>
      <weakClassifiers>
        <_>
          <internalNodes>
            0 -1 101 4.5357219874858856e-02</internalNodes>
          <leafValues>
            -1.1696456372737885e-01 6.6643470525741577e-01</leafValues></_>
        <_>
          <internalNodes>
            0 -1 839 2.6127055287361145e-02</internalNodes>
          <leafValues>
            -1.8312548100948334e-01 5.4215615987777710e-01</leafValues></_>
        <_>
          <internalNodes>
            0 -1 375 1.7949561588466167e-03</internalNodes>
          <leafValues>
            -2.5873339176177979e-01 3.4298682212829590e-01</leafValues></_>
        <_>
          <internalNodes>
            0 -1 632 -3.5633631050586700e-02</internalNodes>
          <leafValues>
            4.2936578392982483e-01 -1.7879101634025574e-01</leafValues></_>
        <_>
          <internalNodes>
            0 -1 774 1.8804855644702911e-02</internalNodes>
          <leafValues>
            -2.9310649633407593e-01 3.1399449706077576e-01</leafValues></_>
        <_>
          <internalNodes>
            0 -1 435 1.1398261412978172e-02</internalNodes>
          <leafValues>
            -1.4042392373085022e-01 2.9731571674346924e-01</leafValues></_>
        <_>
          <internalNodes>
            0 -1 969 1.1155988322570920e-03</internalNodes>
          <leafValues>
            -1.3854898512363434e-01 2.9822313785552979e-01</leafValues></_>
        <_>
          <internalNodes>
            0 -1 432 7.4273166246712208e-03</internalNodes>
          <leafValues>
            4.2418584227561951e-02 -6.5676641464233398e-01</leafValues></_>
        <_>
          <internalNodes>
            0 -1 703 -1.2165873311460018e-02</internalNodes>
          <leafValues>
            1.8661974370479584e-01 -2.0706574618816376e-01</leafValues></_>
        <_>
          <internalNodes>
            0 -1 53 9.4249555841088295e-03</internalNodes>
          <leafValues>
            -2.0945711433887482e-01 1.8222862482070923e-01</leafValues></_>
        <_>
          <internalNodes>
            0 -1 785 -6.8054152652621269e-03</internalNodes>
          <leafValues>
            -7.0701211690902710e-01 4.4838935136795044e-02</leafValues></_>
        <_>
          <internalNodes>
            0 -1 677 -3.3954749815165997e-03</internalNodes>
          <leafValues>
            1.2041960656642914e-01 -2.6933428645133972e-01</leafValues></_>
        <_>
          <internalNodes>
            0 -1 250 -4.3856885284185410e-02</internalNodes>
          <leafValues>
            -4.9187853932380676e-01 8.3342842757701874e-02</leafValues></_>
        <_>
          <internalNodes>
            0 -1 451 -3.5057395696640015e-02</internalNodes>
          <leafValues>
            -7.6781702041625977e-01 3.3294614404439926e-02</leafValues></_>
        <_>
          <internalNodes>
            0 -1 19 -1.1458327993750572e-02</internalNodes>
          <leafValues>
            -2.5641152262687683e-01 1.2207941710948944e-01</leafValues></_>
        <_>
          <internalNodes>
            0 -1 710 -1.0173567570745945e-02</internalNodes>
          <leafValues>
            2.3005913197994232e-01 -1.3915100693702698e-01</leafValues></_>
        <_>
          <internalNodes>
            0 -1 655 1.1201167479157448e-02</internalNodes>
          <leafValues>
            -1.6149301826953888e-01 2.7346000075340271e-01</leafValues></_>
        <_>
          <internalNodes>
            0 -1 243 -4.4800985604524612e-02</internalNodes>
          <leafValues>
            -4.9192276597023010e-01 6.7110307514667511e-02</leafValues></_>
        <_>
          <internalNodes>
            0 -1 673 -1.8600933253765106e-03</internalNodes>
          <leafValues>
            2.5331181287765503e-01 -1.3571831583976746e-01</leafValues></_>
        <_>
          <internalNodes>
            0 -1 294 -7.6396092772483826e-02</internalNodes>
          <leafValues>
            -6.1858218908309937e-01 4.9880206584930420e-02</leafValues></_>
        <_>
          <internalNodes>
            0 -1 645 -1.9371419912204146e-03</internalNodes>
          <leafValues>
            2.2428856790065765e-01 -1.4331313967704773e-01</leafValues></_>
        <_>
          <internalNodes>
            0 -1 849 7.2883078828454018e-03</internalNodes>
          <leafValues>
            5.6973483413457870e-02 -5.5226141214370728e-01</leafValues></_>
        <_>
          <internalNodes>
            0 -1 658 -9.4268135726451874e-03</internalNodes>
          <leafValues>
            -6.3792824745178223e-01 3.8988631218671799e-02</leafValues></_>
        <_>
          <internalNodes>
            0 -1 51 4.4525805860757828e-03</internalNodes>
          <leafValues>
            -1.0804118961095810e-01 2.6190543174743652e-01</leafValues></_>
        <_>
          <internalNodes>
            0 -1 967 1.3960385695099831e-02</internalNodes>
          <leafValues>
            3.4359894692897797e-02 -8.6945819854736328e-01</leafValues></_>
        <_>
          <internalNodes>
            0 -1 402 -1.8692500889301300e-02</internalNodes>
          <leafValues>
            -5.3732013702392578e-01 4.4954657554626465e-02</leafValues></_>
        <_>
          <internalNodes>
            0 -1 693 -2.3909106850624084e-02</internalNodes>
          <leafValues>
            5.0937074422836304e-01 -6.4642809331417084e-02</leafValues></_>
        <_>
          <internalNodes>
            0 -1 410 -9.1250787954777479e-04</internalNodes>
          <leafValues>
            1.7965260148048401e-01 -2.0982696115970612e-01</leafValues></_>
        <_>
          <internalNodes>
            0 -1 671 1.8936008214950562e-02</internalNodes>
          <leafValues>
            4.3026480823755264e-02 -7.4062395095825195e-01</leafValues></_>
        <_>
          <internalNodes>
            0 -1 274 2.9219247400760651e-02</internalNodes>
          <leafValues>
            -9.9820375442504883e-02 3.0717498064041138e-01</leafValues></_>
        <_>
          <internalNodes>
            0 -1 260 -2.7891485951840878e-03</internalNodes>
          <leafValues>
            2.4691109359264374e-01 -1.2427508085966110e-01</leafValues></_>
        <_>
          <internalNodes>
            0 -1 474 2.2742748260498047e-02</internalNodes>
          <leafValues>
            5.7525381445884705e-02 -4.8665699362754822e-01</leafValues></_>
        <_>
          <internalNodes>
            0 -1 341 3.4521752968430519e-03</internalNodes>
          <leafValues>
            7.8346028923988342e-02 -3.3550199866294861e-01</leafValues></_>
        <_>
          <internalNodes>
            0 -1 469 -1.8593870103359222e-02</internalNodes>
          <leafValues>
            5.7241672277450562e-01 -4.6737730503082275e-02</leafValues></_>
        <_>
          <internalNodes>
            0 -1 789 -1.5246234834194183e-03</internalNodes>
          <leafValues>
            2.0169563591480255e-01 -1.3973082602024078e-01</leafValues></_>
        <_>
          <internalNodes>
            0 -1 728 -7.7309077605605125e-03</internalNodes>
          <leafValues>
            2.9029813408851624e-01 -8.9773185551166534e-02</leafValues></_>
        <_>
          <internalNodes>
            0 -1 476 1.5433201566338539e-02</internalNodes>
          <leafValues>
            -8.3242885768413544e-02 3.9380866289138794e-01</leafValues></_>
        <_>
          <internalNodes>
            0 -1 1092 3.0808295123279095e-03</internalNodes>
          <leafValues>
            6.8853020668029785e-02 -4.0401589870452881e-01</leafValues></_>
        <_>
          <internalNodes>
            0 -1 300 -1.5968956053256989e-02</internalNodes>
          <leafValues>
            2.7486556768417358e-01 -9.8643966019153595e-02</leafValues></_>
        <_>
          <internalNodes>
            0 -1 906 -1.3536155456677079e-03</internalNodes>
          <leafValues>
            2.2066853940486908e-01 -1.2398044764995575e-01</leafValues></_>
        <_>
          <internalNodes>
            0 -1 525 -1.2204989790916443e-02</internalNodes>
          <leafValues>
            -5.6507879495620728e-01 5.2807793021202087e-02</leafValues></_>
        <_>
          <internalNodes>
            0 -1 640 -1.2589769437909126e-02</internalNodes>
          <leafValues>
            -3.5358574986457825e-01 7.4614018201828003e-02</leafValues></_>
        <_>
          <internalNodes>
            0 -1 675 -3.8463696837425232e-02</internalNodes>
          <leafValues>
            -7.0752817392349243e-01 3.3861525356769562e-02</leafValues></_>
        <_>
          <internalNodes>
            0 -1 545 1.6238046810030937e-02</internalNodes>
          <leafValues>
            4.1667442768812180e-02 -5.2300798892974854e-01</leafValues></_>
        <_>
          <internalNodes>
            0 -1 629 1.8222229555249214e-02</internalNodes>
          <leafValues>
            5.3179040551185608e-02 -4.4211915135383606e-01</leafValues></_>
        <_>
          <internalNodes>
            0 -1 574 -1.6058528563007712e-03</internalNodes>
          <leafValues>
            1.2525057792663574e-01 -2.0380452275276184e-01</leafValues></_>
        <_>
          <internalNodes>
            0 -1 807 4.8424024134874344e-03</internalNodes>
          <leafValues>
            2.6108199730515480e-02 -8.7707895040512085e-01</leafValues></_>
        <_>
          <internalNodes>
            0 -1 706 8.1484168767929077e-03</internalNodes>
          <leafValues>
            3.0738126486539841e-02 -6.4381587505340576e-01</leafValues></_>
        <_>
          <internalNodes>
            0 -1 470 -1.5986759215593338e-02</internalNodes>
          <leafValues>
            -4.3556597828865051e-01 4.8360943794250488e-02</leafValues></_>
        <_>
          <internalNodes>
            0 -1 978 1.7967026680707932e-02</internalNodes>
          <leafValues>
            3.6594148725271225e-02 -6.3850134611129761e-01</leafValues></_></weakClassifiers></_>
    <!-- stage 5 -->
    <_>
      <maxWeakCount>47</maxWeakCount>
      <stageThreshold>-1.1210036277770996e+00</stageThreshold>
      <weakClassifiers>
        <_>
          <internalNodes>
            0 -1 347 3.8765862584114075e-02</internalNodes>
          <leafValues>
            -1.2495812028646469e-01 6.3632339239120483e-01</leafValues></_>
        <_>
          <internalNodes>
            0 -1 771 2.8991699218750000e-02</internalNodes>
          <leafValues>
            -2.1693563461303711e-01 5.4579097032546997e-01</leafValues></_>
        <_>
          <internalNodes>
            0 -1 253 6.6606518812477589e-03</internalNodes>
          <leafValues>
            -1.9129103422164917e-01 4.4372695684432983e-01</leafValues></_>
        <_>
          <internalNodes>
            0 -1 863 2.6605738326907158e-02</internalNodes>
          <leafValues>
            -1.8859648704528809e-01 3.3345595002174377e-01</leafValues></_>
        <_>
          <internalNodes>
            0 -1 882 -2.7857260778546333e-02</internalNodes>
          <leafValues>
            2.1773941814899445e-01 -2.3371593654155731e-01</leafValues></_>
        <_>
          <internalNodes>
            0 -1 335 3.2067645806819201e-03</internalNodes>
          <leafValues>
            -1.2980559468269348e-01 3.0839696526527405e-01</leafValues></_>
        <_>
          <internalNodes>
            0 -1 312 3.0082319863140583e-03</internalNodes>
          <leafValues>
            -1.0053937882184982e-01 4.0339022874832153e-01</leafValues></_>
        <_>
          <internalNodes>
            0 -1 175 6.1942398548126221e-02</internalNodes>
          <leafValues>
            8.0567270517349243e-02 -5.2764815092086792e-01</leafValues></_>
        <_>
          <internalNodes>
            0 -1 584 6.9167375564575195e-02</internalNodes>
          <leafValues>
            -9.2586450278759003e-02 5.0305855274200439e-01</leafValues></_>
        <_>
          <internalNodes>
            0 -1 592 -1.5480257570743561e-03</internalNodes>
          <leafValues>
            2.3257429897785187e-01 -1.5543162822723389e-01</leafValues></_>
        <_>
          <internalNodes>
            0 -1 43 6.2229480594396591e-02</internalNodes>
          <leafValues>
            -1.7227888107299805e-01 2.2128859162330627e-01</leafValues></_>
        <_>
          <internalNodes>
            0 -1 5 -7.4346172809600830e-01</internalNodes>
          <leafValues>
            7.0030349493026733e-01 -5.8341216295957565e-02</leafValues></_>
        <_>
          <internalNodes>
            0 -1 389 7.6652254210785031e-04</internalNodes>
          <leafValues>
            -1.6664196550846100e-01 2.1854004263877869e-01</leafValues></_>
        <_>
          <internalNodes>
            0 -1 869 5.1707908278331161e-04</internalNodes>
          <leafValues>
            -2.3136360943317413e-01 1.6612222790718079e-01</leafValues></_>
        <_>
          <internalNodes>
            0 -1 791 -3.6126434803009033e-02</internalNodes>
          <leafValues>
            7.1215933561325073e-01 -4.8266127705574036e-02</leafValues></_>
        <_>
          <internalNodes>
            0 -1 589 1.1051590554416180e-02</internalNodes>
          <leafValues>
            5.3043544292449951e-02 -7.3686569929122925e-01</leafValues></_>
        <_>
          <internalNodes>
            0 -1 670 1.1303192004561424e-02</internalNodes>
          <leafValues>
            4.8802498728036880e-02 -5.3437811136245728e-01</leafValues></_>
        <_>
          <internalNodes>
            0 -1 922 -4.8992540687322617e-03</internalNodes>
          <leafValues>
            -7.5157880783081055e-01 3.2520875334739685e-02</leafValues></_>
        <_>
          <internalNodes>
            0 -1 535 1.1010853573679924e-02</internalNodes>
          <leafValues>
            5.8596458286046982e-02 -4.4561001658439636e-01</leafValues></_>
        <_>
          <internalNodes>
            0 -1 919 1.3768569566309452e-02</internalNodes>
          <leafValues>
            -1.2823906540870667e-01 2.4910572171211243e-01</leafValues></_>
        <_>
          <internalNodes>
            0 -1 715 -3.5134423524141312e-04</internalNodes>
          <leafValues>
            1.5756189823150635e-01 -2.0860293507575989e-01</leafValues></_>
        <_>
          <internalNodes>
            0 -1 290 -1.0955500416457653e-02</internalNodes>
          <leafValues>
            2.7705511450767517e-01 -1.1356519162654877e-01</leafValues></_>
        <_>
          <internalNodes>
            0 -1 445 4.8620128654874861e-04</internalNodes>
          <leafValues>
            -1.4440880715847015e-01 2.5945359468460083e-01</leafValues></_>
        <_>
          <internalNodes>
            0 -1 491 -4.1964031755924225e-02</internalNodes>
          <leafValues>
            -5.7368206977844238e-01 5.4478332400321960e-02</leafValues></_>
        <_>
          <internalNodes>
            0 -1 403 4.9445915967226028e-02</internalNodes>
          <leafValues>
            4.5907389372587204e-02 -5.5443471670150757e-01</leafValues></_>
        <_>
          <internalNodes>
            0 -1 765 1.0621910914778709e-03</internalNodes>
          <leafValues>
            -1.1011460423469543e-01 2.5194391608238220e-01</leafValues></_>
        <_>
          <internalNodes>
            0 -1 730 -1.2425420805811882e-02</internalNodes>
          <leafValues>
            -7.4962896108627319e-01 4.0648669004440308e-02</leafValues></_>
        <_>
          <internalNodes>
            0 -1 496 9.6216239035129547e-04</internalNodes>
          <leafValues>
            -1.4104397594928741e-01 2.0972843468189240e-01</leafValues></_>
        <_>
          <internalNodes>
            0 -1 446 5.3641228005290031e-03</internalNodes>
          <leafValues>
            6.2626592814922333e-02 -5.1680576801300049e-01</leafValues></_>
        <_>
          <internalNodes>
            0 -1 50 -2.5312578305602074e-02</internalNodes>
          <leafValues>
            1.4443998038768768e-01 -2.1182464063167572e-01</leafValues></_>
        <_>
          <internalNodes>
            0 -1 105 -1.6474872827529907e-02</internalNodes>
          <leafValues>
            3.4340393543243408e-01 -8.5276432335376740e-02</leafValues></_>
        <_>
          <internalNodes>
            0 -1 414 -3.1755208969116211e-02</internalNodes>
          <leafValues>
            -5.8752685785293579e-01 5.8511815965175629e-02</leafValues></_>
        <_>
          <internalNodes>
            0 -1 574 -3.4682839177548885e-03</internalNodes>
          <leafValues>
            1.6389042139053345e-01 -1.8815505504608154e-01</leafValues></_>
        <_>
          <internalNodes>
            0 -1 711 -1.8532447516918182e-02</internalNodes>
          <leafValues>
            2.5787478685379028e-01 -1.1269559711217880e-01</leafValues></_>
        <_>
          <internalNodes>
            0 -1 182 -5.0288364291191101e-02</internalNodes>
          <leafValues>
            -4.4504815340042114e-01 8.9276686310768127e-02</leafValues></_>
        <_>
          <internalNodes>
            0 -1 1026 7.9896207898855209e-03</internalNodes>
          <leafValues>
            2.9626162722706795e-02 -8.9273840188980103e-01</leafValues></_>
        <_>
          <internalNodes>
            0 -1 963 4.7518638893961906e-04</internalNodes>
          <leafValues>
            -1.4584669470787048e-01 1.8652546405792236e-01</leafValues></_>
        <_>
          <internalNodes>
            0 -1 968 1.3423055410385132e-02</internalNodes>
          <leafValues>
            4.4941846281290054e-02 -5.8482676744461060e-01</leafValues></_>
        <_>
          <internalNodes>
            0 -1 917 -6.1051966622471809e-03</internalNodes>
          <leafValues>
            -5.1138138771057129e-01 4.8801559954881668e-02</leafValues></_>
        <_>
          <internalNodes>
            0 -1 865 -1.0802451521158218e-02</internalNodes>
          <leafValues>
            1.9386419653892517e-01 -1.3319352269172668e-01</leafValues></_>
        <_>
          <internalNodes>
            0 -1 972 6.5239099785685539e-04</internalNodes>
          <leafValues>
            -1.2564778327941895e-01 2.4611066281795502e-01</leafValues></_>
        <_>
          <internalNodes>
            0 -1 554 -4.5640572905540466e-02</internalNodes>
          <leafValues>
            -5.7765132188796997e-01 4.3938793241977692e-02</leafValues></_>
        <_>
          <internalNodes>
            0 -1 822 -1.7349198460578918e-02</internalNodes>
          <leafValues>
            -5.1123631000518799e-01 4.4400110840797424e-02</leafValues></_>
        <_>
          <internalNodes>
            0 -1 409 -1.5357116935774684e-03</internalNodes>
          <leafValues>
            1.5811690688133240e-01 -1.5543875098228455e-01</leafValues></_>
        <_>
          <internalNodes>
            0 -1 425 -1.0961206629872322e-02</internalNodes>
          <leafValues>
            -7.4768340587615967e-01 3.8870699703693390e-02</leafValues></_>
        <_>
          <internalNodes>
            0 -1 209 2.1164618432521820e-02</internalNodes>
          <leafValues>
            -5.2014391869306564e-02 5.5505335330963135e-01</leafValues></_>
        <_>
          <internalNodes>
            0 -1 800 -1.6055796295404434e-02</internalNodes>
          <leafValues>
            4.8648428916931152e-01 -5.1424317061901093e-02</leafValues></_></weakClassifiers></_>
    <!-- stage 6 -->
    <_>
      <maxWeakCount>57</maxWeakCount>
      <stageThreshold>-1.0461000204086304e+00</stageThreshold>
      <weakClassifiers>
        <_>
          <internalNodes>
            0 -1 241 -3.4365594387054443e-02</internalNodes>
          <leafValues>
            6.7680609226226807e-01 2.0953379571437836e-03</leafValues></_>
        <_>
          <internalNodes>
            0 -1 1040 4.6409750357270241e-03</internalNodes>
          <leafValues>
            -2.2950565814971924e-01 3.9766871929168701e-01</leafValues></_>
        <_>
          <internalNodes>
            0 -1 168 8.6924461647868156e-03</internalNodes>
          <leafValues>
            -2.5881853699684143e-01 3.2938036322593689e-01</leafValues></_>
        <_>
          <internalNodes>
            0 -1 931 -5.0023533403873444e-02</internalNodes>
          <leafValues>
            2.8383204340934753e-01 -2.2158229351043701e-01</leafValues></_>
        <_>
          <internalNodes>
            0 -1 226 -2.1467141807079315e-02</internalNodes>
          <leafValues>
            2.0759692788124084e-01 -2.2651320695877075e-01</leafValues></_>
        <_>
          <internalNodes>
            0 -1 871 1.7597016412764788e-03</internalNodes>
          <leafValues>
            -2.5084924697875977e-01 1.9277082383632660e-01</leafValues></_>
        <_>
          <internalNodes>
            0 -1 553 1.0015704901888967e-03</internalNodes>
          <leafValues>
            1.1112087219953537e-01 -3.7339964509010315e-01</leafValues></_>
        <_>
          <internalNodes>
            0 -1 418 1.1017072945833206e-02</internalNodes>
          <leafValues>
            6.2761396169662476e-02 -5.9870290756225586e-01</leafValues></_>
        <_>
          <internalNodes>
            0 -1 408 9.1077759861946106e-04</internalNodes>
          <leafValues>
            -1.6950668394565582e-01 1.9914609193801880e-01</leafValues></_>
        <_>
          <internalNodes>
            0 -1 925 -6.3960691913962364e-03</internalNodes>
          <leafValues>
            -6.7941397428512573e-01 4.8487611114978790e-02</leafValues></_>
        <_>
          <internalNodes>
            0 -1 270 -9.3889441341161728e-03</internalNodes>
          <leafValues>
            3.0109065771102905e-01 -1.0560954362154007e-01</leafValues></_>
        <_>
          <internalNodes>
            0 -1 702 -3.4007601439952850e-02</internalNodes>
          <leafValues>
            3.5867786407470703e-01 -9.5619782805442810e-02</leafValues></_>
        <_>
          <internalNodes>
            0 -1 704 5.7022634893655777e-02</internalNodes>
          <leafValues>
            5.3774055093526840e-02 -5.3078818321228027e-01</leafValues></_>
        <_>
          <internalNodes>
            0 -1 570 -4.1321374010294676e-04</internalNodes>
          <leafValues>
            1.0373437404632568e-01 -2.8076666593551636e-01</leafValues></_>
        <_>
          <internalNodes>
            0 -1 682 -6.1031209770590067e-04</internalNodes>
          <leafValues>
            1.6954283416271210e-01 -1.6002602875232697e-01</leafValues></_>
        <_>
          <internalNodes>
            0 -1 716 4.3440773151814938e-03</internalNodes>
          <leafValues>
            4.2533639818429947e-02 -6.2047457695007324e-01</leafValues></_>
        <_>
          <internalNodes>
            0 -1 1074 -1.1787987314164639e-03</internalNodes>
          <leafValues>
            2.3282857239246368e-01 -1.1916733533143997e-01</leafValues></_>
        <_>
          <internalNodes>
            0 -1 1053 5.6761195883154869e-03</internalNodes>
          <leafValues>
            4.0886908769607544e-02 -6.8192857503890991e-01</leafValues></_>
        <_>
          <internalNodes>
            0 -1 625 -2.5576557964086533e-02</internalNodes>
          <leafValues>
            -5.9685546159744263e-01 3.8224577903747559e-02</leafValues></_>
        <_>
          <internalNodes>
            0 -1 637 1.0848719626665115e-02</internalNodes>
          <leafValues>
            5.1542777568101883e-02 -4.8688480257987976e-01</leafValues></_>
        <_>
          <internalNodes>
            0 -1 664 9.2398712877184153e-04</internalNodes>
          <leafValues>
            -1.2407542020082474e-01 2.2001330554485321e-01</leafValues></_>
        <_>
          <internalNodes>
            0 -1 122 4.2274757288396358e-04</internalNodes>
          <leafValues>
            -1.3509589433670044e-01 1.8212871253490448e-01</leafValues></_>
        <_>
          <internalNodes>
            0 -1 448 3.2422859221696854e-03</internalNodes>
          <leafValues>
            -8.2827210426330566e-02 3.2468396425247192e-01</leafValues></_>
        <_>
          <internalNodes>
            0 -1 1073 4.0709981694817543e-03</internalNodes>
          <leafValues>
            5.4711870849132538e-02 -5.0668132305145264e-01</leafValues></_>
        <_>
          <internalNodes>
            0 -1 720 -1.0161353275179863e-02</internalNodes>
          <leafValues>
            3.2446873188018799e-01 -8.1054858863353729e-02</leafValues></_>
        <_>
          <internalNodes>
            0 -1 810 -1.1057893279939890e-03</internalNodes>
          <leafValues>
            2.2406545281410217e-01 -1.4423732459545135e-01</leafValues></_>
        <_>
          <internalNodes>
            0 -1 880 -3.4222963731735945e-03</internalNodes>
          <leafValues>
            -4.6958753466606140e-01 5.3881824016571045e-02</leafValues></_>
        <_>
          <internalNodes>
            0 -1 73 -9.5129106193780899e-03</internalNodes>
          <leafValues>
            -3.7991958856582642e-01 6.4063683152198792e-02</leafValues></_>
        <_>
          <internalNodes>
            0 -1 478 -1.5468925237655640e-02</internalNodes>
          <leafValues>
            2.7023765444755554e-01 -9.0153351426124573e-02</leafValues></_>
        <_>
          <internalNodes>
            0 -1 824 7.4937101453542709e-04</internalNodes>
          <leafValues>
            -1.1629458516836166e-01 2.3950350284576416e-01</leafValues></_>
        <_>
          <internalNodes>
            0 -1 707 -1.0411355178803205e-03</internalNodes>
          <leafValues>
            1.2676937878131866e-01 -2.0999661087989807e-01</leafValues></_>
        <_>
          <internalNodes>
            0 -1 29 -7.1187674999237061e-02</internalNodes>
          <leafValues>
            4.0011021494865417e-01 -6.6453605890274048e-02</leafValues></_>
        <_>
          <internalNodes>
            0 -1 830 2.1491119638085365e-02</internalNodes>
          <leafValues>
            -1.1156351119279861e-01 2.3218961060047150e-01</leafValues></_>
        <_>
          <internalNodes>
            0 -1 962 8.2301069051027298e-04</internalNodes>
          <leafValues>
            -1.7866823077201843e-01 1.7181074619293213e-01</leafValues></_>
        <_>
          <internalNodes>
            0 -1 962 5.1074139773845673e-03</internalNodes>
          <leafValues>
            3.5527817904949188e-02 -6.3595604896545410e-01</leafValues></_>
        <_>
          <internalNodes>
            0 -1 643 -3.7806306034326553e-02</internalNodes>
          <leafValues>
            2.9778081178665161e-01 -8.2476817071437836e-02</leafValues></_>
        <_>
          <internalNodes>
            0 -1 449 -2.6597348041832447e-03</internalNodes>
          <leafValues>
            2.6595297455787659e-01 -1.0274064540863037e-01</leafValues></_>
        <_>
          <internalNodes>
            0 -1 659 -1.7072597518563271e-02</internalNodes>
          <leafValues>
            -6.0927271842956543e-01 4.3245121836662292e-02</leafValues></_>
        <_>
          <internalNodes>
            0 -1 734 -2.2515997290611267e-02</internalNodes>
          <leafValues>
            -6.0253500938415527e-01 3.5101961344480515e-02</leafValues></_>
        <_>
          <internalNodes>
            0 -1 697 3.8930408656597137e-02</internalNodes>
          <leafValues>
            -6.4634121954441071e-02 3.7778770923614502e-01</leafValues></_>
        <_>
          <internalNodes>
            0 -1 256 2.3938644677400589e-02</internalNodes>
          <leafValues>
            8.2485027611255646e-02 -3.8590508699417114e-01</leafValues></_>
        <_>
          <internalNodes>
            0 -1 441 -2.8434082865715027e-02</internalNodes>
          <leafValues>
            4.5943963527679443e-01 -5.8301672339439392e-02</leafValues></_>
        <_>
          <internalNodes>
            0 -1 851 -8.5812732577323914e-03</internalNodes>
          <leafValues>
            -3.9244076609611511e-01 6.7827731370925903e-02</leafValues></_>
        <_>
          <internalNodes>
            0 -1 220 2.5084715336561203e-02</internalNodes>
          <leafValues>
            2.8493782505393028e-02 -7.2262358665466309e-01</leafValues></_>
        <_>
          <internalNodes>
            0 -1 222 -1.1867994442582130e-02</internalNodes>
          <leafValues>
            -7.0348298549652100e-01 2.4763468652963638e-02</leafValues></_>
        <_>
          <internalNodes>
            0 -1 563 1.6882248222827911e-02</internalNodes>
          <leafValues>
            3.0189651995897293e-02 -6.1588513851165771e-01</leafValues></_>
        <_>
          <internalNodes>
            0 -1 405 -5.8647874742746353e-02</internalNodes>
          <leafValues>
            -7.3136252164840698e-01 2.5018287822604179e-02</leafValues></_>
        <_>
          <internalNodes>
            0 -1 314 -7.2860801592469215e-03</internalNodes>
          <leafValues>
            2.5678843259811401e-01 -8.7171345949172974e-02</leafValues></_>
        <_>
          <internalNodes>
            0 -1 457 2.0717225968837738e-02</internalNodes>
          <leafValues>
            -6.1356790363788605e-02 3.5842204093933105e-01</leafValues></_>
        <_>
          <internalNodes>
            0 -1 417 -7.9506970942020416e-03</internalNodes>
          <leafValues>
            2.1347631514072418e-01 -1.0915096104145050e-01</leafValues></_>
        <_>
          <internalNodes>
            0 -1 950 3.5664942115545273e-03</internalNodes>
          <leafValues>
            4.4783815741539001e-02 -5.7254606485366821e-01</leafValues></_>
        <_>
          <internalNodes>
            0 -1 1029 1.6589291393756866e-02</internalNodes>
          <leafValues>
            2.3301132023334503e-02 -7.6909452676773071e-01</leafValues></_>
        <_>
          <internalNodes>
            0 -1 835 3.5022564232349396e-02</internalNodes>
          <leafValues>
            -5.9641785919666290e-02 4.0336087346076965e-01</leafValues></_>
        <_>
          <internalNodes>
            0 -1 396 3.1994469463825226e-02</internalNodes>
          <leafValues>
            4.4383663684129715e-02 -5.3053784370422363e-01</leafValues></_>
        <_>
          <internalNodes>
            0 -1 620 -6.7820353433489799e-03</internalNodes>
          <leafValues>
            2.8666830062866211e-01 -7.7490411698818207e-02</leafValues></_>
        <_>
          <internalNodes>
            0 -1 167 8.7982660625129938e-04</internalNodes>
          <leafValues>
            -1.4746040105819702e-01 1.4194391667842865e-01</leafValues></_>
        <_>
          <internalNodes>
            0 -1 3 -2.1121848840266466e-03</internalNodes>
          <leafValues>
            -2.0481868088245392e-01 1.0651371628046036e-01</leafValues></_></weakClassifiers></_>
    <!-- stage 7 -->
    <_>
      <maxWeakCount>62</maxWeakCount>
      <stageThreshold>-1.0864951610565186e+00</stageThreshold>
      <weakClassifiers>
        <_>
          <internalNodes>
            0 -1 580 -3.7986196577548981e-02</internalNodes>
          <leafValues>
            6.7821359634399414e-01 3.2692786306142807e-02</leafValues></_>
        <_>
          <internalNodes>
            0 -1 93 5.2517034113407135e-02</internalNodes>
          <leafValues>
            -2.8207656741142273e-01 3.4697607159614563e-01</leafValues></_>
        <_>
          <internalNodes>
            0 -1 956 2.0969578996300697e-02</internalNodes>
          <leafValues>
            -1.4605753123760223e-01 5.6286805868148804e-01</leafValues></_>
        <_>
          <internalNodes>
            0 -1 415 -3.2923988997936249e-02</internalNodes>
          <leafValues>
            3.3196318149566650e-01 -1.8853677809238434e-01</leafValues></_>
        <_>
          <internalNodes>
            0 -1 503 -2.6177957653999329e-02</internalNodes>
          <leafValues>
            4.2205300927162170e-01 -1.1449375003576279e-01</leafValues></_>
        <_>
          <internalNodes>
            0 -1 966 1.1681767646223307e-03</internalNodes>
          <leafValues>
            -2.5573611259460449e-01 1.9227239489555359e-01</leafValues></_>
        <_>
          <internalNodes>
            0 -1 539 2.8176233172416687e-04</internalNodes>
          <leafValues>
            -2.3397088050842285e-01 1.7503468692302704e-01</leafValues></_>
        <_>
          <internalNodes>
            0 -1 410 -7.7635102206841111e-04</internalNodes>
          <leafValues>
            1.6309022903442383e-01 -2.3232531547546387e-01</leafValues></_>
        <_>
          <internalNodes>
            0 -1 46 1.2319849804043770e-02</internalNodes>
          <leafValues>
            -2.2084991633892059e-01 1.7308340966701508e-01</leafValues></_>
        <_>
          <internalNodes>
            0 -1 496 9.8836305551230907e-04</internalNodes>
          <leafValues>
            -1.4305002987384796e-01 2.1231521666049957e-01</leafValues></_>
        <_>
          <internalNodes>
            0 -1 255 1.2009682133793831e-02</internalNodes>
          <leafValues>
            4.7096993774175644e-02 -6.9143497943878174e-01</leafValues></_>
        <_>
          <internalNodes>
            0 -1 873 1.9083458930253983e-02</internalNodes>
          <leafValues>
            -1.0587154328823090e-01 3.0253162980079651e-01</leafValues></_>
        <_>
          <internalNodes>
            0 -1 933 -4.3198480270802975e-03</internalNodes>
          <leafValues>
            -6.0076445341110229e-01 4.9847315996885300e-02</leafValues></_>
        <_>
          <internalNodes>
            0 -1 702 -1.9345022737979889e-02</internalNodes>
          <leafValues>
            2.0448413491249084e-01 -1.2221400439739227e-01</leafValues></_>
        <_>
          <internalNodes>
            0 -1 590 9.2070661485195160e-03</internalNodes>
          <leafValues>
            6.2382042407989502e-02 -4.8773446679115295e-01</leafValues></_>
        <_>
          <internalNodes>
            0 -1 736 -8.6399000138044357e-03</internalNodes>
          <leafValues>
            3.7372404336929321e-01 -8.1334739923477173e-02</leafValues></_>
        <_>
          <internalNodes>
            0 -1 447 7.7790850773453712e-03</internalNodes>
          <leafValues>
            7.2034783661365509e-02 -4.5508375763893127e-01</leafValues></_>
        <_>
          <internalNodes>
            0 -1 639 5.6753316894173622e-03</internalNodes>
          <leafValues>
            -8.2132846117019653e-02 3.6073935031890869e-01</leafValues></_>
        <_>
          <internalNodes>
            0 -1 199 8.4746601060032845e-03</internalNodes>
          <leafValues>
            -9.9890455603599548e-02 2.7095970511436462e-01</leafValues></_>
        <_>
          <internalNodes>
            0 -1 378 7.5814388692378998e-03</internalNodes>
          <leafValues>
            -9.3279093503952026e-02 2.7911832928657532e-01</leafValues></_>
        <_>
          <internalNodes>
            0 -1 860 4.3276362121105194e-03</internalNodes>
          <leafValues>
            -1.4241327345371246e-01 1.9517882168292999e-01</leafValues></_>
        <_>
          <internalNodes>
            0 -1 32 -3.8235822319984436e-01</internalNodes>
          <leafValues>
            3.5399174690246582e-01 -8.6950108408927917e-02</leafValues></_>
        <_>
          <internalNodes>
            0 -1 593 -5.9837155044078827e-02</internalNodes>
          <leafValues>
            5.8821624517440796e-01 -5.1228541880846024e-02</leafValues></_>
        <_>
          <internalNodes>
            0 -1 513 2.2344989702105522e-02</internalNodes>
          <leafValues>
            -1.2264388054609299e-01 2.3485925793647766e-01</leafValues></_>
        <_>
          <internalNodes>
            0 -1 302 -7.4306889437139034e-03</internalNodes>
          <leafValues>
            3.6969128251075745e-01 -7.3505014181137085e-02</leafValues></_>
        <_>
          <internalNodes>
            0 -1 571 -1.0775770060718060e-02</internalNodes>
          <leafValues>
            -5.4015809297561646e-01 6.3938483595848083e-02</leafValues></_>
        <_>
          <internalNodes>
            0 -1 745 2.8621354140341282e-03</internalNodes>
          <leafValues>
            -8.1542521715164185e-02 3.4225872159004211e-01</leafValues></_>
        <_>
          <internalNodes>
            0 -1 778 -6.1985179781913757e-03</internalNodes>
          <leafValues>
            -3.7046718597412109e-01 7.5585044920444489e-02</leafValues></_>
        <_>
          <internalNodes>
            0 -1 333 6.0124241281300783e-04</internalNodes>
          <leafValues>
            -1.4131644368171692e-01 1.8307098746299744e-01</leafValues></_>
        <_>
          <internalNodes>
            0 -1 458 -1.0206118226051331e-02</internalNodes>
          <leafValues>
            3.9080926775932312e-01 -6.7004598677158356e-02</leafValues></_>
        <_>
          <internalNodes>
            0 -1 392 9.3338303267955780e-03</internalNodes>
          <leafValues>
            4.6962179243564606e-02 -6.4284968376159668e-01</leafValues></_>
        <_>
          <internalNodes>
            0 -1 434 5.5901366285979748e-03</internalNodes>
          <leafValues>
            4.7690212726593018e-02 -4.5936158299446106e-01</leafValues></_>
        <_>
          <internalNodes>
            0 -1 1044 1.4967347960919142e-03</internalNodes>
          <leafValues>
            -1.3027645647525787e-01 1.8507190048694611e-01</leafValues></_>
        <_>
          <internalNodes>
            0 -1 565 -1.3118200004100800e-02</internalNodes>
          <leafValues>
            -6.3258492946624756e-01 3.4990698099136353e-02</leafValues></_>
        <_>
          <internalNodes>
            0 -1 766 -9.5917499857023358e-04</internalNodes>
          <leafValues>
            2.0569647848606110e-01 -1.1004453152418137e-01</leafValues></_>
        <_>
          <internalNodes>
            0 -1 354 6.9368998520076275e-03</internalNodes>
          <leafValues>
            3.3948067575693130e-02 -7.1607828140258789e-01</leafValues></_>
        <_>
          <internalNodes>
            0 -1 766 2.1999643649905920e-03</internalNodes>
          <leafValues>
            -6.9483935832977295e-02 3.6286878585815430e-01</leafValues></_>
        <_>
          <internalNodes>
            0 -1 850 5.0101676024496555e-03</internalNodes>
          <leafValues>
            8.0001562833786011e-02 -3.2200917601585388e-01</leafValues></_>
        <_>
          <internalNodes>
            0 -1 84 -1.0824166238307953e-02</internalNodes>
          <leafValues>
            -4.3926805257797241e-01 4.9545370042324066e-02</leafValues></_>
        <_>
          <internalNodes>
            0 -1 419 1.8476814031600952e-02</internalNodes>
          <leafValues>
            2.7403896674513817e-02 -7.8783845901489258e-01</leafValues></_>
        <_>
          <internalNodes>
            0 -1 740 -2.5601945817470551e-02</internalNodes>
          <leafValues>
            -5.0759720802307129e-01 3.6459766328334808e-02</leafValues></_>
        <_>
          <internalNodes>
            0 -1 747 1.2335833162069321e-02</internalNodes>
          <leafValues>
            5.0239231437444687e-02 -4.0782159566879272e-01</leafValues></_>
        <_>
          <internalNodes>
            0 -1 78 2.2304174490272999e-03</internalNodes>
          <leafValues>
            -1.3048468530178070e-01 1.7143572866916656e-01</leafValues></_>
        <_>
          <internalNodes>
            0 -1 83 1.1167077347636223e-02</internalNodes>
          <leafValues>
            5.0241626799106598e-02 -4.3896532058715820e-01</leafValues></_>
        <_>
          <internalNodes>
            0 -1 204 -6.1050213873386383e-02</internalNodes>
          <leafValues>
            -6.2023949623107910e-01 3.2181438058614731e-02</leafValues></_>
        <_>
          <internalNodes>
            0 -1 864 -1.6580991446971893e-02</internalNodes>
          <leafValues>
            3.1284785270690918e-01 -8.3293341100215912e-02</leafValues></_>
        <_>
          <internalNodes>
            0 -1 949 4.3170660501345992e-04</internalNodes>
          <leafValues>
            -1.1091623455286026e-01 2.1446722745895386e-01</leafValues></_>
        <_>
          <internalNodes>
            0 -1 774 2.2806208580732346e-02</internalNodes>
          <leafValues>
            -1.1760766804218292e-01 1.9704133272171021e-01</leafValues></_>
        <_>
          <internalNodes>
            0 -1 733 1.0114585980772972e-02</internalNodes>
          <leafValues>
            5.3803637623786926e-02 -4.8030269145965576e-01</leafValues></_>
        <_>
          <internalNodes>
            0 -1 980 -5.6885941885411739e-03</internalNodes>
          <leafValues>
            -6.1639636754989624e-01 3.6371871829032898e-02</leafValues></_>
        <_>
          <internalNodes>
            0 -1 781 -1.0893519967794418e-02</internalNodes>
          <leafValues>
            -5.0980895757675171e-01 3.8247086107730865e-02</leafValues></_>
        <_>
          <internalNodes>
            0 -1 259 2.2066188976168633e-03</internalNodes>
          <leafValues>
            6.5304875373840332e-02 -3.1289827823638916e-01</leafValues></_>
        <_>
          <internalNodes>
            0 -1 746 -3.4341155551373959e-03</internalNodes>
          <leafValues>
            2.6770365238189697e-01 -7.7349007129669189e-02</leafValues></_>
        <_>
          <internalNodes>
            0 -1 66 3.0610249377787113e-03</internalNodes>
          <leafValues>
            4.6142853796482086e-02 -4.7183161973953247e-01</leafValues></_>
        <_>
          <internalNodes>
            0 -1 58 -2.7501890435814857e-03</internalNodes>
          <leafValues>
            1.7772859334945679e-01 -1.1898709088563919e-01</leafValues></_>
        <_>
          <internalNodes>
            0 -1 814 1.1464534327387810e-02</internalNodes>
          <leafValues>
            -5.3357481956481934e-02 3.5528269410133362e-01</leafValues></_>
        <_>
          <internalNodes>
            0 -1 474 -3.1979598104953766e-02</internalNodes>
          <leafValues>
            -5.7952934503555298e-01 3.8585495203733444e-02</leafValues></_>
        <_>
          <internalNodes>
            0 -1 574 -1.2196274474263191e-03</internalNodes>
          <leafValues>
            8.7697334587574005e-02 -2.1751646697521210e-01</leafValues></_>
        <_>
          <internalNodes>
            0 -1 62 3.5037775523960590e-03</internalNodes>
          <leafValues>
            3.2458104193210602e-02 -5.5070513486862183e-01</leafValues></_>
        <_>
          <internalNodes>
            0 -1 400 2.2149316966533661e-02</internalNodes>
          <leafValues>
            2.8994770720601082e-02 -6.1505973339080811e-01</leafValues></_>
        <_>
          <internalNodes>
            0 -1 445 7.4463139753788710e-04</internalNodes>
          <leafValues>
            -1.0703486949205399e-01 2.0020359754562378e-01</leafValues></_>
        <_>
          <internalNodes>
            0 -1 454 2.8459073510020971e-03</internalNodes>
          <leafValues>
            -1.1887950450181961e-01 2.0189005136489868e-01</leafValues></_></weakClassifiers></_>
    <!-- stage 8 -->
    <_>
      <maxWeakCount>77</maxWeakCount>
      <stageThreshold>-1.0117483139038086e+00</stageThreshold>
      <weakClassifiers>
        <_>
          <internalNodes>
            0 -1 102 5.3195588290691376e-02</internalNodes>
          <leafValues>
            -4.5742906630039215e-02 5.8534961938858032e-01</leafValues></_>
        <_>
          <internalNodes>
            0 -1 839 3.5628750920295715e-02</internalNodes>
          <leafValues>
            -1.1171728372573853e-01 5.3569865226745605e-01</leafValues></_>
        <_>
          <internalNodes>
            0 -1 245 6.6716790199279785e-02</internalNodes>
          <leafValues>
            -2.3973049223423004e-01 2.2790698707103729e-01</leafValues></_>
        <_>
          <internalNodes>
            0 -1 389 7.2366103995591402e-04</internalNodes>
          <leafValues>
            -2.3390914499759674e-01 1.9692751765251160e-01</leafValues></_>
        <_>
          <internalNodes>
            0 -1 677 1.5289681032299995e-03</internalNodes>
          <leafValues>
            4.2052961885929108e-02 -4.5882707834243774e-01</leafValues></_>
        <_>
          <internalNodes>
            0 -1 329 1.4403116889297962e-02</internalNodes>
          <leafValues>
            -1.5795528888702393e-01 2.2589713335037231e-01</leafValues></_>
        <_>
          <internalNodes>
            0 -1 930 -1.5285970643162727e-02</internalNodes>
          <leafValues>
            1.4632666110992432e-01 -2.2379446029663086e-01</leafValues></_>
        <_>
          <internalNodes>
            0 -1 246 6.3407153356820345e-04</internalNodes>
          <leafValues>
            -1.9651283323764801e-01 1.5294323861598969e-01</leafValues></_>
        <_>
          <internalNodes>
            0 -1 176 -1.4580676332116127e-02</internalNodes>
          <leafValues>
            2.0289596915245056e-01 -1.2595087289810181e-01</leafValues></_>
        <_>
          <internalNodes>
            0 -1 583 -6.6638872027397156e-02</internalNodes>
          <leafValues>
            5.0094556808471680e-01 -5.6126952171325684e-02</leafValues></_>
        <_>
          <internalNodes>
            0 -1 148 2.0235223695635796e-02</internalNodes>
          <leafValues>
            4.3744780123233795e-02 -5.9189820289611816e-01</leafValues></_>
        <_>
          <internalNodes>
            0 -1 948 4.6242200769484043e-03</internalNodes>
          <leafValues>
            4.2608253657817841e-02 -5.2161777019500732e-01</leafValues></_>
        <_>
          <internalNodes>
            0 -1 1042 2.2790742514189333e-04</internalNodes>
          <leafValues>
            -1.8608620762825012e-01 1.5183998644351959e-01</leafValues></_>
        <_>
          <internalNodes>
            0 -1 358 -1.5832373872399330e-02</internalNodes>
          <leafValues>
            -2.7994874119758606e-01 7.1132466197013855e-02</leafValues></_>
        <_>
          <internalNodes>
            0 -1 31 -4.1522437334060669e-01</internalNodes>
          <leafValues>
            3.9352568984031677e-01 -5.6910622864961624e-02</leafValues></_>
        <_>
          <internalNodes>
            0 -1 708 -1.3834079727530479e-03</internalNodes>
          <leafValues>
            1.2293030321598053e-01 -1.7780950665473938e-01</leafValues></_>
        <_>
          <internalNodes>
            0 -1 959 -2.7193415910005569e-02</internalNodes>
          <leafValues>
            4.1787540912628174e-01 -6.5595716238021851e-02</leafValues></_>
        <_>
          <internalNodes>
            0 -1 202 -6.8752825260162354e-02</internalNodes>
          <leafValues>
            -5.8437800407409668e-01 4.4187966734170914e-02</leafValues></_>
        <_>
          <internalNodes>
            0 -1 337 1.4994947705417871e-03</internalNodes>
          <leafValues>
            -1.2115454673767090e-01 1.8672724068164825e-01</leafValues></_>
        <_>
          <internalNodes>
            0 -1 291 1.8153239041566849e-02</internalNodes>
          <leafValues>
            -9.2120304703712463e-02 2.7754649519920349e-01</leafValues></_>
        <_>
          <internalNodes>
            0 -1 552 -3.4099195152521133e-02</internalNodes>
          <leafValues>
            -3.4887167811393738e-01 7.3988489806652069e-02</leafValues></_>
        <_>
          <internalNodes>
            0 -1 291 -1.8322210758924484e-02</internalNodes>
          <leafValues>
            3.7331694364547729e-01 -6.9624394178390503e-02</leafValues></_>
        <_>
          <internalNodes>
            0 -1 17 1.8109932541847229e-02</internalNodes>
          <leafValues>
            -1.1046462506055832e-01 1.8648676574230194e-01</leafValues></_>
        <_>
          <internalNodes>
            0 -1 936 4.1152527555823326e-03</internalNodes>
          <leafValues>
            -1.2828058004379272e-01 1.6227769851684570e-01</leafValues></_>
        <_>
          <internalNodes>
            0 -1 413 3.2382421195507050e-02</internalNodes>
          <leafValues>
            3.7155307829380035e-02 -5.4786878824234009e-01</leafValues></_>
        <_>
          <internalNodes>
            0 -1 216 -2.0283896476030350e-02</internalNodes>
          <leafValues>
            -4.8273193836212158e-01 4.4802717864513397e-02</leafValues></_>
        <_>
          <internalNodes>
            0 -1 735 7.2427587583661079e-03</internalNodes>
          <leafValues>
            -5.6381259113550186e-02 3.9857524633407593e-01</leafValues></_>
        <_>
          <internalNodes>
            0 -1 617 4.3127373792231083e-03</internalNodes>
          <leafValues>
            -8.2539439201354980e-02 2.6720544695854187e-01</leafValues></_>
        <_>
          <internalNodes>
            0 -1 738 -1.5996582806110382e-02</internalNodes>
          <leafValues>
            -5.5535477399826050e-01 4.4876962900161743e-02</leafValues></_>
        <_>
          <internalNodes>
            0 -1 967 1.2400357052683830e-02</internalNodes>
          <leafValues>
            2.8212411329150200e-02 -7.0632624626159668e-01</leafValues></_>
        <_>
          <internalNodes>
            0 -1 1025 4.0233260951936245e-03</internalNodes>
          <leafValues>
            2.2784911096096039e-02 -7.7294355630874634e-01</leafValues></_>
        <_>
          <internalNodes>
            0 -1 963 6.2138016801327467e-04</internalNodes>
          <leafValues>
            -1.3110603392124176e-01 1.8138386309146881e-01</leafValues></_>
        <_>
          <internalNodes>
            0 -1 937 -3.1057589221745729e-03</internalNodes>
          <leafValues>
            1.3766002655029297e-01 -1.6827578842639923e-01</leafValues></_>
        <_>
          <internalNodes>
            0 -1 907 3.3729866147041321e-02</internalNodes>
          <leafValues>
            -5.1394939422607422e-02 4.4066220521926880e-01</leafValues></_>
        <_>
          <internalNodes>
            0 -1 646 -1.3798982836306095e-03</internalNodes>
          <leafValues>
            -2.7462536096572876e-01 7.7998608350753784e-02</leafValues></_>
        <_>
          <internalNodes>
            0 -1 988 2.5475029833614826e-03</internalNodes>
          <leafValues>
            -1.0081881284713745e-01 2.1298445761203766e-01</leafValues></_>
        <_>
          <internalNodes>
            0 -1 284 -8.7697524577379227e-03</internalNodes>
          <leafValues>
            1.7411255836486816e-01 -1.1721049249172211e-01</leafValues></_>
        <_>
          <internalNodes>
            0 -1 41 1.9175560772418976e-01</internalNodes>
          <leafValues>
            -1.1210427433252335e-01 2.1030366420745850e-01</leafValues></_>
        <_>
          <internalNodes>
            0 -1 45 1.7651884257793427e-01</internalNodes>
          <leafValues>
            2.4411695078015327e-02 -8.0798804759979248e-01</leafValues></_>
        <_>
          <internalNodes>
            0 -1 555 -3.0414950102567673e-02</internalNodes>
          <leafValues>
            -5.8228552341461182e-01 2.7963116765022278e-02</leafValues></_>
        <_>
          <internalNodes>
            0 -1 533 3.0579026788473129e-02</internalNodes>
          <leafValues>
            3.7753351032733917e-02 -5.0759118795394897e-01</leafValues></_>
        <_>
          <internalNodes>
            0 -1 860 2.3448648862540722e-03</internalNodes>
          <leafValues>
            -1.8647912144660950e-01 1.1937960237264633e-01</leafValues></_>
        <_>
          <internalNodes>
            0 -1 977 6.7173683783039451e-04</internalNodes>
          <leafValues>
            -1.1725701391696930e-01 1.9232752919197083e-01</leafValues></_>
        <_>
          <internalNodes>
            0 -1 904 -4.9222959205508232e-03</internalNodes>
          <leafValues>
            -7.1319311857223511e-01 2.7839433401823044e-02</leafValues></_>
        <_>
          <internalNodes>
            0 -1 711 -1.2320797890424728e-02</internalNodes>
          <leafValues>
            1.5841974318027496e-01 -1.1925017088651657e-01</leafValues></_>
        <_>
          <internalNodes>
            0 -1 785 -5.9568854048848152e-03</internalNodes>
          <leafValues>
            -4.8549667000770569e-01 4.0725842118263245e-02</leafValues></_>
        <_>
          <internalNodes>
            0 -1 542 -1.4242006000131369e-03</internalNodes>
          <leafValues>
            1.9187529385089874e-01 -1.0662811249494553e-01</leafValues></_>
        <_>
          <internalNodes>
            0 -1 713 2.3592658340930939e-02</internalNodes>
          <leafValues>
            2.7433222159743309e-02 -6.9662392139434814e-01</leafValues></_>
        <_>
          <internalNodes>
            0 -1 285 1.6188970766961575e-03</internalNodes>
          <leafValues>
            -1.1232937872409821e-01 1.6585969924926758e-01</leafValues></_>
        <_>
          <internalNodes>
            0 -1 547 1.4402085915207863e-02</internalNodes>
          <leafValues>
            4.2428739368915558e-02 -4.9085864424705505e-01</leafValues></_>
        <_>
          <internalNodes>
            0 -1 304 2.1467126905918121e-02</internalNodes>
          <leafValues>
            -6.9967299699783325e-02 3.0443370342254639e-01</leafValues></_>
        <_>
          <internalNodes>
            0 -1 333 4.6059436863288283e-04</internalNodes>
          <leafValues>
            -1.2994265556335449e-01 1.5472301840782166e-01</leafValues></_>
        <_>
          <internalNodes>
            0 -1 978 1.5524921938776970e-02</internalNodes>
          <leafValues>
            3.7737850099802017e-02 -5.1782608032226562e-01</leafValues></_>
        <_>
          <internalNodes>
            0 -1 808 -3.9589786902070045e-03</internalNodes>
          <leafValues>
            -4.2886000871658325e-01 4.0676217526197433e-02</leafValues></_>
        <_>
          <internalNodes>
            0 -1 998 2.2601347416639328e-02</internalNodes>
          <leafValues>
            -9.9487438797950745e-02 1.8434812128543854e-01</leafValues></_>
        <_>
          <internalNodes>
            0 -1 466 -3.4172140061855316e-02</internalNodes>
          <leafValues>
            -5.2427130937576294e-01 3.6152541637420654e-02</leafValues></_>
        <_>
          <internalNodes>
            0 -1 239 -1.7990389838814735e-02</internalNodes>
          <leafValues>
            -4.5136585831642151e-01 3.6283977329730988e-02</leafValues></_>
        <_>
          <internalNodes>
            0 -1 197 3.9612047374248505e-02</internalNodes>
          <leafValues>
            -3.8538262248039246e-02 5.2561324834823608e-01</leafValues></_>
        <_>
          <internalNodes>
            0 -1 113 -1.0937962215393782e-03</internalNodes>
          <leafValues>
            1.6519287228584290e-01 -1.0875684767961502e-01</leafValues></_>
        <_>
          <internalNodes>
            0 -1 453 2.0480100065469742e-03</internalNodes>
          <leafValues>
            -1.0413044691085815e-01 2.1095755696296692e-01</leafValues></_>
        <_>
          <internalNodes>
            0 -1 324 1.1775370221585035e-03</internalNodes>
          <leafValues>
            -7.9182304441928864e-02 2.7411580085754395e-01</leafValues></_>
        <_>
          <internalNodes>
            0 -1 325 -1.4286916702985764e-02</internalNodes>
          <leafValues>
            -3.7341931462287903e-01 5.6992936879396439e-02</leafValues></_>
        <_>
          <internalNodes>
            0 -1 414 2.5547472760081291e-03</internalNodes>
          <leafValues>
            5.2316498011350632e-02 -3.3374261856079102e-01</leafValues></_>
        <_>
          <internalNodes>
            0 -1 236 -2.1829595789313316e-03</internalNodes>
          <leafValues>
            -4.0552523732185364e-01 4.4648405164480209e-02</leafValues></_>
        <_>
          <internalNodes>
            0 -1 81 -4.7567328438162804e-03</internalNodes>
          <leafValues>
            -6.5516126155853271e-01 2.4646285921335220e-02</leafValues></_>
        <_>
          <internalNodes>
            0 -1 635 -4.5475447550415993e-03</internalNodes>
          <leafValues>
            2.6723256707191467e-01 -7.0747599005699158e-02</leafValues></_>
        <_>
          <internalNodes>
            0 -1 1088 2.5998864322900772e-02</internalNodes>
          <leafValues>
            2.8269130736589432e-02 -6.4046210050582886e-01</leafValues></_>
        <_>
          <internalNodes>
            0 -1 665 -5.2574928849935532e-04</internalNodes>
          <leafValues>
            1.7565564811229706e-01 -9.8630003631114960e-02</leafValues></_>
        <_>
          <internalNodes>
            0 -1 766 -6.7392078926786780e-04</internalNodes>
          <leafValues>
            1.6570782661437988e-01 -1.1516136676073074e-01</leafValues></_>
        <_>
          <internalNodes>
            0 -1 766 1.0336753912270069e-03</internalNodes>
          <leafValues>
            -8.5761003196239471e-02 2.3789276182651520e-01</leafValues></_>
        <_>
          <internalNodes>
            0 -1 680 -5.4059945978224277e-03</internalNodes>
          <leafValues>
            -3.0586853623390198e-01 6.8590074777603149e-02</leafValues></_>
        <_>
          <internalNodes>
            0 -1 909 4.8347078263759613e-03</internalNodes>
          <leafValues>
            3.1747628003358841e-02 -6.1210715770721436e-01</leafValues></_>
        <_>
          <internalNodes>
            0 -1 426 -1.8893238157033920e-02</internalNodes>
          <leafValues>
            -7.6754200458526611e-01 1.8303792923688889e-02</leafValues></_>
        <_>
          <internalNodes>
            0 -1 238 4.3240517377853394e-02</internalNodes>
          <leafValues>
            -3.7907056510448456e-02 4.7399044036865234e-01</leafValues></_>
        <_>
          <internalNodes>
            0 -1 636 -2.3178001865744591e-03</internalNodes>
          <leafValues>
            2.0321154594421387e-01 -8.7568029761314392e-02</leafValues></_>
        <_>
          <internalNodes>
            0 -1 905 6.8690273910760880e-03</internalNodes>
          <leafValues>
            2.7552798390388489e-02 -6.2804031372070312e-01</leafValues></_>
        <_>
          <internalNodes>
            0 -1 460 -3.0483640730381012e-02</internalNodes>
          <leafValues>
            4.4011706113815308e-01 -4.1040554642677307e-02</leafValues></_></weakClassifiers></_>
    <!-- stage 9 -->
    <_>
      <maxWeakCount>84</maxWeakCount>
      <stageThreshold>-1.0381647348403931e+00</stageThreshold>
      <weakClassifiers>
        <_>
          <internalNodes>
            0 -1 102 3.6783099174499512e-02</internalNodes>
          <leafValues>
            -1.5037974715232849e-01 5.0624436140060425e-01</leafValues></_>
        <_>
          <internalNodes>
            0 -1 771 3.1458705663681030e-02</internalNodes>
          <leafValues>
            -1.8930570781230927e-01 4.1115963459014893e-01</leafValues></_>
        <_>
          <internalNodes>
            0 -1 254 1.2363206595182419e-02</internalNodes>
          <leafValues>
            -1.3779839873313904e-01 3.4636586904525757e-01</leafValues></_>
        <_>
          <internalNodes>
            0 -1 322 -5.6789211928844452e-02</internalNodes>
          <leafValues>
            2.0042033493518829e-01 -1.9609941542148590e-01</leafValues></_>
        <_>
          <internalNodes>
            0 -1 774 2.6826590299606323e-02</internalNodes>
          <leafValues>
            -1.9933244585990906e-01 2.3015095293521881e-01</leafValues></_>
        <_>
          <internalNodes>
            0 -1 406 -2.1130195818841457e-03</internalNodes>
          <leafValues>
            2.9934537410736084e-01 -9.2986159026622772e-02</leafValues></_>
        <_>
          <internalNodes>
            0 -1 710 -1.5903400257229805e-02</internalNodes>
          <leafValues>
            3.1157377362251282e-01 -1.3641227781772614e-01</leafValues></_>
        <_>
          <internalNodes>
            0 -1 690 5.1093544811010361e-02</internalNodes>
          <leafValues>
            -8.3157561719417572e-02 4.1341158747673035e-01</leafValues></_>
        <_>
          <internalNodes>
            0 -1 828 4.5711370185017586e-03</internalNodes>
          <leafValues>
            5.5100120604038239e-02 -5.0208479166030884e-01</leafValues></_>
        <_>
          <internalNodes>
            0 -1 336 -2.0542858168482780e-02</internalNodes>
          <leafValues>
            -5.1851475238800049e-01 4.6744301915168762e-02</leafValues></_>
        <_>
          <internalNodes>
            0 -1 1025 5.5925408378243446e-04</internalNodes>
          <leafValues>
            -1.1788192391395569e-01 2.0962838828563690e-01</leafValues></_>
        <_>
          <internalNodes>
            0 -1 181 -3.5555481910705566e-02</internalNodes>
          <leafValues>
            -4.5442506670951843e-01 5.9932593256235123e-02</leafValues></_>
        <_>
          <internalNodes>
            0 -1 669 -1.6663983464241028e-02</internalNodes>
          <leafValues>
            -5.0221949815750122e-01 4.0781896561384201e-02</leafValues></_>
        <_>
          <internalNodes>
            0 -1 337 3.1716986559331417e-03</internalNodes>
          <leafValues>
            -9.8957292735576630e-02 2.4381011724472046e-01</leafValues></_>
        <_>
          <internalNodes>
            0 -1 910 -1.6898927278816700e-03</internalNodes>
          <leafValues>
            2.3204934597015381e-01 -1.0738278180360794e-01</leafValues></_>
        <_>
          <internalNodes>
            0 -1 589 8.7400618940591812e-03</internalNodes>
          <leafValues>
            3.8676038384437561e-02 -5.7573270797729492e-01</leafValues></_>
        <_>
          <internalNodes>
            0 -1 287 -1.1704728007316589e-02</internalNodes>
          <leafValues>
            2.6496809720993042e-01 -8.4382086992263794e-02</leafValues></_>
        <_>
          <internalNodes>
            0 -1 297 6.6754402359947562e-04</internalNodes>
          <leafValues>
            -1.2209093570709229e-01 1.8720372021198273e-01</leafValues></_>
        <_>
          <internalNodes>
            0 -1 846 -6.1668134294450283e-03</internalNodes>
          <leafValues>
            -5.2709645032882690e-01 3.7348903715610504e-02</leafValues></_>
        <_>
          <internalNodes>
            0 -1 498 2.3275423794984818e-02</internalNodes>
          <leafValues>
            4.5311424881219864e-02 -4.3052029609680176e-01</leafValues></_>
        <_>
          <internalNodes>
            0 -1 438 2.4908911436796188e-03</internalNodes>
          <leafValues>
            6.0590457171201706e-02 -3.2872748374938965e-01</leafValues></_>
        <_>
          <internalNodes>
            0 -1 521 -2.7634583413600922e-02</internalNodes>
          <leafValues>
            -6.8578797578811646e-01 2.6965439319610596e-02</leafValues></_>
        <_>
          <internalNodes>
            0 -1 770 -1.0369328781962395e-02</internalNodes>
          <leafValues>
            -7.7478963136672974e-01 2.2055190056562424e-02</leafValues></_>
        <_>
          <internalNodes>
            0 -1 444 -3.2425413373857737e-03</internalNodes>
          <leafValues>
            1.1192564666271210e-01 -1.7693260312080383e-01</leafValues></_>
        <_>
          <internalNodes>
            0 -1 76 9.4353395979851484e-04</internalNodes>
          <leafValues>
            -1.1211210489273071e-01 1.9836217164993286e-01</leafValues></_>
        <_>
          <internalNodes>
            0 -1 315 5.9878947213292122e-03</internalNodes>
          <leafValues>
            -1.0787921398878098e-01 2.0538869500160217e-01</leafValues></_>
        <_>
          <internalNodes>
            0 -1 314 6.0101961717009544e-03</internalNodes>
          <leafValues>
            -1.0373383015394211e-01 2.8626963496208191e-01</leafValues></_>
        <_>
          <internalNodes>
            0 -1 12 9.9745377898216248e-02</internalNodes>
          <leafValues>
            -1.3771039247512817e-01 1.5126298367977142e-01</leafValues></_>
        <_>
          <internalNodes>
            0 -1 581 3.4699244424700737e-03</internalNodes>
          <leafValues>
            -1.5920130908489227e-01 1.4461678266525269e-01</leafValues></_>
        <_>
          <internalNodes>
            0 -1 208 1.3754617422819138e-02</internalNodes>
          <leafValues>
            3.0747018754482269e-02 -7.6614403724670410e-01</leafValues></_>
        <_>
          <internalNodes>
            0 -1 663 -1.1892508715391159e-02</internalNodes>
          <leafValues>
            -4.7669774293899536e-01 3.4810248762369156e-02</leafValues></_>
        <_>
          <internalNodes>
            0 -1 692 -4.8187440261244774e-03</internalNodes>
          <leafValues>
            1.6117943823337555e-01 -1.1859542876482010e-01</leafValues></_>
        <_>
          <internalNodes>
            0 -1 286 6.9458023644983768e-03</internalNodes>
          <leafValues>
            -8.3903454244136810e-02 2.5558695197105408e-01</leafValues></_>
        <_>
          <internalNodes>
            0 -1 372 -1.2383801862597466e-02</internalNodes>
          <leafValues>
            -4.5105606317520142e-01 4.9619909375905991e-02</leafValues></_>
        <_>
          <internalNodes>
            0 -1 614 1.6758589074015617e-02</internalNodes>
          <leafValues>
            -5.8402732014656067e-02 3.5537192225456238e-01</leafValues></_>
        <_>
          <internalNodes>
            0 -1 578 2.9493810608983040e-02</internalNodes>
          <leafValues>
            5.3601533174514771e-02 -4.8573812842369080e-01</leafValues></_>
        <_>
          <internalNodes>
            0 -1 1026 5.9911096468567848e-03</internalNodes>
          <leafValues>
            3.1970940530300140e-02 -5.4089844226837158e-01</leafValues></_>
        <_>
          <internalNodes>
            0 -1 1002 -1.1413134634494781e-02</internalNodes>
          <leafValues>
            1.8817032873630524e-01 -1.0853194445371628e-01</leafValues></_>
        <_>
          <internalNodes>
            0 -1 658 -9.4051342457532883e-03</internalNodes>
          <leafValues>
            -5.4521900415420532e-01 3.2907828688621521e-02</leafValues></_>
        <_>
          <internalNodes>
            0 -1 759 -9.6508685965090990e-04</internalNodes>
          <leafValues>
            1.8554422259330750e-01 -1.0379654914140701e-01</leafValues></_>
        <_>
          <internalNodes>
            0 -1 366 5.6717839092016220e-02</internalNodes>
          <leafValues>
            2.9480868950486183e-02 -6.7704641819000244e-01</leafValues></_>
        <_>
          <internalNodes>
            0 -1 758 9.5470726955682039e-04</internalNodes>
          <leafValues>
            -1.0115279257297516e-01 1.8100109696388245e-01</leafValues></_>
        <_>
          <internalNodes>
            0 -1 1067 -3.2694468973204494e-04</internalNodes>
          <leafValues>
            -1.8187589943408966e-01 9.9849648773670197e-02</leafValues></_>
        <_>
          <internalNodes>
            0 -1 773 -7.7962980140000582e-04</internalNodes>
          <leafValues>
            2.0711153745651245e-01 -8.7892927229404449e-02</leafValues></_>
        <_>
          <internalNodes>
            0 -1 858 -5.6750187650322914e-04</internalNodes>
          <leafValues>
            1.4045415818691254e-01 -1.3220581412315369e-01</leafValues></_>
        <_>
          <internalNodes>
            0 -1 650 3.9731911383569241e-03</internalNodes>
          <leafValues>
            -1.6937309503555298e-01 1.1136633157730103e-01</leafValues></_>
        <_>
          <internalNodes>
            0 -1 536 -6.6656261682510376e-02</internalNodes>
          <leafValues>
            -6.6846507787704468e-01 2.7726953849196434e-02</leafValues></_>
        <_>
          <internalNodes>
            0 -1 30 -4.2341583967208862e-01</internalNodes>
          <leafValues>
            4.5809787511825562e-01 -4.9853619188070297e-02</leafValues></_>
        <_>
          <internalNodes>
            0 -1 666 -1.0186268482357264e-03</internalNodes>
          <leafValues>
            1.9068311154842377e-01 -8.4116138517856598e-02</leafValues></_>
        <_>
          <internalNodes>
            0 -1 790 -2.7872093021869659e-02</internalNodes>
          <leafValues>
            6.0381764173507690e-01 -2.8799775987863541e-02</leafValues></_>
        <_>
          <internalNodes>
            0 -1 1055 1.4480456709861755e-02</internalNodes>
          <leafValues>
            3.7120580673217773e-02 -5.0086230039596558e-01</leafValues></_>
        <_>
          <internalNodes>
            0 -1 963 4.3990686535835266e-03</internalNodes>
          <leafValues>
            1.8049065023660660e-02 -8.0193978548049927e-01</leafValues></_>
        <_>
          <internalNodes>
            0 -1 736 9.2314425855875015e-03</internalNodes>
          <leafValues>
            -5.4935816675424576e-02 3.1080466508865356e-01</leafValues></_>
        <_>
          <internalNodes>
            0 -1 737 -9.3539347872138023e-03</internalNodes>
          <leafValues>
            2.9534465074539185e-01 -7.0558317005634308e-02</leafValues></_>
        <_>
          <internalNodes>
            0 -1 611 -2.5687903165817261e-02</internalNodes>
          <leafValues>
            -7.0635586977005005e-01 2.8137879446148872e-02</leafValues></_>
        <_>
          <internalNodes>
            0 -1 332 -2.2972332313656807e-02</internalNodes>
          <leafValues>
            -5.5890393257141113e-01 2.7806470170617104e-02</leafValues></_>
        <_>
          <internalNodes>
            0 -1 149 5.6481882929801941e-03</internalNodes>
          <leafValues>
            -9.6160657703876495e-02 1.7356987297534943e-01</leafValues></_>
        <_>
          <internalNodes>
            0 -1 291 -1.5061059035360813e-02</internalNodes>
          <leafValues>
            2.7869045734405518e-01 -7.2326794266700745e-02</leafValues></_>
        <_>
          <internalNodes>
            0 -1 963 3.6247700336389244e-04</internalNodes>
          <leafValues>
            -1.4230997860431671e-01 1.6899578273296356e-01</leafValues></_>
        <_>
          <internalNodes>
            0 -1 1074 -4.4779269956052303e-04</internalNodes>
          <leafValues>
            1.3866759836673737e-01 -1.2562370300292969e-01</leafValues></_>
        <_>
          <internalNodes>
            0 -1 266 4.1540942038409412e-04</internalNodes>
          <leafValues>
            -1.3600145280361176e-01 1.3137237727642059e-01</leafValues></_>
        <_>
          <internalNodes>
            0 -1 141 3.8950446993112564e-02</internalNodes>
          <leafValues>
            -5.8007597923278809e-02 3.2912951707839966e-01</leafValues></_>
        <_>
          <internalNodes>
            0 -1 179 -6.7945574410259724e-03</internalNodes>
          <leafValues>
            1.3895574212074280e-01 -1.6488759219646454e-01</leafValues></_>
        <_>
          <internalNodes>
            0 -1 877 -1.5938511118292809e-02</internalNodes>
          <leafValues>
            -6.9121098518371582e-01 2.7690960094332695e-02</leafValues></_>
        <_>
          <internalNodes>
            0 -1 840 -1.0213702917098999e-03</internalNodes>
          <leafValues>
            1.9736059010028839e-01 -9.6360057592391968e-02</leafValues></_>
        <_>
          <internalNodes>
            0 -1 915 6.5123210661113262e-03</internalNodes>
          <leafValues>
            5.6318309158086777e-02 -3.6913737654685974e-01</leafValues></_>
        <_>
          <internalNodes>
            0 -1 247 5.0869673490524292e-02</internalNodes>
          <leafValues>
            2.3356152698397636e-02 -6.8256837129592896e-01</leafValues></_>
        <_>
          <internalNodes>
            0 -1 859 2.8999797068536282e-03</internalNodes>
          <leafValues>
            4.1733831167221069e-02 -3.7481129169464111e-01</leafValues></_>
        <_>
          <internalNodes>
            0 -1 957 -1.1226914823055267e-02</internalNodes>
          <leafValues>
            2.5497639179229736e-01 -6.4253002405166626e-02</leafValues></_>
        <_>
          <internalNodes>
            0 -1 725 4.2355046607553959e-03</internalNodes>
          <leafValues>
            3.4047205001115799e-02 -5.6494176387786865e-01</leafValues></_>
        <_>
          <internalNodes>
            0 -1 952 4.6721112448722124e-04</internalNodes>
          <leafValues>
            -1.1312153190374374e-01 1.4646820724010468e-01</leafValues></_>
        <_>
          <internalNodes>
            0 -1 906 -1.3393537374213338e-03</internalNodes>
          <leafValues>
            1.6237035393714905e-01 -1.0029236227273941e-01</leafValues></_>
        <_>
          <internalNodes>
            0 -1 911 4.5281909406185150e-03</internalNodes>
          <leafValues>
            -1.2015533447265625e-01 1.7535212635993958e-01</leafValues></_>
        <_>
          <internalNodes>
            0 -1 356 -3.7811383605003357e-02</internalNodes>
          <leafValues>
            1.1274648457765579e-01 -1.5320633351802826e-01</leafValues></_>
        <_>
          <internalNodes>
            0 -1 422 -9.9450618028640747e-02</internalNodes>
          <leafValues>
            -8.3080506324768066e-01 1.8482994288206100e-02</leafValues></_>
        <_>
          <internalNodes>
            0 -1 933 -3.8250957150012255e-03</internalNodes>
          <leafValues>
            -4.2747145891189575e-01 3.3542662858963013e-02</leafValues></_>
        <_>
          <internalNodes>
            0 -1 563 -3.1584978103637695e-02</internalNodes>
          <leafValues>
            -7.3826706409454346e-01 1.9783660769462585e-02</leafValues></_>
        <_>
          <internalNodes>
            0 -1 0 8.7557442020624876e-04</internalNodes>
          <leafValues>
            6.4277164638042450e-02 -2.3506493866443634e-01</leafValues></_>
        <_>
          <internalNodes>
            0 -1 483 5.2153635770082474e-03</internalNodes>
          <leafValues>
            -7.4649572372436523e-02 2.0954087376594543e-01</leafValues></_>
        <_>
          <internalNodes>
            0 -1 483 -8.2753784954547882e-03</internalNodes>
          <leafValues>
            3.9338159561157227e-01 -5.4644696414470673e-02</leafValues></_>
        <_>
          <internalNodes>
            0 -1 465 -1.7142478376626968e-02</internalNodes>
          <leafValues>
            -2.8623294830322266e-01 6.1250016093254089e-02</leafValues></_>
        <_>
          <internalNodes>
            0 -1 1048 4.8184227198362350e-03</internalNodes>
          <leafValues>
            2.0901808515191078e-02 -7.5712454319000244e-01</leafValues></_>
        <_>
          <internalNodes>
            0 -1 1094 5.1519041880965233e-03</internalNodes>
          <leafValues>
            2.6027815416455269e-02 -4.9485331773757935e-01</leafValues></_>
        <_>
          <internalNodes>
            0 -1 826 6.2598073855042458e-03</internalNodes>
          <leafValues>
            2.0658859983086586e-02 -6.5473157167434692e-01</leafValues></_></weakClassifiers></_>
    <!-- stage 10 -->
    <_>
      <maxWeakCount>95</maxWeakCount>
      <stageThreshold>-1.0269470214843750e+00</stageThreshold>
      <weakClassifiers>
        <_>
          <internalNodes>
            0 -1 169 2.0359456539154053e-02</internalNodes>
          <leafValues>
            -7.5913004577159882e-02 5.3031802177429199e-01</leafValues></_>
        <_>
          <internalNodes>
            0 -1 764 4.0463082492351532e-02</internalNodes>
          <leafValues>
            -1.7219847440719604e-01 3.4508201479911804e-01</leafValues></_>
        <_>
          <internalNodes>
            0 -1 15 5.6991465389728546e-02</internalNodes>
          <leafValues>
            -1.8251091241836548e-01 2.9428344964981079e-01</leafValues></_>
        <_>
          <internalNodes>
            0 -1 152 -1.8562499433755875e-02</internalNodes>
          <leafValues>
            2.1762627363204956e-01 -1.8033833801746368e-01</leafValues></_>
        <_>
          <internalNodes>
            0 -1 776 4.0651790797710419e-02</internalNodes>
          <leafValues>
            -1.8567225337028503e-01 2.5812333822250366e-01</leafValues></_>
        <_>
          <internalNodes>
            0 -1 389 1.4943098649382591e-03</internalNodes>
          <leafValues>
            -1.3777920603752136e-01 2.5082167983055115e-01</leafValues></_>
        <_>
          <internalNodes>
            0 -1 309 1.0176996700465679e-02</internalNodes>
          <leafValues>
            4.2892470955848694e-02 -4.2077869176864624e-01</leafValues></_>
        <_>
          <internalNodes>
            0 -1 605 2.3974946234375238e-03</internalNodes>
          <leafValues>
            -1.2064592540264130e-01 1.9493022561073303e-01</leafValues></_>
        <_>
          <internalNodes>
            0 -1 268 -4.6088886447250843e-03</internalNodes>
          <leafValues>
            3.1037965416908264e-01 -9.0502426028251648e-02</leafValues></_>
        <_>
          <internalNodes>
            0 -1 825 -1.9258381798863411e-03</internalNodes>
          <leafValues>
            1.7842780053615570e-01 -1.3436152040958405e-01</leafValues></_>
        <_>
          <internalNodes>
            0 -1 435 3.0114565044641495e-02</internalNodes>
          <leafValues>
            -6.3534036278724670e-02 3.7830138206481934e-01</leafValues></_>
        <_>
          <internalNodes>
            0 -1 450 -2.2860046476125717e-02</internalNodes>
          <leafValues>
            -3.9953646063804626e-01 6.3669309020042419e-02</leafValues></_>
        <_>
          <internalNodes>
            0 -1 673 -2.7636562008410692e-03</internalNodes>
          <leafValues>
            2.1262735128402710e-01 -1.0583429783582687e-01</leafValues></_>
        <_>
          <internalNodes>
            0 -1 856 5.5179935880005360e-03</internalNodes>
          <leafValues>
            7.5206026434898376e-02 -2.7570751309394836e-01</leafValues></_>
        <_>
          <internalNodes>
            0 -1 674 2.3150250315666199e-02</internalNodes>
          <leafValues>
