<?xml version="1.0"?>
<opencv_storage>
<stage12>
  <maxWeakCount>23</maxWeakCount>
  <stageThreshold>-1.1028881072998047e+00</stageThreshold>
  <weakClassifiers>
    <_>
      <internalNodes>
        0 -1 16519 8.0164456740021706e-03</internalNodes>
      <leafValues>
        -1.7647059261798859e-01 5.1661628484725952e-01</leafValues></_>
    <_>
      <internalNodes>
        0 -1 13056 4.1498742997646332e-02</internalNodes>
      <leafValues>
        -4.8472785949707031e-01 2.4681137502193451e-01</leafValues></_>
    <_>
      <internalNodes>
        0 -1 18885 -1.3775836676359177e-02</internalNodes>
      <leafValues>
        2.2915637493133545e-01 -4.4269093871116638e-01</leafValues></_>
    <_>
      <internalNodes>
        0 -1 2702 2.5638140738010406e-02</internalNodes>
      <leafValues>
        -2.1542033553123474e-01 4.0511661767959595e-01</leafValues></_>
    <_>
      <internalNodes>
        0 -1 23656 1.3166251592338085e-03</internalNodes>
      <leafValues>
        -4.2730686068534851e-01 2.0161886513233185e-01</leafValues></_>
    <_>
      <internalNodes>
        0 -1 15101 -6.8272557109594345e-03</internalNodes>
      <leafValues>
        -5.9855991601943970e-01 1.1424999684095383e-01</leafValues></_>
    <_>
      <internalNodes>
        0 -1 13634 1.0484692640602589e-02</internalNodes>
      <leafValues>
        -2.8323042392730713e-01 2.7379512786865234e-01</leafValues></_>
    <_>
      <internalNodes>
        0 -1 21906 8.8526727631688118e-04</internalNodes>
      <leafValues>
        -4.2078316211700439e-01 2.1686027944087982e-01</leafValues></_>
    <_>
      <internalNodes>
        0 -1 20708 4.9739465117454529e-02</internalNodes>
      <leafValues>
        -3.1442204117774963e-01 2.1973451972007751e-01</leafValues></_>
    <_>
      <internalNodes>
        0 -1 5391 3.9582058787345886e-02</internalNodes>
      <leafValues>
        -5.3190368413925171e-01 1.2102475762367249e-01</leafValues></_>
    <_>
      <internalNodes>
        0 -1 21824 8.0262850970029831e-03</internalNodes>
      <leafValues>
        -3.2639601826667786e-01 2.2563795745372772e-01</leafValues></_>
    <_>
      <internalNodes>
        0 -1 15628 -2.3433793336153030e-02</internalNodes>
      <leafValues>
        -9.1414296627044678e-01 7.1979090571403503e-02</leafValues></_>
    <_>
      <internalNodes>
        0 -1 16959 1.6644642455503345e-03</internalNodes>
      <leafValues>
        -2.1115073561668396e-01 3.0587247014045715e-01</leafValues></_>
    <_>
      <internalNodes>
        0 -1 24353 4.6876385807991028e-02</internalNodes>
      <leafValues>
        -1.1646410077810287e-01 6.4065784215927124e-01</leafValues></_>
    <_>
      <internalNodes>
        0 -1 15449 4.7822066699154675e-04</internalNodes>
      <leafValues>
        -8.0831402540206909e-01 1.0605978965759277e-01</leafValues></_>
    <_>
      <internalNodes>
        0 -1 15632 2.0229253917932510e-02</internalNodes>
      <leafValues>
        6.6462583839893341e-02 -6.8803656101226807e-01</leafValues></_>
    <_>
      <internalNodes>
        0 -1 23634 3.4622984821908176e-04</internalNodes>
      <leafValues>
        1.0808549076318741e-01 -5.3644901514053345e-01</leafValues></_>
    <_>
      <internalNodes>
        0 -1 15447 -1.0111967567354441e-03</internalNodes>
      <leafValues>
        3.4881621599197388e-01 -1.7540088295936584e-01</leafValues></_>
    <_>
      <internalNodes>
        0 -1 20633 1.3396234135143459e-04</internalNodes>
      <leafValues>
        -5.0019592046737671e-01 1.3049001991748810e-01</leafValues></_>
    <_>
      <internalNodes>
        0 -1 23824 -2.1530350204557180e-03</internalNodes>
      <leafValues>
        3.2240015268325806e-01 -2.0737501978874207e-01</leafValues></_>
    <_>
      <internalNodes>
        0 -1 24393 4.4087991118431091e-02</internalNodes>
      <leafValues>
        -1.1722613126039505e-01 5.6140863895416260e-01</leafValues></_>
    <_>
      <internalNodes>
        0 -1 22080 -3.4641730599105358e-03</internalNodes>
      <leafValues>
        3.7347579002380371e-01 -2.0125654339790344e-01</leafValues></_>
    <_>
      <internalNodes>
        0 -1 20728 2.6342789642512798e-03</internalNodes>
      <leafValues>
        -3.1796953082084656e-01 2.5019863247871399e-01</leafValues></_></weakClassifiers></stage12>
</opencv_storage>
