<?xml version="1.0"?>
<opencv_storage>
<stage2>
  <maxWeakCount>12</maxWeakCount>
  <stageThreshold>-1.3950966596603394e+00</stageThreshold>
  <weakClassifiers>
    <_>
      <internalNodes>
        0 -1 26229 3.1228218227624893e-02</internalNodes>
      <leafValues>
        -3.5578948259353638e-01 7.0742857456207275e-01</leafValues></_>
    <_>
      <internalNodes>
        0 -1 67892 -1.4982794411480427e-02</internalNodes>
      <leafValues>
        4.2588254809379578e-01 -6.6664445400238037e-01</leafValues></_>
    <_>
      <internalNodes>
        0 -1 61068 8.0944150686264038e-03</internalNodes>
      <leafValues>
        -5.0821435451507568e-01 4.0149557590484619e-01</leafValues></_>
    <_>
      <internalNodes>
        0 -1 48517 -2.6178951375186443e-03</internalNodes>
      <leafValues>
        3.8669744133949280e-01 -3.8363775610923767e-01</leafValues></_>
    <_>
      <internalNodes>
        0 -1 57962 -1.0719116544350982e-03</internalNodes>
      <leafValues>
        3.3579036593437195e-01 -4.4338807463645935e-01</leafValues></_>
    <_>
      <internalNodes>
        0 -1 68060 -2.5408830493688583e-02</internalNodes>
      <leafValues>
        4.5725598931312561e-01 -3.0441728234291077e-01</leafValues></_>
    <_>
      <internalNodes>
        0 -1 56913 -5.9688254259526730e-04</internalNodes>
      <leafValues>
        3.6927220225334167e-01 -3.2046070694923401e-01</leafValues></_>
    <_>
      <internalNodes>
        0 -1 57656 1.5612519346177578e-03</internalNodes>
      <leafValues>
        -5.9015768766403198e-01 1.8918716907501221e-01</leafValues></_>
    <_>
      <internalNodes>
        0 -1 58103 -3.7947838427498937e-04</internalNodes>
      <leafValues>
        2.9616120457649231e-01 -3.9007285237312317e-01</leafValues></_>
    <_>
      <internalNodes>
        0 -1 50451 2.8437492437660694e-03</internalNodes>
      <leafValues>
        1.5248620510101318e-01 -5.8219766616821289e-01</leafValues></_>
    <_>
      <internalNodes>
        0 -1 33431 -4.2103021405637264e-04</internalNodes>
      <leafValues>
        3.1325352191925049e-01 -2.9387676715850830e-01</leafValues></_>
    <_>
      <internalNodes>
        0 -1 52817 7.7900048345327377e-03</internalNodes>
      <leafValues>
        1.0484032332897186e-01 -7.3008567094802856e-01</leafValues></_></weakClassifiers></stage2>
</opencv_storage>
