<?xml version="1.0"?>
<opencv_storage>
<stage5>
  <maxWeakCount>47</maxWeakCount>
  <stageThreshold>-1.1210036277770996e+00</stageThreshold>
  <weakClassifiers>
    <_>
      <internalNodes>
        0 -1 46142 3.8765862584114075e-02</internalNodes>
      <leafValues>
        -1.2495812028646469e-01 6.3632339239120483e-01</leafValues></_>
    <_>
      <internalNodes>
        0 -1 60636 2.8991699218750000e-02</internalNodes>
      <leafValues>
        -2.1693563461303711e-01 5.4579097032546997e-01</leafValues></_>
    <_>
      <internalNodes>
        0 -1 42911 6.6606518812477589e-03</internalNodes>
      <leafValues>
        -1.9129103422164917e-01 4.4372695684432983e-01</leafValues></_>
    <_>
      <internalNodes>
        0 -1 64780 2.6605738326907158e-02</internalNodes>
      <leafValues>
        -1.8859648704528809e-01 3.3345595002174377e-01</leafValues></_>
    <_>
      <internalNodes>
        0 -1 65291 -2.7857260778546333e-02</internalNodes>
      <leafValues>
        2.1773941814899445e-01 -2.3371593654155731e-01</leafValues></_>
    <_>
      <internalNodes>
        0 -1 44738 3.2067645806819201e-03</internalNodes>
      <leafValues>
        -1.2980559468269348e-01 3.0839696526527405e-01</leafValues></_>
    <_>
      <internalNodes>
        0 -1 44342 3.0082319863140583e-03</internalNodes>
      <leafValues>
        -1.0053937882184982e-01 4.0339022874832153e-01</leafValues></_>
    <_>
      <internalNodes>
        0 -1 37987 6.1942398548126221e-02</internalNodes>
      <leafValues>
        8.0567270517349243e-02 -5.2764815092086792e-01</leafValues></_>
    <_>
      <internalNodes>
        0 -1 53297 6.9167375564575195e-02</internalNodes>
      <leafValues>
        -9.2586450278759003e-02 5.0305855274200439e-01</leafValues></_>
    <_>
      <internalNodes>
        0 -1 53479 -1.5480257570743561e-03</internalNodes>
      <leafValues>
        2.3257429897785187e-01 -1.5543162822723389e-01</leafValues></_>
    <_>
      <internalNodes>
        0 -1 12766 6.2229480594396591e-02</internalNodes>
      <leafValues>
        -1.7227888107299805e-01 2.2128859162330627e-01</leafValues></_>
    <_>
      <internalNodes>
        0 -1 723 -7.4346172809600830e-01</internalNodes>
      <leafValues>
        7.0030349493026733e-01 -5.8341216295957565e-02</leafValues></_>
    <_>
      <internalNodes>
        0 -1 48216 7.6652254210785031e-04</internalNodes>
      <leafValues>
        -1.6664196550846100e-01 2.1854004263877869e-01</leafValues></_>
    <_>
      <internalNodes>
        0 -1 64897 5.1707908278331161e-04</internalNodes>
      <leafValues>
        -2.3136360943317413e-01 1.6612222790718079e-01</leafValues></_>
    <_>
      <internalNodes>
        0 -1 61485 -3.6126434803009033e-02</internalNodes>
      <leafValues>
        7.1215933561325073e-01 -4.8266127705574036e-02</leafValues></_>
    <_>
      <internalNodes>
        0 -1 53454 1.1051590554416180e-02</internalNodes>
      <leafValues>
        5.3043544292449951e-02 -7.3686569929122925e-01</leafValues></_>
    <_>
      <internalNodes>
        0 -1 56663 1.1303192004561424e-02</internalNodes>
      <leafValues>
        4.8802498728036880e-02 -5.3437811136245728e-01</leafValues></_>
    <_>
      <internalNodes>
        0 -1 67633 -4.8992540687322617e-03</internalNodes>
      <leafValues>
        -7.5157880783081055e-01 3.2520875334739685e-02</leafValues></_>
    <_>
      <internalNodes>
        0 -1 52523 1.1010853573679924e-02</internalNodes>
      <leafValues>
        5.8596458286046982e-02 -4.4561001658439636e-01</leafValues></_>
    <_>
      <internalNodes>
        0 -1 67503 1.3768569566309452e-02</internalNodes>
      <leafValues>
        -1.2823906540870667e-01 2.4910572171211243e-01</leafValues></_>
    <_>
      <internalNodes>
        0 -1 57952 -3.5134423524141312e-04</internalNodes>
      <leafValues>
        1.5756189823150635e-01 -2.0860293507575989e-01</leafValues></_>
    <_>
      <internalNodes>
        0 -1 43914 -1.0955500416457653e-02</internalNodes>
      <leafValues>
        2.7705511450767517e-01 -1.1356519162654877e-01</leafValues></_>
    <_>
      <internalNodes>
        0 -1 48981 4.8620128654874861e-04</internalNodes>
      <leafValues>
        -1.4440880715847015e-01 2.5945359468460083e-01</leafValues></_>
    <_>
      <internalNodes>
        0 -1 49575 -4.1964031755924225e-02</internalNodes>
      <leafValues>
        -5.7368206977844238e-01 5.4478332400321960e-02</leafValues></_>
    <_>
      <internalNodes>
        0 -1 48356 4.9445915967226028e-02</internalNodes>
      <leafValues>
        4.5907389372587204e-02 -5.5443471670150757e-01</leafValues></_>
    <_>
      <internalNodes>
        0 -1 60531 1.0621910914778709e-03</internalNodes>
      <leafValues>
        -1.1011460423469543e-01 2.5194391608238220e-01</leafValues></_>
    <_>
      <internalNodes>
        0 -1 58149 -1.2425420805811882e-02</internalNodes>
      <leafValues>
        -7.4962896108627319e-01 4.0648669004440308e-02</leafValues></_>
    <_>
      <internalNodes>
        0 -1 49679 9.6216239035129547e-04</internalNodes>
      <leafValues>
        -1.4104397594928741e-01 2.0972843468189240e-01</leafValues></_>
    <_>
      <internalNodes>
        0 -1 48982 5.3641228005290031e-03</internalNodes>
      <leafValues>
        6.2626592814922333e-02 -5.1680576801300049e-01</leafValues></_>
    <_>
      <internalNodes>
        0 -1 13858 -2.5312578305602074e-02</internalNodes>
      <leafValues>
        1.4443998038768768e-01 -2.1182464063167572e-01</leafValues></_>
    <_>
      <internalNodes>
        0 -1 26532 -1.6474872827529907e-02</internalNodes>
      <leafValues>
        3.4340393543243408e-01 -8.5276432335376740e-02</leafValues></_>
    <_>
      <internalNodes>
        0 -1 48553 -3.1755208969116211e-02</internalNodes>
      <leafValues>
        -5.8752685785293579e-01 5.8511815965175629e-02</leafValues></_>
    <_>
      <internalNodes>
        0 -1 53221 -3.4682839177548885e-03</internalNodes>
      <leafValues>
        1.6389042139053345e-01 -1.8815505504608154e-01</leafValues></_>
    <_>
      <internalNodes>
        0 -1 57824 -1.8532447516918182e-02</internalNodes>
      <leafValues>
        2.5787478685379028e-01 -1.1269559711217880e-01</leafValues></_>
    <_>
      <internalNodes>
        0 -1 38290 -5.0288364291191101e-02</internalNodes>
      <leafValues>
        -4.4504815340042114e-01 8.9276686310768127e-02</leafValues></_>
    <_>
      <internalNodes>
        0 -1 70690 7.9896207898855209e-03</internalNodes>
      <leafValues>
        2.9626162722706795e-02 -8.9273840188980103e-01</leafValues></_>
    <_>
      <internalNodes>
        0 -1 68101 4.7518638893961906e-04</internalNodes>
      <leafValues>
        -1.4584669470787048e-01 1.8652546405792236e-01</leafValues></_>
    <_>
      <internalNodes>
        0 -1 68112 1.3423055410385132e-02</internalNodes>
      <leafValues>
        4.4941846281290054e-02 -5.8482676744461060e-01</leafValues></_>
    <_>
      <internalNodes>
        0 -1 67493 -6.1051966622471809e-03</internalNodes>
      <leafValues>
        -5.1138138771057129e-01 4.8801559954881668e-02</leafValues></_>
    <_>
      <internalNodes>
        0 -1 64809 -1.0802451521158218e-02</internalNodes>
      <leafValues>
        1.9386419653892517e-01 -1.3319352269172668e-01</leafValues></_>
    <_>
      <internalNodes>
        0 -1 68227 6.5239099785685539e-04</internalNodes>
      <leafValues>
        -1.2564778327941895e-01 2.4611066281795502e-01</leafValues></_>
    <_>
      <internalNodes>
        0 -1 52821 -4.5640572905540466e-02</internalNodes>
      <leafValues>
        -5.7765132188796997e-01 4.3938793241977692e-02</leafValues></_>
    <_>
      <internalNodes>
        0 -1 62086 -1.7349198460578918e-02</internalNodes>
      <leafValues>
        -5.1123631000518799e-01 4.4400110840797424e-02</leafValues></_>
    <_>
      <internalNodes>
        0 -1 48512 -1.5357116935774684e-03</internalNodes>
      <leafValues>
        1.5811690688133240e-01 -1.5543875098228455e-01</leafValues></_>
    <_>
      <internalNodes>
        0 -1 48756 -1.0961206629872322e-02</internalNodes>
      <leafValues>
        -7.4768340587615967e-01 3.8870699703693390e-02</leafValues></_>
    <_>
      <internalNodes>
        0 -1 38990 2.1164618432521820e-02</internalNodes>
      <leafValues>
        -5.2014391869306564e-02 5.5505335330963135e-01</leafValues></_>
    <_>
      <internalNodes>
        0 -1 61663 -1.6055796295404434e-02</internalNodes>
      <leafValues>
        4.8648428916931152e-01 -5.1424317061901093e-02</leafValues></_></weakClassifiers></stage5>
</opencv_storage>
