<?xml version="1.0"?>
<opencv_storage>
<stage17>
  <maxWeakCount>36</maxWeakCount>
  <stageThreshold>-9.2822325229644775e-01</stageThreshold>
  <weakClassifiers>
    <_>
      <internalNodes>
        0 -1 327843 4.4543255120515823e-02</internalNodes>
      <leafValues>
        1.0493046790361404e-01 6.5652954578399658e-01</leafValues></_>
    <_>
      <internalNodes>
        0 -1 344060 -1.4583482407033443e-03</internalNodes>
      <leafValues>
        2.4368219077587128e-01 -3.0176243185997009e-01</leafValues></_>
    <_>
      <internalNodes>
        0 -1 259962 -4.9093849956989288e-03</internalNodes>
      <leafValues>
        3.3337056636810303e-01 -2.0088092982769012e-01</leafValues></_>
    <_>
      <internalNodes>
        0 -1 97481 2.6137030217796564e-03</internalNodes>
      <leafValues>
        -2.5278881192207336e-01 2.4735909700393677e-01</leafValues></_>
    <_>
      <internalNodes>
        0 -1 266674 6.5222466364502907e-03</internalNodes>
      <leafValues>
        -1.8392325937747955e-01 4.1739106178283691e-01</leafValues></_>
    <_>
      <internalNodes>
        0 -1 262490 -5.4324488155543804e-04</internalNodes>
      <leafValues>
        1.3813656568527222e-01 -4.7663006186485291e-01</leafValues></_>
    <_>
      <internalNodes>
        0 -1 250134 2.2317128255963326e-02</internalNodes>
      <leafValues>
        7.1013815701007843e-02 -7.6567494869232178e-01</leafValues></_>
    <_>
      <internalNodes>
        0 -1 306107 -1.3371318345889449e-03</internalNodes>
      <leafValues>
        2.9210886359214783e-01 -2.2065448760986328e-01</leafValues></_>
    <_>
      <internalNodes>
        0 -1 329148 2.0291220396757126e-02</internalNodes>
      <leafValues>
        -5.8306921273469925e-02 7.4157339334487915e-01</leafValues></_>
    <_>
      <internalNodes>
        0 -1 196397 -4.2188577353954315e-02</internalNodes>
      <leafValues>
        -5.5910867452621460e-01 9.7153626382350922e-02</leafValues></_>
    <_>
      <internalNodes>
        0 -1 215595 2.0644405856728554e-02</internalNodes>
      <leafValues>
        -1.3314966857433319e-01 3.6936762928962708e-01</leafValues></_>
    <_>
      <internalNodes>
        0 -1 231626 8.8812038302421570e-03</internalNodes>
      <leafValues>
        -1.6933530569076538e-01 4.1634038090705872e-01</leafValues></_>
    <_>
      <internalNodes>
        0 -1 231639 -2.5774825364351273e-02</internalNodes>
      <leafValues>
        -6.3551634550094604e-01 8.4472320973873138e-02</leafValues></_>
    <_>
      <internalNodes>
        0 -1 211888 7.6287677511572838e-03</internalNodes>
      <leafValues>
        6.0711856931447983e-02 -7.3082792758941650e-01</leafValues></_>
    <_>
      <internalNodes>
        0 -1 347913 1.1026230640709400e-03</internalNodes>
      <leafValues>
        4.6304564923048019e-02 -7.4081212282180786e-01</leafValues></_>
    <_>
      <internalNodes>
        0 -1 275116 9.8810084164142609e-03</internalNodes>
      <leafValues>
        7.9676538705825806e-02 -5.1997596025466919e-01</leafValues></_>
    <_>
      <internalNodes>
        0 -1 325555 -2.7734349714592099e-04</internalNodes>
      <leafValues>
        2.6315882802009583e-01 -1.6670012474060059e-01</leafValues></_>
    <_>
      <internalNodes>
        0 -1 289367 -9.2483861371874809e-03</internalNodes>
      <leafValues>
        3.7257811427116394e-01 -1.3163821399211884e-01</leafValues></_>
    <_>
      <internalNodes>
        0 -1 164738 9.9166065454483032e-02</internalNodes>
      <leafValues>
        -1.2048866599798203e-01 4.4303476810455322e-01</leafValues></_>
    <_>
      <internalNodes>
        0 -1 196971 1.5108298510313034e-02</internalNodes>
      <leafValues>
        -1.1980434507131577e-01 3.8521352410316467e-01</leafValues></_>
    <_>
      <internalNodes>
        0 -1 231054 2.6850929483771324e-02</internalNodes>
      <leafValues>
        6.4565584063529968e-02 -7.5762337446212769e-01</leafValues></_>
    <_>
      <internalNodes>
        0 -1 96835 1.2963661924004555e-02</internalNodes>
      <leafValues>
        9.3005381524562836e-02 -5.0286287069320679e-01</leafValues></_>
    <_>
      <internalNodes>
        0 -1 337578 3.3349534496665001e-03</internalNodes>
      <leafValues>
        4.7127094119787216e-02 -7.7135103940963745e-01</leafValues></_>
    <_>
      <internalNodes>
        0 -1 319869 -2.3779212497174740e-03</internalNodes>
      <leafValues>
        -6.0095137357711792e-01 6.8868167698383331e-02</leafValues></_>
    <_>
      <internalNodes>
        0 -1 303001 -6.1622355133295059e-04</internalNodes>
      <leafValues>
        2.8691667318344116e-01 -1.5570834279060364e-01</leafValues></_>
    <_>
      <internalNodes>
        0 -1 232170 1.0873408056795597e-02</internalNodes>
      <leafValues>
        -1.1952170729637146e-01 3.5297274589538574e-01</leafValues></_>
    <_>
      <internalNodes>
        0 -1 233178 4.1490318253636360e-03</internalNodes>
      <leafValues>
        -8.8664077222347260e-02 5.2443271875381470e-01</leafValues></_>
    <_>
      <internalNodes>
        0 -1 274034 -2.8982935473322868e-03</internalNodes>
      <leafValues>
        -5.4549419879913330e-01 8.6810126900672913e-02</leafValues></_>
    <_>
      <internalNodes>
        0 -1 289934 -1.1531508062034845e-03</internalNodes>
      <leafValues>
        3.2060834765434265e-01 -1.4342129230499268e-01</leafValues></_>
    <_>
      <internalNodes>
        0 -1 387769 -1.2484876788221300e-04</internalNodes>
      <leafValues>
        -2.4898256361484528e-01 1.7327998578548431e-01</leafValues></_>
    <_>
      <internalNodes>
        0 -1 275977 -7.4135800823569298e-03</internalNodes>
      <leafValues>
        -7.4211925268173218e-01 6.0036137700080872e-02</leafValues></_>
    <_>
      <internalNodes>
        0 -1 357323 2.7722495142370462e-03</internalNodes>
      <leafValues>
        6.2071971595287323e-02 -6.1860913038253784e-01</leafValues></_>
    <_>
      <internalNodes>
        0 -1 214379 -2.3072866722941399e-02</internalNodes>
      <leafValues>
        6.4672368764877319e-01 -6.8090088665485382e-02</leafValues></_>
    <_>
      <internalNodes>
        0 -1 267138 -2.7009434998035431e-03</internalNodes>
      <leafValues>
        2.5092905759811401e-01 -1.7637042701244354e-01</leafValues></_>
    <_>
      <internalNodes>
        0 -1 215675 -6.2495702877640724e-04</internalNodes>
      <leafValues>
        1.0032238066196442e-01 -4.4692525267601013e-01</leafValues></_>
    <_>
      <internalNodes>
        0 -1 243806 8.9857950806617737e-02</internalNodes>
      <leafValues>
        6.6378884017467499e-02 -7.0867806673049927e-01</leafValues></_></weakClassifiers></stage17>
</opencv_storage>
