<?xml version="1.0"?>
<opencv_storage>
<stage22>
  <maxWeakCount>74</maxWeakCount>
  <stageThreshold>-9.3834471702575684e-01</stageThreshold>
  <weakClassifiers>
    <_>
      <internalNodes>
        0 -1 19744 6.5247699618339539e-02</internalNodes>
      <leafValues>
        1.8715225160121918e-02 5.7986521720886230e-01</leafValues></_>
    <_>
      <internalNodes>
        0 -1 72783 -4.3469853699207306e-02</internalNodes>
      <leafValues>
        2.9963394999504089e-01 -1.8833312392234802e-01</leafValues></_>
    <_>
      <internalNodes>
        0 -1 35953 -7.1646198630332947e-02</internalNodes>
      <leafValues>
        4.1512045264244080e-01 -1.1557477712631226e-01</leafValues></_>
    <_>
      <internalNodes>
        0 -1 35032 3.7904821336269379e-02</internalNodes>
      <leafValues>
        1.3593818247318268e-01 -3.1107392907142639e-01</leafValues></_>
    <_>
      <internalNodes>
        0 -1 26508 1.3897906988859177e-02</internalNodes>
      <leafValues>
        -1.2268696725368500e-01 5.2648389339447021e-01</leafValues></_>
    <_>
      <internalNodes>
        0 -1 33558 4.6810075640678406e-02</internalNodes>
      <leafValues>
        -2.9552169144153595e-02 6.9104987382888794e-01</leafValues></_>
    <_>
      <internalNodes>
        0 -1 39266 2.2881064563989639e-02</internalNodes>
      <leafValues>
        -1.9667090475559235e-01 2.1778327226638794e-01</leafValues></_>
    <_>
      <internalNodes>
        0 -1 68029 1.9716126844286919e-02</internalNodes>
      <leafValues>
        -9.5032058656215668e-02 5.0818461179733276e-01</leafValues></_>
    <_>
      <internalNodes>
        0 -1 19712 4.9760028719902039e-02</internalNodes>
      <leafValues>
        1.1173008382320404e-01 -3.3311688899993896e-01</leafValues></_>
    <_>
      <internalNodes>
        0 -1 27279 1.6337409615516663e-03</internalNodes>
      <leafValues>
        -2.0807909965515137e-01 2.1256257593631744e-01</leafValues></_>
    <_>
      <internalNodes>
        0 -1 43657 -1.7487483099102974e-02</internalNodes>
      <leafValues>
        -5.4585707187652588e-01 6.1391651630401611e-02</leafValues></_>
    <_>
      <internalNodes>
        0 -1 4958 2.2902673110365868e-02</internalNodes>
      <leafValues>
        6.3084363937377930e-02 -4.7087013721466064e-01</leafValues></_>
    <_>
      <internalNodes>
        0 -1 66017 -1.6250289976596832e-02</internalNodes>
      <leafValues>
        2.5052860379219055e-01 -1.2183248251676559e-01</leafValues></_>
    <_>
      <internalNodes>
        0 -1 68101 6.9876073393970728e-04</internalNodes>
      <leafValues>
        -1.6586884856224060e-01 1.8153725564479828e-01</leafValues></_>
    <_>
      <internalNodes>
        0 -1 61283 2.1937522105872631e-03</internalNodes>
      <leafValues>
        -1.1753255128860474e-01 2.9253807663917542e-01</leafValues></_>
    <_>
      <internalNodes>
        0 -1 44863 -4.1414313018321991e-03</internalNodes>
      <leafValues>
        2.5490644574165344e-01 -1.1076656728982925e-01</leafValues></_>
    <_>
      <internalNodes>
        0 -1 67886 4.3370880186557770e-02</internalNodes>
      <leafValues>
        8.0203697085380554e-02 -4.7258296608924866e-01</leafValues></_>
    <_>
      <internalNodes>
        0 -1 70726 -4.6926727518439293e-03</internalNodes>
      <leafValues>
        2.7864760160446167e-01 -1.2350402027368546e-01</leafValues></_>
    <_>
      <internalNodes>
        0 -1 33274 -1.1747499927878380e-02</internalNodes>
      <leafValues>
        4.2424449324607849e-01 -7.5789652764797211e-02</leafValues></_>
    <_>
      <internalNodes>
        0 -1 20749 -1.4836084097623825e-02</internalNodes>
      <leafValues>
        -5.3108906745910645e-01 6.5563954412937164e-02</leafValues></_>
    <_>
      <internalNodes>
        0 -1 70920 2.1617400925606489e-03</internalNodes>
      <leafValues>
        -1.2340448796749115e-01 2.3990988731384277e-01</leafValues></_>
    <_>
      <internalNodes>
        0 -1 20718 1.5879273414611816e-02</internalNodes>
      <leafValues>
        2.9606243968009949e-01 -9.9984332919120789e-02</leafValues></_>
    <_>
      <internalNodes>
        0 -1 52471 -1.1467033997178078e-02</internalNodes>
      <leafValues>
        -8.2954275608062744e-01 3.6677390336990356e-02</leafValues></_>
    <_>
      <internalNodes>
        0 -1 52734 -1.3286855071783066e-02</internalNodes>
      <leafValues>
        -6.4631819725036621e-01 3.4126762300729752e-02</leafValues></_>
    <_>
      <internalNodes>
        0 -1 60278 3.1298883259296417e-02</internalNodes>
      <leafValues>
        6.3379816710948944e-02 -4.4794574379920959e-01</leafValues></_>
    <_>
      <internalNodes>
        0 -1 53100 1.9916977733373642e-02</internalNodes>
      <leafValues>
        -1.5901027619838715e-01 1.9122958183288574e-01</leafValues></_>
    <_>
      <internalNodes>
        0 -1 61382 -6.4142509363591671e-03</internalNodes>
      <leafValues>
        2.5112938880920410e-01 -1.4463998377323151e-01</leafValues></_>
    <_>
      <internalNodes>
        0 -1 49459 1.0718146339058876e-02</internalNodes>
      <leafValues>
        6.0532648116350174e-02 -4.7746661305427551e-01</leafValues></_>
    <_>
      <internalNodes>
        0 -1 61794 8.2791222666855901e-05</internalNodes>
      <leafValues>
        1.1734808236360550e-01 -2.3415133357048035e-01</leafValues></_>
    <_>
      <internalNodes>
        0 -1 49070 4.1558402590453625e-03</internalNodes>
      <leafValues>
        -1.2408784776926041e-01 2.7020999789237976e-01</leafValues></_>
    <_>
      <internalNodes>
        0 -1 67465 3.8299590814858675e-03</internalNodes>
      <leafValues>
        -1.2198817729949951e-01 2.3212774097919464e-01</leafValues></_>
    <_>
      <internalNodes>
        0 -1 63572 -1.0949724353849888e-02</internalNodes>
      <leafValues>
        5.3679698705673218e-01 -5.9214804321527481e-02</leafValues></_>
    <_>
      <internalNodes>
        0 -1 70996 1.3744024559855461e-02</internalNodes>
      <leafValues>
        7.0974975824356079e-02 -4.8987227678298950e-01</leafValues></_>
    <_>
      <internalNodes>
        0 -1 44513 -6.3315927982330322e-03</internalNodes>
      <leafValues>
        4.7296935319900513e-01 -6.8347305059432983e-02</leafValues></_>
    <_>
      <internalNodes>
        0 -1 49522 1.0323694441467524e-03</internalNodes>
      <leafValues>
        -1.2214539945125580e-01 2.4566546082496643e-01</leafValues></_>
    <_>
      <internalNodes>
        0 -1 6954 9.2590041458606720e-03</internalNodes>
      <leafValues>
        -8.7649777531623840e-02 3.7303745746612549e-01</leafValues></_>
    <_>
      <internalNodes>
        0 -1 26526 6.8454081192612648e-03</internalNodes>
      <leafValues>
        -6.1855562031269073e-02 6.1603599786758423e-01</leafValues></_>
    <_>
      <internalNodes>
        0 -1 840 -9.2249792069196701e-03</internalNodes>
      <leafValues>
        2.2407002747058868e-01 -1.2888666987419128e-01</leafValues></_>
    <_>
      <internalNodes>
        0 -1 77606 -2.9282732866704464e-03</internalNodes>
      <leafValues>
        -3.8521149754524231e-01 8.6617849767208099e-02</leafValues></_>
    <_>
      <internalNodes>
        0 -1 14127 -3.8358598249033093e-04</internalNodes>
      <leafValues>
        1.6086348891258240e-01 -2.2202463448047638e-01</leafValues></_>
    <_>
      <internalNodes>
        0 -1 12654 -2.7069492265582085e-02</internalNodes>
      <leafValues>
        -2.3152430355548859e-01 1.4575771987438202e-01</leafValues></_>
    <_>
      <internalNodes>
        0 -1 64921 -4.0679057128727436e-03</internalNodes>
      <leafValues>
        2.1523135900497437e-01 -1.4423881471157074e-01</leafValues></_>
    <_>
      <internalNodes>
        0 -1 64559 1.1828532442450523e-02</internalNodes>
      <leafValues>
        -8.3570852875709534e-02 4.6315157413482666e-01</leafValues></_>
    <_>
      <internalNodes>
        0 -1 32350 -1.5567317605018616e-02</internalNodes>
      <leafValues>
        -4.6715378761291504e-01 7.1252122521400452e-02</leafValues></_>
    <_>
      <internalNodes>
        0 -1 74118 -1.8801817204803228e-03</internalNodes>
      <leafValues>
        -4.5083793997764587e-01 7.0119060575962067e-02</leafValues></_>
    <_>
      <internalNodes>
        0 -1 26223 7.3120296001434326e-02</internalNodes>
      <leafValues>
        -4.7631524503231049e-02 7.3676919937133789e-01</leafValues></_>
    <_>
      <internalNodes>
        0 -1 6072 1.3942313380539417e-03</internalNodes>
      <leafValues>
        -1.0360813140869141e-01 2.6723232865333557e-01</leafValues></_>
    <_>
      <internalNodes>
        0 -1 61816 -7.4488660320639610e-03</internalNodes>
      <leafValues>
        -5.8087772130966187e-01 5.6611116975545883e-02</leafValues></_>
    <_>
      <internalNodes>
        0 -1 32966 -5.0560766831040382e-03</internalNodes>
      <leafValues>
        4.4317883253097534e-01 -7.2370454668998718e-02</leafValues></_>
    <_>
      <internalNodes>
        0 -1 49247 1.1991156265139580e-02</internalNodes>
      <leafValues>
        6.7930988967418671e-02 -5.3021347522735596e-01</leafValues></_>
    <_>
      <internalNodes>
        0 -1 35845 -3.9944402873516083e-02</internalNodes>
      <leafValues>
        5.7000166177749634e-01 -5.8466922491788864e-02</leafValues></_>
    <_>
      <internalNodes>
        0 -1 57995 1.6870073974132538e-02</internalNodes>
      <leafValues>
        9.2548303306102753e-02 -3.2097166776657104e-01</leafValues></_>
    <_>
      <internalNodes>
        0 -1 76536 1.2545587960630655e-03</internalNodes>
      <leafValues>
        -1.0671168565750122e-01 2.6573196053504944e-01</leafValues></_>
    <_>
      <internalNodes>
        0 -1 76508 -9.4611374661326408e-03</internalNodes>
      <leafValues>
        3.1365975737571716e-01 -1.1620486527681351e-01</leafValues></_>
    <_>
      <internalNodes>
        0 -1 73716 3.7549197673797607e-02</internalNodes>
      <leafValues>
        -3.1831383705139160e-02 7.1952396631240845e-01</leafValues></_>
    <_>
      <internalNodes>
        0 -1 70485 -6.1797555536031723e-03</internalNodes>
      <leafValues>
        2.5875818729400635e-01 -1.0736191272735596e-01</leafValues></_>
    <_>
      <internalNodes>
        0 -1 43915 -1.1930875480175018e-02</internalNodes>
      <leafValues>
        4.3067902326583862e-01 -6.5449364483356476e-02</leafValues></_>
    <_>
      <internalNodes>
        0 -1 54055 -1.3323940802365541e-03</internalNodes>
      <leafValues>
        2.0920486748218536e-01 -1.3987627625465393e-01</leafValues></_>
    <_>
      <internalNodes>
        0 -1 54441 -7.0592807605862617e-03</internalNodes>
      <leafValues>
        -4.3838560581207275e-01 7.6130196452140808e-02</leafValues></_>
    <_>
      <internalNodes>
        0 -1 63868 6.8345777690410614e-03</internalNodes>
      <leafValues>
        -4.2313311249017715e-02 7.5081795454025269e-01</leafValues></_>
    <_>
      <internalNodes>
        0 -1 19981 -4.1656848043203354e-03</internalNodes>
      <leafValues>
        -7.8125113248825073e-01 3.8582600653171539e-02</leafValues></_>
    <_>
      <internalNodes>
        0 -1 28649 1.6500081401318312e-03</internalNodes>
      <leafValues>
        5.8065615594387054e-02 -4.0003553032875061e-01</leafValues></_>
    <_>
      <internalNodes>
        0 -1 54254 1.2713074684143066e-02</internalNodes>
      <leafValues>
        -3.8789693266153336e-02 7.2433477640151978e-01</leafValues></_>
    <_>
      <internalNodes>
        0 -1 33990 -1.4305815100669861e-02</internalNodes>
      <leafValues>
        2.1062755584716797e-01 -1.3344103097915649e-01</leafValues></_>
    <_>
      <internalNodes>
        0 -1 49712 7.6793273910880089e-03</internalNodes>
      <leafValues>
        -9.4816923141479492e-02 3.6785039305686951e-01</leafValues></_>
    <_>
      <internalNodes>
        0 -1 53765 1.2786241248250008e-02</internalNodes>
      <leafValues>
        8.5865519940853119e-02 -3.7669935822486877e-01</leafValues></_>
    <_>
      <internalNodes>
        0 -1 46379 -2.5053855497390032e-03</internalNodes>
      <leafValues>
        1.9419492781162262e-01 -1.5092970430850983e-01</leafValues></_>
    <_>
      <internalNodes>
        0 -1 73149 5.7968376204371452e-03</internalNodes>
      <leafValues>
        3.7951372563838959e-02 -8.1959414482116699e-01</leafValues></_>
    <_>
      <internalNodes>
        0 -1 74673 9.1210944810882211e-04</internalNodes>
      <leafValues>
        -1.5099392831325531e-01 2.2121906280517578e-01</leafValues></_>
    <_>
      <internalNodes>
        0 -1 74836 6.8766460753977299e-04</internalNodes>
      <leafValues>
        -1.3640679419040680e-01 2.5974884629249573e-01</leafValues></_>
    <_>
      <internalNodes>
        0 -1 66402 2.9938448220491409e-02</internalNodes>
      <leafValues>
        -7.3735073208808899e-02 4.5162591338157654e-01</leafValues></_>
    <_>
      <internalNodes>
        0 -1 60265 -8.3342622965574265e-03</internalNodes>
      <leafValues>
        -6.7167001962661743e-01 4.9649946391582489e-02</leafValues></_>
    <_>
      <internalNodes>
        0 -1 77348 -2.5128163397312164e-02</internalNodes>
      <leafValues>
        -5.7412403821945190e-01 4.5012217015028000e-02</leafValues></_>
    <_>
      <internalNodes>
        0 -1 61306 3.4375220537185669e-02</internalNodes>
      <leafValues>
        -7.5740940868854523e-02 3.8668155670166016e-01</leafValues></_></weakClassifiers></stage22>
</opencv_storage>
