<?xml version="1.0"?>
<opencv_storage>
<stage16>
  <maxWeakCount>27</maxWeakCount>
  <stageThreshold>-8.4673458337783813e-01</stageThreshold>
  <weakClassifiers>
    <_>
      <internalNodes>
        0 -1 21805 1.7619572579860687e-02</internalNodes>
      <leafValues>
        -2.7751196175813675e-02 5.6132930517196655e-01</leafValues></_>
    <_>
      <internalNodes>
        0 -1 12973 -8.8785579428076744e-03</internalNodes>
      <leafValues>
        3.5390058159828186e-01 -2.2072061896324158e-01</leafValues></_>
    <_>
      <internalNodes>
        0 -1 19108 -3.7240548990666866e-03</internalNodes>
      <leafValues>
        1.9185172021389008e-01 -4.3179973959922791e-01</leafValues></_>
    <_>
      <internalNodes>
        0 -1 17389 -1.6461268533021212e-03</internalNodes>
      <leafValues>
        1.1258680373430252e-01 -6.0358351469039917e-01</leafValues></_>
    <_>
      <internalNodes>
        0 -1 2149 1.7734536528587341e-01</internalNodes>
      <leafValues>
        -2.9504770040512085e-01 2.1927668154239655e-01</leafValues></_>
    <_>
      <internalNodes>
        0 -1 15872 -1.1741921305656433e-02</internalNodes>
      <leafValues>
        1.2407952547073364e-01 -5.7414180040359497e-01</leafValues></_>
    <_>
      <internalNodes>
        0 -1 16547 -6.7237545736134052e-03</internalNodes>
      <leafValues>
        -4.2511951923370361e-01 7.5088314712047577e-02</leafValues></_>
    <_>
      <internalNodes>
        0 -1 23592 -4.7093275934457779e-03</internalNodes>
      <leafValues>
        2.5921452045440674e-01 -1.9603833556175232e-01</leafValues></_>
    <_>
      <internalNodes>
        0 -1 11243 1.1091513559222221e-02</internalNodes>
      <leafValues>
        5.9408955276012421e-02 -7.1630978584289551e-01</leafValues></_>
    <_>
      <internalNodes>
        0 -1 17360 -1.5673048328608274e-03</internalNodes>
      <leafValues>
        1.1081251502037048e-01 -4.5354437828063965e-01</leafValues></_>
    <_>
      <internalNodes>
        0 -1 24819 -9.5464084297418594e-03</internalNodes>
      <leafValues>
        2.3006568849086761e-01 -2.0359794795513153e-01</leafValues></_>
    <_>
      <internalNodes>
        0 -1 9976 2.5570043921470642e-01</internalNodes>
      <leafValues>
        -9.0648956596851349e-02 6.7829948663711548e-01</leafValues></_>
    <_>
      <internalNodes>
        0 -1 13553 5.1263114437460899e-03</internalNodes>
      <leafValues>
        -1.5150396525859833e-01 3.7632587552070618e-01</leafValues></_>
    <_>
      <internalNodes>
        0 -1 15550 4.8839922994375229e-02</internalNodes>
      <leafValues>
        9.9034674465656281e-02 -5.3233093023300171e-01</leafValues></_>
    <_>
      <internalNodes>
        0 -1 19137 5.5268093943595886e-02</internalNodes>
      <leafValues>
        -8.0071717500686646e-02 6.8393707275390625e-01</leafValues></_>
    <_>
      <internalNodes>
        0 -1 13280 1.0130237787961960e-02</internalNodes>
      <leafValues>
        9.8468370735645294e-02 -6.3593757152557373e-01</leafValues></_>
    <_>
      <internalNodes>
        0 -1 15220 -1.0097898542881012e-02</internalNodes>
      <leafValues>
        7.5106784701347351e-02 -6.0308247804641724e-01</leafValues></_>
    <_>
      <internalNodes>
        0 -1 15791 -1.3455314561724663e-02</internalNodes>
      <leafValues>
        4.3445587158203125e-01 -1.2798251211643219e-01</leafValues></_>
    <_>
      <internalNodes>
        0 -1 11713 -6.1269435100257397e-03</internalNodes>
      <leafValues>
        2.7464973926544189e-01 -1.7933946847915649e-01</leafValues></_>
    <_>
      <internalNodes>
        0 -1 23295 8.4033146500587463e-02</internalNodes>
      <leafValues>
        -1.2439022958278656e-01 4.0564525127410889e-01</leafValues></_>
    <_>
      <internalNodes>
        0 -1 18020 -4.0621599182486534e-03</internalNodes>
      <leafValues>
        -4.1259658336639404e-01 1.1335251480340958e-01</leafValues></_>
    <_>
      <internalNodes>
        0 -1 17557 -1.8956165760755539e-02</internalNodes>
      <leafValues>
        -9.0228694677352905e-01 4.7120038419961929e-02</leafValues></_>
    <_>
      <internalNodes>
        0 -1 20712 4.6400921419262886e-03</internalNodes>
      <leafValues>
        -2.2610038518905640e-01 2.1990890800952911e-01</leafValues></_>
    <_>
      <internalNodes>
        0 -1 20718 -5.3105827420949936e-02</internalNodes>
      <leafValues>
        7.0016205310821533e-01 -7.7582463622093201e-02</leafValues></_>
    <_>
      <internalNodes>
        0 -1 2313 1.7009556293487549e-02</internalNodes>
      <leafValues>
        -1.2616553902626038e-01 3.5200223326683044e-01</leafValues></_>
    <_>
      <internalNodes>
        0 -1 17596 -6.9456105120480061e-03</internalNodes>
      <leafValues>
        -7.8649926185607910e-01 6.1512749642133713e-02</leafValues></_>
    <_>
      <internalNodes>
        0 -1 13301 1.6614347696304321e-03</internalNodes>
      <leafValues>
        -2.0692460238933563e-01 2.0909817516803741e-01</leafValues></_></weakClassifiers></stage16>
</opencv_storage>
