<?xml version="1.0"?>
<opencv_storage>
<stage12>
  <maxWeakCount>32</maxWeakCount>
  <stageThreshold>-8.7613338232040405e-01</stageThreshold>
  <weakClassifiers>
    <_>
      <internalNodes>
        0 -1 239083 -1.9839568063616753e-02</internalNodes>
      <leafValues>
        5.4934602975845337e-01 -2.3575639352202415e-02</leafValues></_>
    <_>
      <internalNodes>
        0 -1 211589 -7.6200747862458229e-03</internalNodes>
      <leafValues>
        4.6618348360061646e-01 -1.3160458207130432e-01</leafValues></_>
    <_>
      <internalNodes>
        0 -1 235271 -1.2128258123993874e-02</internalNodes>
      <leafValues>
        3.5759910941123962e-01 -1.9321215152740479e-01</leafValues></_>
    <_>
      <internalNodes>
        0 -1 232674 3.0387633014470339e-03</internalNodes>
      <leafValues>
        -1.9996266067028046e-01 3.6912658810615540e-01</leafValues></_>
    <_>
      <internalNodes>
        0 -1 346985 -6.5726169850677252e-04</internalNodes>
      <leafValues>
        2.5160500407218933e-01 -2.4919982254505157e-01</leafValues></_>
    <_>
      <internalNodes>
        0 -1 248446 2.5461148470640182e-03</internalNodes>
      <leafValues>
        5.4617039859294891e-02 -7.5917547941207886e-01</leafValues></_>
    <_>
      <internalNodes>
        0 -1 233693 -2.4518627673387527e-02</internalNodes>
      <leafValues>
        6.7700678110122681e-01 -9.1586798429489136e-02</leafValues></_>
    <_>
      <internalNodes>
        0 -1 348206 3.0502740992233157e-04</internalNodes>
      <leafValues>
        -3.3760604262351990e-01 1.9385938346385956e-01</leafValues></_>
    <_>
      <internalNodes>
        0 -1 197122 -8.8280774652957916e-03</internalNodes>
      <leafValues>
        -6.9207727909088135e-01 7.7104009687900543e-02</leafValues></_>
    <_>
      <internalNodes>
        0 -1 230997 -3.5025570541620255e-03</internalNodes>
      <leafValues>
        1.5073704719543457e-01 -3.2075145840644836e-01</leafValues></_>
    <_>
      <internalNodes>
        0 -1 214268 2.5249943137168884e-03</internalNodes>
      <leafValues>
        -1.0513647645711899e-01 5.6477016210556030e-01</leafValues></_>
    <_>
      <internalNodes>
        0 -1 235675 2.5143157108686864e-04</internalNodes>
      <leafValues>
        -2.1389399468898773e-01 2.4842903017997742e-01</leafValues></_>
    <_>
      <internalNodes>
        0 -1 232138 -1.1606194078922272e-02</internalNodes>
      <leafValues>
        -7.7984684705734253e-01 7.0652373135089874e-02</leafValues></_>
    <_>
      <internalNodes>
        0 -1 246237 3.1502705533057451e-03</internalNodes>
      <leafValues>
        -1.9727088510990143e-01 2.8280827403068542e-01</leafValues></_>
    <_>
      <internalNodes>
        0 -1 317908 -2.7061710134148598e-03</internalNodes>
      <leafValues>
        -5.5970376729965210e-01 9.0915501117706299e-02</leafValues></_>
    <_>
      <internalNodes>
        0 -1 274177 7.7485647052526474e-03</internalNodes>
      <leafValues>
        -9.9753409624099731e-02 5.3832727670669556e-01</leafValues></_>
    <_>
      <internalNodes>
        0 -1 264142 -1.5058754943311214e-02</internalNodes>
      <leafValues>
        -6.3561207056045532e-01 8.8609635829925537e-02</leafValues></_>
    <_>
      <internalNodes>
        0 -1 316676 2.1437484771013260e-02</internalNodes>
      <leafValues>
        -1.3384445011615753e-01 4.0527123212814331e-01</leafValues></_>
    <_>
      <internalNodes>
        0 -1 292909 -7.8927446156740189e-03</internalNodes>
      <leafValues>
        2.7915498614311218e-01 -2.4055056273937225e-01</leafValues></_>
    <_>
      <internalNodes>
        0 -1 274261 2.5362238287925720e-02</internalNodes>
      <leafValues>
        6.5035551786422729e-02 -8.1921660900115967e-01</leafValues></_>
    <_>
      <internalNodes>
        0 -1 240046 1.1032794602215290e-02</internalNodes>
      <leafValues>
        7.4267022311687469e-02 -6.0142719745635986e-01</leafValues></_>
    <_>
      <internalNodes>
        0 -1 340369 -4.6280045062303543e-03</internalNodes>
      <leafValues>
        -7.7176135778427124e-01 5.1424037665128708e-02</leafValues></_>
    <_>
      <internalNodes>
        0 -1 325267 -1.6623716801404953e-02</internalNodes>
      <leafValues>
        -6.4259946346282959e-01 6.8638458847999573e-02</leafValues></_>
    <_>
      <internalNodes>
        0 -1 209766 4.7220706939697266e-02</internalNodes>
      <leafValues>
        4.6903382986783981e-02 -7.7552247047424316e-01</leafValues></_>
    <_>
      <internalNodes>
        0 -1 156826 -8.8449463248252869e-02</internalNodes>
      <leafValues>
        -6.0814261436462402e-01 6.4978204667568207e-02</leafValues></_>
    <_>
      <internalNodes>
        0 -1 274177 -9.5472307875752449e-03</internalNodes>
      <leafValues>
        6.0440087318420410e-01 -7.7346906065940857e-02</leafValues></_>
    <_>
      <internalNodes>
        0 -1 197972 1.7872932367026806e-03</internalNodes>
      <leafValues>
        -1.9622595608234406e-01 2.5611141324043274e-01</leafValues></_>
    <_>
      <internalNodes>
        0 -1 314232 -8.3275407087057829e-04</internalNodes>
      <leafValues>
        3.4634926915168762e-01 -1.4425353705883026e-01</leafValues></_>
    <_>
      <internalNodes>
        0 -1 159258 -1.4447947964072227e-02</internalNodes>
      <leafValues>
        3.3168455958366394e-01 -1.4366051554679871e-01</leafValues></_>
    <_>
      <internalNodes>
        0 -1 327925 -1.4089936390519142e-02</internalNodes>
      <leafValues>
        4.0120327472686768e-01 -1.4134664833545685e-01</leafValues></_>
    <_>
      <internalNodes>
        0 -1 348507 2.6298820739611983e-04</internalNodes>
      <leafValues>
        -1.6927669942378998e-01 3.3293145895004272e-01</leafValues></_>
    <_>
      <internalNodes>
        0 -1 348466 1.4665506314486265e-03</internalNodes>
      <leafValues>
        7.8016445040702820e-02 -6.6988039016723633e-01</leafValues></_></weakClassifiers></stage12>
</opencv_storage>
