<?xml version="1.0"?>
<opencv_storage>
<stage0>
  <maxWeakCount>8</maxWeakCount>
  <stageThreshold>-1.8219933509826660e+00</stageThreshold>
  <weakClassifiers>
    <_>
      <internalNodes>
        0 -1 32062 3.4275144338607788e-02</internalNodes>
      <leafValues>
        -6.1359345912933350e-01 8.5022330284118652e-01</leafValues></_>
    <_>
      <internalNodes>
        0 -1 49745 -1.0523374192416668e-02</internalNodes>
      <leafValues>
        6.5222579240798950e-01 -5.5613046884536743e-01</leafValues></_>
    <_>
      <internalNodes>
        0 -1 20062 1.1664664372801781e-02</internalNodes>
      <leafValues>
        -5.8119243383407593e-01 4.8972198367118835e-01</leafValues></_>
    <_>
      <internalNodes>
        0 -1 70523 -9.6521284431219101e-03</internalNodes>
      <leafValues>
        4.5256376266479492e-01 -4.7015604376792908e-01</leafValues></_>
    <_>
      <internalNodes>
        0 -1 48504 1.0411138646304607e-03</internalNodes>
      <leafValues>
        -4.1518303751945496e-01 4.6859347820281982e-01</leafValues></_>
    <_>
      <internalNodes>
        0 -1 40259 -1.3360662385821342e-02</internalNodes>
      <leafValues>
        4.4505032896995544e-01 -3.6376684904098511e-01</leafValues></_>
    <_>
      <internalNodes>
        0 -1 15712 2.3647155612707138e-02</internalNodes>
      <leafValues>
        -2.6256510615348816e-01 4.8423749208450317e-01</leafValues></_>
    <_>
      <internalNodes>
        0 -1 48258 4.5757084153592587e-03</internalNodes>
      <leafValues>
        -2.5199973583221436e-01 4.1753134131431580e-01</leafValues></_></weakClassifiers></stage0>
</opencv_storage>
