<?xml version="1.0"?>
<opencv_storage>
<stage6>
  <maxWeakCount>26</maxWeakCount>
  <stageThreshold>-1.0075255632400513e+00</stageThreshold>
  <weakClassifiers>
    <_>
      <internalNodes>
        0 -1 25866 4.8651903867721558e-02</internalNodes>
      <leafValues>
        -9.5684804022312164e-02 6.1321908235549927e-01</leafValues></_>
    <_>
      <internalNodes>
        0 -1 43914 2.0208273082971573e-02</internalNodes>
      <leafValues>
        -2.7025979757308960e-01 4.5117914676666260e-01</leafValues></_>
    <_>
      <internalNodes>
        0 -1 69203 4.0542960166931152e-02</internalNodes>
      <leafValues>
        -2.0390334725379944e-01 5.4035168886184692e-01</leafValues></_>
    <_>
      <internalNodes>
        0 -1 42951 -2.0408611744642258e-02</internalNodes>
      <leafValues>
        7.1629863977432251e-01 -1.6629722714424133e-01</leafValues></_>
    <_>
      <internalNodes>
        0 -1 54524 -2.5097585748881102e-03</internalNodes>
      <leafValues>
        4.5077922940254211e-01 -1.2875473499298096e-01</leafValues></_>
    <_>
      <internalNodes>
        0 -1 49147 -3.3023287542164326e-03</internalNodes>
      <leafValues>
        8.2124888896942139e-02 -6.0498386621475220e-01</leafValues></_>
    <_>
      <internalNodes>
        0 -1 48517 -9.9360861349850893e-04</internalNodes>
      <leafValues>
        1.7031924426555634e-01 -3.3633142709732056e-01</leafValues></_>
    <_>
      <internalNodes>
        0 -1 57962 -1.1153712403029203e-03</internalNodes>
      <leafValues>
        2.2496519982814789e-01 -2.9649424552917480e-01</leafValues></_>
    <_>
      <internalNodes>
        0 -1 42709 -4.1821252554655075e-02</internalNodes>
      <leafValues>
        -5.1708894968032837e-01 1.0245767980813980e-01</leafValues></_>
    <_>
      <internalNodes>
        0 -1 38592 1.4741826802492142e-02</internalNodes>
      <leafValues>
        -1.4473971724510193e-01 4.3320849537849426e-01</leafValues></_>
    <_>
      <internalNodes>
        0 -1 48854 -2.3482237011194229e-02</internalNodes>
      <leafValues>
        4.6547508239746094e-01 -1.5314039587974548e-01</leafValues></_>
    <_>
      <internalNodes>
        0 -1 56656 -1.8155740108340979e-03</internalNodes>
      <leafValues>
        2.7584657073020935e-01 -2.1184720098972321e-01</leafValues></_>
    <_>
      <internalNodes>
        0 -1 61627 4.1102571412920952e-03</internalNodes>
      <leafValues>
        7.0833444595336914e-02 -7.1417135000228882e-01</leafValues></_>
    <_>
      <internalNodes>
        0 -1 52950 1.8675523460842669e-04</internalNodes>
      <leafValues>
        1.0401313751935959e-01 -5.0388187170028687e-01</leafValues></_>
    <_>
      <internalNodes>
        0 -1 67958 5.1475688815116882e-03</internalNodes>
      <leafValues>
        7.9011797904968262e-02 -6.2688422203063965e-01</leafValues></_>
    <_>
      <internalNodes>
        0 -1 53925 4.1044104844331741e-02</internalNodes>
      <leafValues>
        -9.3332715332508087e-02 6.9046169519424438e-01</leafValues></_>
    <_>
      <internalNodes>
        0 -1 67966 5.7289371034130454e-04</internalNodes>
      <leafValues>
        -4.3511351943016052e-01 1.8967241048812866e-01</leafValues></_>
    <_>
      <internalNodes>
        0 -1 58243 8.8359722867608070e-03</internalNodes>
      <leafValues>
        -1.2322884052991867e-01 4.2953023314476013e-01</leafValues></_>
    <_>
      <internalNodes>
        0 -1 62066 3.7725856527686119e-03</internalNodes>
      <leafValues>
        -1.6841122508049011e-01 3.6209893226623535e-01</leafValues></_>
    <_>
      <internalNodes>
        0 -1 47668 2.7810875326395035e-02</internalNodes>
      <leafValues>
        9.6745945513248444e-02 -6.0599148273468018e-01</leafValues></_>
    <_>
      <internalNodes>
        0 -1 68228 6.4787128940224648e-03</internalNodes>
      <leafValues>
        5.7515587657690048e-02 -8.0563569068908691e-01</leafValues></_>
    <_>
      <internalNodes>
        0 -1 39559 1.5391544438898563e-03</internalNodes>
      <leafValues>
        -2.2110486030578613e-01 2.3658989369869232e-01</leafValues></_>
    <_>
      <internalNodes>
        0 -1 59166 -3.1289387494325638e-02</internalNodes>
      <leafValues>
        4.7661924362182617e-01 -1.1955527961254120e-01</leafValues></_>
    <_>
      <internalNodes>
        0 -1 42904 -1.6389769734814763e-03</internalNodes>
      <leafValues>
        -5.8903342485427856e-01 9.2743679881095886e-02</leafValues></_>
    <_>
      <internalNodes>
        0 -1 53683 -1.1571776121854782e-02</internalNodes>
      <leafValues>
        -7.1168184280395508e-01 6.2675043940544128e-02</leafValues></_>
    <_>
      <internalNodes>
        0 -1 73051 4.7931326553225517e-03</internalNodes>
      <leafValues>
        5.5858042091131210e-02 -7.6741445064544678e-01</leafValues></_></weakClassifiers></stage6>
</opencv_storage>
