<?xml version="1.0"?>
<opencv_storage>
<stage9>
  <maxWeakCount>29</maxWeakCount>
  <stageThreshold>-9.0375763177871704e-01</stageThreshold>
  <weakClassifiers>
    <_>
      <internalNodes>
        0 -1 26229 5.5993288755416870e-02</internalNodes>
      <leafValues>
        -4.8264183104038239e-02 6.3001972436904907e-01</leafValues></_>
    <_>
      <internalNodes>
        0 -1 72397 2.6663923636078835e-02</internalNodes>
      <leafValues>
        -1.5215648710727692e-01 5.2528607845306396e-01</leafValues></_>
    <_>
      <internalNodes>
        0 -1 69611 -1.1755209416151047e-03</internalNodes>
      <leafValues>
        2.5606083869934082e-01 -3.0151724815368652e-01</leafValues></_>
    <_>
      <internalNodes>
        0 -1 43234 -5.3835855796933174e-03</internalNodes>
      <leafValues>
        4.5653292536735535e-01 -1.5369848906993866e-01</leafValues></_>
    <_>
      <internalNodes>
        0 -1 76366 3.6298683844506741e-03</internalNodes>
      <leafValues>
        1.1689021438360214e-01 -4.5733997225761414e-01</leafValues></_>
    <_>
      <internalNodes>
        0 -1 26825 -9.2482082545757294e-03</internalNodes>
      <leafValues>
        6.0450196266174316e-01 -9.7477577626705170e-02</leafValues></_>
    <_>
      <internalNodes>
        0 -1 58377 5.9396168217062950e-04</internalNodes>
      <leafValues>
        -2.7142131328582764e-01 2.2623786330223083e-01</leafValues></_>
    <_>
      <internalNodes>
        0 -1 45108 -4.5307800173759460e-03</internalNodes>
      <leafValues>
        -5.1731950044631958e-01 1.1584719270467758e-01</leafValues></_>
    <_>
      <internalNodes>
        0 -1 48414 -1.8478538841009140e-02</internalNodes>
      <leafValues>
        -5.8331859111785889e-01 6.9852530956268311e-02</leafValues></_>
    <_>
      <internalNodes>
        0 -1 68255 9.9212778732180595e-03</internalNodes>
      <leafValues>
        4.8215825110673904e-02 -8.9698320627212524e-01</leafValues></_>
    <_>
      <internalNodes>
        0 -1 52523 2.7829728787764907e-04</internalNodes>
      <leafValues>
        1.0195281356573105e-01 -4.4388073682785034e-01</leafValues></_>
    <_>
      <internalNodes>
        0 -1 68242 -8.5946479812264442e-03</internalNodes>
      <leafValues>
        -6.3343799114227295e-01 6.1909656971693039e-02</leafValues></_>
    <_>
      <internalNodes>
        0 -1 70608 -1.8767740577459335e-02</internalNodes>
      <leafValues>
        6.2973028421401978e-01 -8.1586048007011414e-02</leafValues></_>
    <_>
      <internalNodes>
        0 -1 70575 3.8248794153332710e-03</internalNodes>
      <leafValues>
        -2.1801777184009552e-01 2.9101389646530151e-01</leafValues></_>
    <_>
      <internalNodes>
        0 -1 54365 -1.5317778103053570e-02</internalNodes>
      <leafValues>
        -4.4860941171646118e-01 1.1320675164461136e-01</leafValues></_>
    <_>
      <internalNodes>
        0 -1 67712 -7.1277935057878494e-03</internalNodes>
      <leafValues>
        -6.2025111913681030e-01 6.6204339265823364e-02</leafValues></_>
    <_>
      <internalNodes>
        0 -1 70444 -4.3401224538683891e-03</internalNodes>
      <leafValues>
        -7.2535765171051025e-01 6.2250897288322449e-02</leafValues></_>
    <_>
      <internalNodes>
        0 -1 57153 -1.2072918470948935e-03</internalNodes>
      <leafValues>
        2.3259010910987854e-01 -2.2266332805156708e-01</leafValues></_>
    <_>
      <internalNodes>
        0 -1 48621 -3.2451689243316650e-02</internalNodes>
      <leafValues>
        4.0959376096725464e-01 -1.5126153826713562e-01</leafValues></_>
    <_>
      <internalNodes>
        0 -1 68453 -1.8159799510613084e-03</internalNodes>
      <leafValues>
        2.8152054548263550e-01 -2.2956915199756622e-01</leafValues></_>
    <_>
      <internalNodes>
        0 -1 53223 -1.3423366472125053e-02</internalNodes>
      <leafValues>
        -5.3135657310485840e-01 8.8834159076213837e-02</leafValues></_>
    <_>
      <internalNodes>
        0 -1 54338 -5.2881827577948570e-03</internalNodes>
      <leafValues>
        3.5812002420425415e-01 -1.3011142611503601e-01</leafValues></_>
    <_>
      <internalNodes>
        0 -1 58353 -5.3115561604499817e-03</internalNodes>
      <leafValues>
        4.0850266814231873e-01 -1.5860860049724579e-01</leafValues></_>
    <_>
      <internalNodes>
        0 -1 62067 -8.8611971586942673e-03</internalNodes>
      <leafValues>
        4.2587086558341980e-01 -1.2266459316015244e-01</leafValues></_>
    <_>
      <internalNodes>
        0 -1 54222 -2.2193571552634239e-02</internalNodes>
      <leafValues>
        -5.3782141208648682e-01 9.9816456437110901e-02</leafValues></_>
    <_>
      <internalNodes>
        0 -1 53678 3.3385616261512041e-03</internalNodes>
      <leafValues>
        5.0819806754589081e-02 -6.9302487373352051e-01</leafValues></_>
    <_>
      <internalNodes>
        0 -1 33435 3.4314710646867752e-03</internalNodes>
      <leafValues>
        -1.1093874275684357e-01 3.8698059320449829e-01</leafValues></_>
    <_>
      <internalNodes>
        0 -1 33653 2.1504025906324387e-02</internalNodes>
      <leafValues>
        8.0947712063789368e-02 -5.5328965187072754e-01</leafValues></_>
    <_>
      <internalNodes>
        0 -1 68103 4.9216290935873985e-03</internalNodes>
      <leafValues>
        5.7790108025074005e-02 -6.8643450736999512e-01</leafValues></_></weakClassifiers></stage9>
</opencv_storage>
