<?xml version="1.0"?>
<opencv_storage>
<stage6>
  <maxWeakCount>29</maxWeakCount>
  <stageThreshold>-8.9151316881179810e-01</stageThreshold>
  <weakClassifiers>
    <_>
      <internalNodes>
        0 -1 61299 3.0291574075818062e-02</internalNodes>
      <leafValues>
        -6.1769615858793259e-02 6.4846873283386230e-01</leafValues></_>
    <_>
      <internalNodes>
        0 -1 42226 2.1381739526987076e-02</internalNodes>
      <leafValues>
        -1.6963407397270203e-01 5.5699801445007324e-01</leafValues></_>
    <_>
      <internalNodes>
        0 -1 27718 -3.4347796463407576e-04</internalNodes>
      <leafValues>
        -4.1558629274368286e-01 2.2874009609222412e-01</leafValues></_>
    <_>
      <internalNodes>
        0 -1 56698 -2.8717734385281801e-03</internalNodes>
      <leafValues>
        1.7100811004638672e-01 -4.7685921192169189e-01</leafValues></_>
    <_>
      <internalNodes>
        0 -1 47518 -1.2960866093635559e-02</internalNodes>
      <leafValues>
        -5.7481598854064941e-01 1.5000550448894501e-01</leafValues></_>
    <_>
      <internalNodes>
        0 -1 44879 -9.8696863278746605e-03</internalNodes>
      <leafValues>
        1.5509580075740814e-01 -3.3460599184036255e-01</leafValues></_>
    <_>
      <internalNodes>
        0 -1 49246 -1.6931589692831039e-02</internalNodes>
      <leafValues>
        5.1290041208267212e-01 -9.9031873047351837e-02</leafValues></_>
    <_>
      <internalNodes>
        0 -1 61968 2.3006796836853027e-02</internalNodes>
      <leafValues>
        9.5903128385543823e-02 -6.1098480224609375e-01</leafValues></_>
    <_>
      <internalNodes>
        0 -1 58134 -1.3796766288578510e-02</internalNodes>
      <leafValues>
        -7.3255270719528198e-01 5.9711635112762451e-02</leafValues></_>
    <_>
      <internalNodes>
        0 -1 11253 -3.3170185051858425e-03</internalNodes>
      <leafValues>
        -6.4957159757614136e-01 7.0972755551338196e-02</leafValues></_>
    <_>
      <internalNodes>
        0 -1 70442 5.4098077816888690e-04</internalNodes>
      <leafValues>
        -2.2224397957324982e-01 2.4303558468818665e-01</leafValues></_>
    <_>
      <internalNodes>
        0 -1 56658 1.0154915973544121e-02</internalNodes>
      <leafValues>
        6.0843300074338913e-02 -6.4949005842208862e-01</leafValues></_>
    <_>
      <internalNodes>
        0 -1 58114 8.1340074539184570e-03</internalNodes>
      <leafValues>
        -1.2892426550388336e-01 4.2724129557609558e-01</leafValues></_>
    <_>
      <internalNodes>
        0 -1 54054 7.7685313299298286e-03</internalNodes>
      <leafValues>
        -1.3904434442520142e-01 4.9110689759254456e-01</leafValues></_>
    <_>
      <internalNodes>
        0 -1 60798 -2.1883938461542130e-03</internalNodes>
      <leafValues>
        1.9281823933124542e-01 -2.7690172195434570e-01</leafValues></_>
    <_>
      <internalNodes>
        0 -1 48233 -1.1907443404197693e-02</internalNodes>
      <leafValues>
        -8.6068338155746460e-01 5.2894249558448792e-02</leafValues></_>
    <_>
      <internalNodes>
        0 -1 48502 -1.0157400975003839e-03</internalNodes>
      <leafValues>
        2.6231735944747925e-01 -1.6695100069046021e-01</leafValues></_>
    <_>
      <internalNodes>
        0 -1 41814 1.1953664943575859e-02</internalNodes>
      <leafValues>
        -1.2117449194192886e-01 3.8157060742378235e-01</leafValues></_>
    <_>
      <internalNodes>
        0 -1 48625 2.3797865957021713e-02</internalNodes>
      <leafValues>
        7.9884976148605347e-02 -6.3782429695129395e-01</leafValues></_>
    <_>
      <internalNodes>
        0 -1 52946 3.5521970130503178e-03</internalNodes>
      <leafValues>
        6.7193143069744110e-02 -5.9499371051788330e-01</leafValues></_>
    <_>
      <internalNodes>
        0 -1 49527 2.7523583266884089e-03</internalNodes>
      <leafValues>
        -1.8932625651359558e-01 2.9148089885711670e-01</leafValues></_>
    <_>
      <internalNodes>
        0 -1 39357 1.9920542836189270e-02</internalNodes>
      <leafValues>
        6.0691408812999725e-02 -7.7001273632049561e-01</leafValues></_>
    <_>
      <internalNodes>
        0 -1 44066 1.6232895432040095e-03</internalNodes>
      <leafValues>
        -1.8078713119029999e-01 2.3247954249382019e-01</leafValues></_>
    <_>
      <internalNodes>
        0 -1 53452 -1.3696851208806038e-02</internalNodes>
      <leafValues>
        -7.7725917100906372e-01 5.2412535995244980e-02</leafValues></_>
    <_>
      <internalNodes>
        0 -1 57441 4.2159385979175568e-02</internalNodes>
      <leafValues>
        -9.9656186997890472e-02 5.3867918252944946e-01</leafValues></_>
    <_>
      <internalNodes>
        0 -1 33248 1.7490431666374207e-02</internalNodes>
      <leafValues>
        -7.5152441859245300e-02 5.6400781869888306e-01</leafValues></_>
    <_>
      <internalNodes>
        0 -1 13676 3.8029551506042480e-03</internalNodes>
      <leafValues>
        -2.3310816287994385e-01 2.0727205276489258e-01</leafValues></_>
    <_>
      <internalNodes>
        0 -1 16686 -4.3675822019577026e-01</internalNodes>
      <leafValues>
        3.9022040367126465e-01 -1.0870063304901123e-01</leafValues></_>
    <_>
      <internalNodes>
        0 -1 67055 -1.4239459298551083e-02</internalNodes>
      <leafValues>
        -5.3438544273376465e-01 9.2196188867092133e-02</leafValues></_></weakClassifiers></stage6>
</opencv_storage>
