<?xml version="1.0"?>
<opencv_storage>
<stage19>
  <maxWeakCount>100</maxWeakCount>
  <stageThreshold>-9.8594808578491211e-01</stageThreshold>
  <weakClassifiers>
    <_>
      <internalNodes>
        0 -1 60372 5.0232809036970139e-02</internalNodes>
      <leafValues>
        1.6591928899288177e-01 6.1164361238479614e-01</leafValues></_>
    <_>
      <internalNodes>
        0 -1 46142 7.6568767428398132e-02</internalNodes>
      <leafValues>
        -1.0841933637857437e-01 3.4203523397445679e-01</leafValues></_>
    <_>
      <internalNodes>
        0 -1 32708 4.2207814753055573e-02</internalNodes>
      <leafValues>
        -8.8284566998481750e-02 3.1594294309616089e-01</leafValues></_>
    <_>
      <internalNodes>
        0 -1 38498 -3.1485844403505325e-02</internalNodes>
      <leafValues>
        2.6852419972419739e-01 -1.6118820011615753e-01</leafValues></_>
    <_>
      <internalNodes>
        0 -1 4634 5.7883094996213913e-02</internalNodes>
      <leafValues>
        -1.9561849534511566e-01 9.8483636975288391e-02</leafValues></_>
    <_>
      <internalNodes>
        0 -1 68052 2.2270034998655319e-02</internalNodes>
      <leafValues>
        -6.0714870691299438e-02 2.8456431627273560e-01</leafValues></_>
    <_>
      <internalNodes>
        0 -1 42476 5.9044666588306427e-02</internalNodes>
      <leafValues>
        5.3065504878759384e-02 -2.9675978422164917e-01</leafValues></_>
    <_>
      <internalNodes>
        0 -1 67498 3.6005206406116486e-02</internalNodes>
      <leafValues>
        -1.9696766510605812e-02 6.8989163637161255e-01</leafValues></_>
    <_>
      <internalNodes>
        0 -1 43915 2.1379996091127396e-02</internalNodes>
      <leafValues>
        -6.4896866679191589e-02 2.2819530963897705e-01</leafValues></_>
    <_>
      <internalNodes>
        0 -1 49856 -1.6229504253715277e-03</internalNodes>
      <leafValues>
        1.8887937068939209e-01 -8.4116742014884949e-02</leafValues></_>
    <_>
      <internalNodes>
        0 -1 58281 3.1454958021640778e-02</internalNodes>
      <leafValues>
        3.4330181777477264e-02 -4.6186843514442444e-01</leafValues></_>
    <_>
      <internalNodes>
        0 -1 64839 1.9017424434423447e-02</internalNodes>
      <leafValues>
        -7.3506712913513184e-02 1.9471560418605804e-01</leafValues></_>
    <_>
      <internalNodes>
        0 -1 67844 -7.8658265992999077e-03</internalNodes>
      <leafValues>
        -6.0826164484024048e-01 2.5713203474879265e-02</leafValues></_>
    <_>
      <internalNodes>
        0 -1 57952 -1.8471857765689492e-04</internalNodes>
      <leafValues>
        7.3623701930046082e-02 -1.9467653334140778e-01</leafValues></_>
    <_>
      <internalNodes>
        0 -1 67673 -6.5362295135855675e-03</internalNodes>
      <leafValues>
        -5.2539062500000000e-01 2.4643873795866966e-02</leafValues></_>
    <_>
      <internalNodes>
        0 -1 42229 -3.3612255007028580e-02</internalNodes>
      <leafValues>
        2.3431420326232910e-01 -5.6743271648883820e-02</leafValues></_>
    <_>
      <internalNodes>
        0 -1 48756 -1.0270096361637115e-02</internalNodes>
      <leafValues>
        -5.3478401899337769e-01 2.2953569889068604e-02</leafValues></_>
    <_>
      <internalNodes>
        0 -1 64412 -6.0651311650872231e-03</internalNodes>
      <leafValues>
        -3.4460836648941040e-01 3.5465087741613388e-02</leafValues></_>
    <_>
      <internalNodes>
        0 -1 58240 9.0735554695129395e-03</internalNodes>
      <leafValues>
        -4.7710448503494263e-02 2.5791808962821960e-01</leafValues></_>
    <_>
      <internalNodes>
        0 -1 61791 3.6750844446942210e-04</internalNodes>
      <leafValues>
        -1.0850772261619568e-01 1.2284055352210999e-01</leafValues></_>
    <_>
      <internalNodes>
        0 -1 49186 4.2615871643647552e-04</internalNodes>
      <leafValues>
        -7.0123516023159027e-02 1.8545490503311157e-01</leafValues></_>
    <_>
      <internalNodes>
        0 -1 48521 -4.8421677201986313e-03</internalNodes>
      <leafValues>
        1.5236964821815491e-01 -8.4061242640018463e-02</leafValues></_>
    <_>
      <internalNodes>
        0 -1 49187 4.9995130393654108e-04</internalNodes>
      <leafValues>
        -1.3348951935768127e-01 1.0580404847860336e-01</leafValues></_>
    <_>
      <internalNodes>
        0 -1 43694 4.7741055488586426e-02</internalNodes>
      <leafValues>
        3.3814880996942520e-02 -3.9844477176666260e-01</leafValues></_>
    <_>
      <internalNodes>
        0 -1 58258 -1.2643998488783836e-02</internalNodes>
      <leafValues>
        -3.5099151730537415e-01 3.5636726766824722e-02</leafValues></_>
    <_>
      <internalNodes>
        0 -1 32486 2.1337039768695831e-02</internalNodes>
      <leafValues>
        9.6262015402317047e-02 -1.4691051840782166e-01</leafValues></_>
    <_>
      <internalNodes>
        0 -1 54204 2.5217537768185139e-03</internalNodes>
      <leafValues>
        -7.2981141507625580e-02 1.7426732182502747e-01</leafValues></_>
    <_>
      <internalNodes>
        0 -1 27996 9.7106005996465683e-03</internalNodes>
      <leafValues>
        3.7293080240488052e-02 -3.5444173216819763e-01</leafValues></_>
    <_>
      <internalNodes>
        0 -1 49537 7.6568829827010632e-03</internalNodes>
      <leafValues>
        -6.5489955246448517e-02 1.9148796796798706e-01</leafValues></_>
    <_>
      <internalNodes>
        0 -1 53217 2.4709743447601795e-03</internalNodes>
      <leafValues>
        5.7440157979726791e-02 -2.3261016607284546e-01</leafValues></_>
    <_>
      <internalNodes>
        0 -1 53292 -2.3474402725696564e-02</internalNodes>
      <leafValues>
        -2.9315990209579468e-01 4.6424228698015213e-02</leafValues></_>
    <_>
      <internalNodes>
        0 -1 49701 -3.1497430056333542e-02</internalNodes>
      <leafValues>
        -8.1658953428268433e-01 1.2920662760734558e-02</leafValues></_>
    <_>
      <internalNodes>
        0 -1 70154 2.6211314834654331e-03</internalNodes>
      <leafValues>
        -1.0773225128650665e-01 1.2086388468742371e-01</leafValues></_>
    <_>
      <internalNodes>
        0 -1 70700 1.5551753342151642e-02</internalNodes>
      <leafValues>
        2.2521721199154854e-02 -5.3860217332839966e-01</leafValues></_>
    <_>
      <internalNodes>
        0 -1 44490 -1.9284512382000685e-03</internalNodes>
      <leafValues>
        1.7465117573738098e-01 -7.1348480880260468e-02</leafValues></_>
    <_>
      <internalNodes>
        0 -1 39017 -4.2806002311408520e-03</internalNodes>
      <leafValues>
        1.6155970096588135e-01 -8.6441136896610260e-02</leafValues></_>
    <_>
      <internalNodes>
        0 -1 38819 2.1859040483832359e-02</internalNodes>
      <leafValues>
        -6.3793659210205078e-02 2.3262278735637665e-01</leafValues></_>
    <_>
      <internalNodes>
        0 -1 48258 6.0128811746835709e-03</internalNodes>
      <leafValues>
        -6.6747479140758514e-02 1.8659044802188873e-01</leafValues></_>
    <_>
      <internalNodes>
        0 -1 59956 -3.1128907203674316e-01</internalNodes>
      <leafValues>
        4.6554917097091675e-01 -2.8879219666123390e-02</leafValues></_>
    <_>
      <internalNodes>
        0 -1 68453 -3.2408181577920914e-03</internalNodes>
      <leafValues>
        1.9164434075355530e-01 -6.1994411051273346e-02</leafValues></_>
    <_>
      <internalNodes>
        0 -1 54161 8.6177513003349304e-03</internalNodes>
      <leafValues>
        5.6621689349412918e-02 -2.5456255674362183e-01</leafValues></_>
    <_>
      <internalNodes>
        0 -1 58966 1.2479304568842053e-03</internalNodes>
      <leafValues>
        -6.2079984694719315e-02 1.9755597412586212e-01</leafValues></_>
    <_>
      <internalNodes>
        0 -1 73154 1.0330564342439175e-02</internalNodes>
      <leafValues>
        2.3680906742811203e-02 -5.3944993019104004e-01</leafValues></_>
    <_>
      <internalNodes>
        0 -1 65666 -1.0371553944423795e-03</internalNodes>
      <leafValues>
        1.2961865961551666e-01 -8.9717127382755280e-02</leafValues></_>
    <_>
      <internalNodes>
        0 -1 67716 3.4860029816627502e-02</internalNodes>
      <leafValues>
        -3.3693905919790268e-02 3.6634474992752075e-01</leafValues></_>
    <_>
      <internalNodes>
        0 -1 49703 4.4685378670692444e-02</internalNodes>
      <leafValues>
        2.1852448582649231e-02 -5.6509864330291748e-01</leafValues></_>
    <_>
      <internalNodes>
        0 -1 44658 4.2253965511918068e-04</internalNodes>
      <leafValues>
        -9.1330148279666901e-02 1.2388412654399872e-01</leafValues></_>
    <_>
      <internalNodes>
        0 -1 43587 -3.0113723129034042e-02</internalNodes>
      <leafValues>
        -4.2777577042579651e-01 2.8032718226313591e-02</leafValues></_>
    <_>
      <internalNodes>
        0 -1 27116 -2.9941353946924210e-02</internalNodes>
      <leafValues>
        2.8180712461471558e-01 -4.1165944188833237e-02</leafValues></_>
    <_>
      <internalNodes>
        0 -1 58014 5.5067241191864014e-03</internalNodes>
      <leafValues>
        1.0788694024085999e-01 -1.2467287480831146e-01</leafValues></_>
    <_>
      <internalNodes>
        0 -1 64398 2.5016665458679199e-02</internalNodes>
      <leafValues>
        -1.2734210491180420e-01 1.2741552293300629e-01</leafValues></_>
    <_>
      <internalNodes>
        0 -1 48758 9.7257401794195175e-03</internalNodes>
      <leafValues>
        4.3752387166023254e-02 -2.6846534013748169e-01</leafValues></_>
    <_>
      <internalNodes>
        0 -1 67043 -1.3941002544015646e-03</internalNodes>
      <leafValues>
        1.3458563387393951e-01 -9.4408363103866577e-02</leafValues></_>
    <_>
      <internalNodes>
        0 -1 67248 2.9668728820979595e-03</internalNodes>
      <leafValues>
        3.0141202732920647e-02 -4.4046315550804138e-01</leafValues></_>
    <_>
      <internalNodes>
        0 -1 12390 -6.6985078155994415e-02</internalNodes>
      <leafValues>
        -3.2226085662841797e-01 3.5687085241079330e-02</leafValues></_>
    <_>
      <internalNodes>
        0 -1 57042 4.2834799736738205e-02</internalNodes>
      <leafValues>
        2.6545306667685509e-02 -4.4064348936080933e-01</leafValues></_>
    <_>
      <internalNodes>
        0 -1 56691 -3.4737880341708660e-03</internalNodes>
      <leafValues>
        1.6538062691688538e-01 -7.0921041071414948e-02</leafValues></_>
    <_>
      <internalNodes>
        0 -1 42773 7.8670963644981384e-02</internalNodes>
      <leafValues>
        4.1870769113302231e-02 -2.8764253854751587e-01</leafValues></_>
    <_>
      <internalNodes>
        0 -1 53222 4.5734737068414688e-03</internalNodes>
      <leafValues>
        2.7423713356256485e-02 -4.0263155102729797e-01</leafValues></_>
    <_>
      <internalNodes>
        0 -1 67341 -3.5664043389260769e-03</internalNodes>
      <leafValues>
        -2.5367930531501770e-01 4.3771274387836456e-02</leafValues></_>
    <_>
      <internalNodes>
        0 -1 33253 3.8540013134479523e-02</internalNodes>
      <leafValues>
        -5.0736099481582642e-02 2.2145088016986847e-01</leafValues></_>
    <_>
      <internalNodes>
        0 -1 38421 1.1344910599291325e-03</internalNodes>
      <leafValues>
        -8.8285848498344421e-02 1.7105232179164886e-01</leafValues></_>
    <_>
      <internalNodes>
        0 -1 43576 -6.4839003607630730e-03</internalNodes>
      <leafValues>
        2.5642374157905579e-01 -4.7128360718488693e-02</leafValues></_>
    <_>
      <internalNodes>
        0 -1 20327 6.4179890614468604e-05</internalNodes>
      <leafValues>
        -1.0701192170381546e-01 1.1293453723192215e-01</leafValues></_>
    <_>
      <internalNodes>
        0 -1 37879 3.2290153205394745e-02</internalNodes>
      <leafValues>
        1.7682434991002083e-02 -6.7821478843688965e-01</leafValues></_>
    <_>
      <internalNodes>
        0 -1 64327 -7.9407775774598122e-04</internalNodes>
      <leafValues>
        1.5763150155544281e-01 -8.6096689105033875e-02</leafValues></_>
    <_>
      <internalNodes>
        0 -1 48502 2.2456164006143808e-03</internalNodes>
      <leafValues>
        -6.2468152493238449e-02 1.9894683361053467e-01</leafValues></_>
    <_>
      <internalNodes>
        0 -1 44399 2.9934156686067581e-02</internalNodes>
      <leafValues>
        -4.9028251320123672e-02 2.3440244793891907e-01</leafValues></_>
    <_>
      <internalNodes>
        0 -1 54272 1.5244461596012115e-02</internalNodes>
      <leafValues>
        4.0305864065885544e-02 -3.6702561378479004e-01</leafValues></_>
    <_>
      <internalNodes>
        0 -1 49552 1.0133135132491589e-02</internalNodes>
      <leafValues>
        5.6524645537137985e-02 -2.1776166558265686e-01</leafValues></_>
    <_>
      <internalNodes>
        0 -1 34708 -4.9175275489687920e-03</internalNodes>
      <leafValues>
        1.4279633760452271e-01 -8.2903206348419189e-02</leafValues></_>
    <_>
      <internalNodes>
        0 -1 38696 1.4778075274080038e-03</internalNodes>
      <leafValues>
        -5.8881144970655441e-02 1.9650684297084808e-01</leafValues></_>
    <_>
      <internalNodes>
        0 -1 20023 1.0611027479171753e-02</internalNodes>
      <leafValues>
        4.2318042367696762e-02 -3.4941110014915466e-01</leafValues></_>
    <_>
      <internalNodes>
        0 -1 76936 1.9867233932018280e-03</internalNodes>
      <leafValues>
        3.8479451090097427e-02 -2.9753819108009338e-01</leafValues></_>
    <_>
      <internalNodes>
        0 -1 61320 -7.6779210940003395e-03</internalNodes>
      <leafValues>
        -2.9549065232276917e-01 3.9521768689155579e-02</leafValues></_>
    <_>
      <internalNodes>
        0 -1 29693 -2.2693339735269547e-02</internalNodes>
      <leafValues>
        4.8791578412055969e-01 -2.4880271404981613e-02</leafValues></_>
    <_>
      <internalNodes>
        0 -1 73156 -3.6377331707626581e-03</internalNodes>
      <leafValues>
        2.4683311581611633e-01 -4.3511748313903809e-02</leafValues></_>
    <_>
      <internalNodes>
        0 -1 55964 -7.9139351844787598e-02</internalNodes>
      <leafValues>
        1.2038806080818176e-01 -9.5942325890064240e-02</leafValues></_>
    <_>
      <internalNodes>
        0 -1 39159 -9.3145929276943207e-03</internalNodes>
      <leafValues>
        4.8325866460800171e-01 -2.6057677343487740e-02</leafValues></_>
    <_>
      <internalNodes>
        0 -1 52740 6.4206197857856750e-02</internalNodes>
      <leafValues>
        2.4299550801515579e-02 -5.0450289249420166e-01</leafValues></_>
    <_>
      <internalNodes>
        0 -1 40973 2.0005665719509125e-02</internalNodes>
      <leafValues>
        2.4083251133561134e-02 -4.2136389017105103e-01</leafValues></_>
    <_>
      <internalNodes>
        0 -1 2725 8.7796885054558516e-04</internalNodes>
      <leafValues>
        5.2689511328935623e-02 -1.9996319711208344e-01</leafValues></_>
    <_>
      <internalNodes>
        0 -1 56691 8.0133276060223579e-03</internalNodes>
      <leafValues>
        -2.9477981850504875e-02 3.9449146389961243e-01</leafValues></_>
    <_>
      <internalNodes>
        0 -1 39066 -2.3866595700383186e-02</internalNodes>
      <leafValues>
        -4.9750602245330811e-01 2.5536321103572845e-02</leafValues></_>
    <_>
      <internalNodes>
        0 -1 58020 1.0119398124516010e-02</internalNodes>
      <leafValues>
        1.0956845432519913e-01 -9.8912209272384644e-02</leafValues></_>
    <_>
      <internalNodes>
        0 -1 33256 4.9256822094321251e-03</internalNodes>
      <leafValues>
        1.1548636853694916e-01 -1.1051434278488159e-01</leafValues></_>
    <_>
      <internalNodes>
        0 -1 49246 1.9391221925616264e-02</internalNodes>
      <leafValues>
        -5.8101948350667953e-02 2.1601313352584839e-01</leafValues></_>
    <_>
      <internalNodes>
        0 -1 70830 1.9205752760171890e-02</internalNodes>
      <leafValues>
        2.0559556782245636e-02 -6.7202436923980713e-01</leafValues></_>
    <_>
      <internalNodes>
        0 -1 43539 1.3227064628154039e-03</internalNodes>
      <leafValues>
        -1.2210901826620102e-01 9.3767590820789337e-02</leafValues></_>
    <_>
      <internalNodes>
        0 -1 68447 5.5226897820830345e-03</internalNodes>
      <leafValues>
        -6.7851208150386810e-02 1.8235802650451660e-01</leafValues></_>
    <_>
      <internalNodes>
        0 -1 68238 1.9032370299100876e-02</internalNodes>
      <leafValues>
        1.8042854964733124e-02 -7.1997714042663574e-01</leafValues></_>
    <_>
      <internalNodes>
        0 -1 38940 -5.2219391800463200e-03</internalNodes>
      <leafValues>
        4.2046532034873962e-01 -2.7927540242671967e-02</leafValues></_>
    <_>
      <internalNodes>
        0 -1 54646 4.0875705890357494e-03</internalNodes>
      <leafValues>
        5.6486625224351883e-02 -2.0111714303493500e-01</leafValues></_>
    <_>
      <internalNodes>
        0 -1 52346 -1.6172356903553009e-02</internalNodes>
      <leafValues>
        -6.4152389764785767e-01 1.7154686152935028e-02</leafValues></_>
    <_>
      <internalNodes>
        0 -1 45350 -4.7911040484905243e-02</internalNodes>
      <leafValues>
        8.2205611467361450e-01 -1.6615025699138641e-02</leafValues></_>
    <_>
      <internalNodes>
        0 -1 73331 1.0145829990506172e-02</internalNodes>
      <leafValues>
        3.3761143684387207e-02 -3.6180976033210754e-01</leafValues></_>
    <_>
      <internalNodes>
        0 -1 49983 -2.0133624784648418e-03</internalNodes>
      <leafValues>
        -1.5998136997222900e-01 6.9007955491542816e-02</leafValues></_>
    <_>
      <internalNodes>
        0 -1 64195 6.7949932999908924e-03</internalNodes>
      <leafValues>
        3.6867585033178329e-02 -2.8507208824157715e-01</leafValues></_>
    <_>
      <internalNodes>
        0 -1 63606 1.0075904428958893e-02</internalNodes>
      <leafValues>
        -5.4053787142038345e-02 2.1810279786586761e-01</leafValues></_>
    <_>
      <internalNodes>
        0 -1 66805 4.5824949629604816e-03</internalNodes>
      <leafValues>
        2.5477897375822067e-02 -4.1963943839073181e-01</leafValues></_></weakClassifiers></stage19>
</opencv_storage>
