<?xml version="1.0"?>
<opencv_storage>
<stage0>
  <maxWeakCount>6</maxWeakCount>
  <stageThreshold>-1.2271836996078491e+00</stageThreshold>
  <weakClassifiers>
    <_>
      <internalNodes>
        0 -1 278298 8.7276594713330269e-03</internalNodes>
      <leafValues>
        -6.9580841064453125e-01 7.9410189390182495e-01</leafValues></_>
    <_>
      <internalNodes>
        0 -1 134932 1.8801778554916382e-02</internalNodes>
      <leafValues>
        -5.1708924770355225e-01 6.7343479394912720e-01</leafValues></_>
    <_>
      <internalNodes>
        0 -1 249622 -8.9672533795237541e-03</internalNodes>
      <leafValues>
        5.1387774944305420e-01 -6.6396760940551758e-01</leafValues></_>
    <_>
      <internalNodes>
        0 -1 299481 1.1499473825097084e-02</internalNodes>
      <leafValues>
        -4.5183587074279785e-01 5.1232266426086426e-01</leafValues></_>
    <_>
      <internalNodes>
        0 -1 230992 -3.6130701191723347e-03</internalNodes>
      <leafValues>
        4.8718139529228210e-01 -3.2340863347053528e-01</leafValues></_>
    <_>
      <internalNodes>
        0 -1 215081 -5.9985690750181675e-03</internalNodes>
      <leafValues>
        4.7771543264389038e-01 -3.4982258081436157e-01</leafValues></_></weakClassifiers></stage0>
</opencv_storage>
