<?xml version="1.0"?>
<opencv_storage>
<stage17>
  <maxWeakCount>100</maxWeakCount>
  <stageThreshold>-8.6968761682510376e-01</stageThreshold>
  <weakClassifiers>
    <_>
      <internalNodes>
        0 -1 52994 -2.4273429065942764e-02</internalNodes>
      <leafValues>
        5.4247003793716431e-01 1.1414527893066406e-01</leafValues></_>
    <_>
      <internalNodes>
        0 -1 25148 5.2750401198863983e-02</internalNodes>
      <leafValues>
        -2.0947249233722687e-01 2.3023155331611633e-01</leafValues></_>
    <_>
      <internalNodes>
        0 -1 43885 -4.4798329472541809e-02</internalNodes>
      <leafValues>
        2.1995398402214050e-01 -1.6401576995849609e-01</leafValues></_>
    <_>
      <internalNodes>
        0 -1 39703 -9.2077255249023438e-03</internalNodes>
      <leafValues>
        1.9947130978107452e-01 -1.4150698482990265e-01</leafValues></_>
    <_>
      <internalNodes>
        0 -1 48502 -1.5689323190599680e-03</internalNodes>
      <leafValues>
        2.2000737488269806e-01 -1.4105267822742462e-01</leafValues></_>
    <_>
      <internalNodes>
        0 -1 67102 4.2439438402652740e-02</internalNodes>
      <leafValues>
        -5.8001201599836349e-02 4.8779267072677612e-01</leafValues></_>
    <_>
      <internalNodes>
        0 -1 43912 7.4041364714503288e-03</internalNodes>
      <leafValues>
        -6.9774568080902100e-02 2.4488389492034912e-01</leafValues></_>
    <_>
      <internalNodes>
        0 -1 58868 1.0819946415722370e-02</internalNodes>
      <leafValues>
        8.5011593997478485e-02 -2.2159066796302795e-01</leafValues></_>
    <_>
      <internalNodes>
        0 -1 42774 9.2351354658603668e-02</internalNodes>
      <leafValues>
        4.8564501106739044e-02 -5.5823022127151489e-01</leafValues></_>
    <_>
      <internalNodes>
        0 -1 53218 9.0170372277498245e-03</internalNodes>
      <leafValues>
        3.6674849689006805e-02 -4.6509215235710144e-01</leafValues></_>
    <_>
      <internalNodes>
        0 -1 48216 4.6512810513377190e-04</internalNodes>
      <leafValues>
        -1.8485929071903229e-01 8.0266594886779785e-02</leafValues></_>
    <_>
      <internalNodes>
        0 -1 33558 -2.7502598240971565e-02</internalNodes>
      <leafValues>
        2.2689706087112427e-01 -7.0738315582275391e-02</leafValues></_>
    <_>
      <internalNodes>
        0 -1 67960 -3.4951588604599237e-03</internalNodes>
      <leafValues>
        -5.7801491022109985e-01 2.5956656783819199e-02</leafValues></_>
    <_>
      <internalNodes>
        0 -1 48122 9.1263586655259132e-03</internalNodes>
      <leafValues>
        4.5036621391773224e-02 -3.2266953587532043e-01</leafValues></_>
    <_>
      <internalNodes>
        0 -1 20089 -2.2330429404973984e-02</internalNodes>
      <leafValues>
        2.5076249241828918e-01 -6.0637123882770538e-02</leafValues></_>
    <_>
      <internalNodes>
        0 -1 67852 -1.1956585571169853e-02</internalNodes>
      <leafValues>
        1.9617235660552979e-01 -8.4271721541881561e-02</leafValues></_>
    <_>
      <internalNodes>
        0 -1 68101 4.4669874478131533e-04</internalNodes>
      <leafValues>
        -1.3020172715187073e-01 1.4091414213180542e-01</leafValues></_>
    <_>
      <internalNodes>
        0 -1 6758 2.4417828768491745e-02</internalNodes>
      <leafValues>
        -1.2577080726623535e-01 1.3077671825885773e-01</leafValues></_>
    <_>
      <internalNodes>
        0 -1 54368 -2.5237124413251877e-02</internalNodes>
      <leafValues>
        -3.7146675586700439e-01 3.9724677801132202e-02</leafValues></_>
    <_>
      <internalNodes>
        0 -1 49406 -3.4049034118652344e-02</internalNodes>
      <leafValues>
        -4.4831266999244690e-01 3.4648478031158447e-02</leafValues></_>
    <_>
      <internalNodes>
        0 -1 57443 2.6949515566229820e-02</internalNodes>
      <leafValues>
        -6.1307933181524277e-02 2.8596314787864685e-01</leafValues></_>
    <_>
      <internalNodes>
        0 -1 61635 -1.6773759853094816e-03</internalNodes>
      <leafValues>
        1.6969506442546844e-01 -1.3202004134654999e-01</leafValues></_>
    <_>
      <internalNodes>
        0 -1 65328 4.2762975208461285e-03</internalNodes>
      <leafValues>
        2.6674598455429077e-02 -6.0214036703109741e-01</leafValues></_>
    <_>
      <internalNodes>
        0 -1 39544 1.9221582915633917e-03</internalNodes>
      <leafValues>
        -9.3868240714073181e-02 1.4957720041275024e-01</leafValues></_>
    <_>
      <internalNodes>
        0 -1 38900 -2.7953064069151878e-02</internalNodes>
      <leafValues>
        8.6645618081092834e-02 -1.9213806092739105e-01</leafValues></_>
    <_>
      <internalNodes>
        0 -1 38297 1.3137872517108917e-01</internalNodes>
      <leafValues>
        3.6640688776969910e-02 -4.2475664615631104e-01</leafValues></_>
    <_>
      <internalNodes>
        0 -1 42904 -2.5252511259168386e-03</internalNodes>
      <leafValues>
        -4.5581513643264771e-01 2.9633607715368271e-02</leafValues></_>
    <_>
      <internalNodes>
        0 -1 53920 3.3314406871795654e-02</internalNodes>
      <leafValues>
        -2.3904182016849518e-02 6.2277197837829590e-01</leafValues></_>
    <_>
      <internalNodes>
        0 -1 65002 -1.5998519957065582e-02</internalNodes>
      <leafValues>
        2.3881527781486511e-01 -5.7507760822772980e-02</leafValues></_>
    <_>
      <internalNodes>
        0 -1 56910 1.0865898802876472e-03</internalNodes>
      <leafValues>
        -7.0568718016147614e-02 1.9110807776451111e-01</leafValues></_>
    <_>
      <internalNodes>
        0 -1 68233 1.1396255344152451e-02</internalNodes>
      <leafValues>
        3.0336679890751839e-02 -5.0421786308288574e-01</leafValues></_>
    <_>
      <internalNodes>
        0 -1 67297 8.3721317350864410e-03</internalNodes>
      <leafValues>
        2.3730056360363960e-02 -6.3042354583740234e-01</leafValues></_>
    <_>
      <internalNodes>
        0 -1 60313 1.9709285348653793e-02</internalNodes>
      <leafValues>
        -3.6942444741725922e-02 4.2543986439704895e-01</leafValues></_>
    <_>
      <internalNodes>
        0 -1 60623 -5.2649443969130516e-03</internalNodes>
      <leafValues>
        -4.2201894521713257e-01 3.4236233681440353e-02</leafValues></_>
    <_>
      <internalNodes>
        0 -1 33806 7.7354861423373222e-03</internalNodes>
      <leafValues>
        1.8112331628799438e-02 -7.6231610774993896e-01</leafValues></_>
    <_>
      <internalNodes>
        0 -1 67043 6.1860871501266956e-03</internalNodes>
      <leafValues>
        -4.5481257140636444e-02 3.3008825778961182e-01</leafValues></_>
    <_>
      <internalNodes>
        0 -1 67043 -9.6554541960358620e-04</internalNodes>
      <leafValues>
        1.3964919745922089e-01 -1.0532887279987335e-01</leafValues></_>
    <_>
      <internalNodes>
        0 -1 56503 -1.0732695460319519e-02</internalNodes>
      <leafValues>
        -4.3836224079132080e-01 3.1746741384267807e-02</leafValues></_>
    <_>
      <internalNodes>
        0 -1 60534 -7.8958750236779451e-04</internalNodes>
      <leafValues>
        1.3494968414306641e-01 -9.5290221273899078e-02</leafValues></_>
    <_>
      <internalNodes>
        0 -1 43697 -9.9674597382545471e-02</internalNodes>
      <leafValues>
        -7.8731667995452881e-01 1.6137540340423584e-02</leafValues></_>
    <_>
      <internalNodes>
        0 -1 27516 -2.0755436271429062e-02</internalNodes>
      <leafValues>
        -4.2210456728935242e-01 2.8941864147782326e-02</leafValues></_>
    <_>
      <internalNodes>
        0 -1 62059 7.1679065003991127e-03</internalNodes>
      <leafValues>
        -4.9735695123672485e-02 2.7455493807792664e-01</leafValues></_>
    <_>
      <internalNodes>
        0 -1 74790 7.7092424035072327e-03</internalNodes>
      <leafValues>
        3.6310479044914246e-02 -3.9440038800239563e-01</leafValues></_>
    <_>
      <internalNodes>
        0 -1 57392 5.1853209733963013e-03</internalNodes>
      <leafValues>
        2.0436011254787445e-02 -6.7470431327819824e-01</leafValues></_>
    <_>
      <internalNodes>
        0 -1 2 -2.7222221251577139e-04</internalNodes>
      <leafValues>
        -1.5306195616722107e-01 8.3291731774806976e-02</leafValues></_>
    <_>
      <internalNodes>
        0 -1 2 3.2267495407722890e-04</internalNodes>
      <leafValues>
        8.8273100554943085e-02 -1.6213530302047729e-01</leafValues></_>
    <_>
      <internalNodes>
        0 -1 27303 2.7262143790721893e-02</internalNodes>
      <leafValues>
        2.4685954675078392e-02 -5.2322584390640259e-01</leafValues></_>
    <_>
      <internalNodes>
        0 -1 53257 1.0157531127333641e-02</internalNodes>
      <leafValues>
        3.4651242196559906e-02 -3.4819465875625610e-01</leafValues></_>
    <_>
      <internalNodes>
        0 -1 37132 -3.6152496933937073e-02</internalNodes>
      <leafValues>
        4.5933189988136292e-01 -2.8467861935496330e-02</leafValues></_>
    <_>
      <internalNodes>
        0 -1 57936 1.0987633466720581e-01</internalNodes>
      <leafValues>
        -4.2173456400632858e-02 3.1125620007514954e-01</leafValues></_>
    <_>
      <internalNodes>
        0 -1 44160 -2.7623411267995834e-02</internalNodes>
      <leafValues>
        5.3481107950210571e-01 -2.8153445571660995e-02</leafValues></_>
    <_>
      <internalNodes>
        0 -1 44738 3.2502184621989727e-03</internalNodes>
      <leafValues>
        -8.5928373038768768e-02 1.6332870721817017e-01</leafValues></_>
    <_>
      <internalNodes>
        0 -1 73397 -6.9266771897673607e-03</internalNodes>
      <leafValues>
        -5.1533395051956177e-01 2.3391297087073326e-02</leafValues></_>
    <_>
      <internalNodes>
        0 -1 72981 2.6645984500646591e-02</internalNodes>
      <leafValues>
        3.3995419740676880e-02 -3.7068912386894226e-01</leafValues></_>
    <_>
      <internalNodes>
        0 -1 78431 4.9353344365954399e-04</internalNodes>
      <leafValues>
        -1.1375804990530014e-01 1.1896918714046478e-01</leafValues></_>
    <_>
      <internalNodes>
        0 -1 73150 4.8064847942441702e-04</internalNodes>
      <leafValues>
        -1.0330329835414886e-01 1.2499707192182541e-01</leafValues></_>
    <_>
      <internalNodes>
        0 -1 67634 1.0685365414246917e-03</internalNodes>
      <leafValues>
        -9.4698667526245117e-02 1.4239062368869781e-01</leafValues></_>
    <_>
      <internalNodes>
        0 -1 38697 9.4778081402182579e-03</internalNodes>
      <leafValues>
        1.6509721055626869e-02 -6.6799682378768921e-01</leafValues></_>
    <_>
      <internalNodes>
        0 -1 48761 7.3033297667279840e-04</internalNodes>
      <leafValues>
        7.4076756834983826e-02 -1.5563084185123444e-01</leafValues></_>
    <_>
      <internalNodes>
        0 -1 69073 -5.8300094678997993e-04</internalNodes>
      <leafValues>
        1.2750695645809174e-01 -1.0016312450170517e-01</leafValues></_>
    <_>
      <internalNodes>
        0 -1 61936 -5.7138386182487011e-04</internalNodes>
      <leafValues>
        1.2584914267063141e-01 -9.6340991556644440e-02</leafValues></_>
    <_>
      <internalNodes>
        0 -1 42296 -8.8897570967674255e-02</internalNodes>
      <leafValues>
        -4.2860093712806702e-01 2.7927856892347336e-02</leafValues></_>
    <_>
      <internalNodes>
        0 -1 56671 9.9466182291507721e-03</internalNodes>
      <leafValues>
        3.5458341240882874e-02 -3.1976187229156494e-01</leafValues></_>
    <_>
      <internalNodes>
        0 -1 48282 4.4737413525581360e-02</internalNodes>
      <leafValues>
        -2.8947355225682259e-02 4.2546439170837402e-01</leafValues></_>
    <_>
      <internalNodes>
        0 -1 47331 -1.5981767792254686e-03</internalNodes>
      <leafValues>
        7.2382755577564240e-02 -1.7146566510200500e-01</leafValues></_>
    <_>
      <internalNodes>
        0 -1 15300 4.4719886779785156e-01</internalNodes>
      <leafValues>
        -2.1032152697443962e-02 5.7608753442764282e-01</leafValues></_>
    <_>
      <internalNodes>
        0 -1 30945 1.8555647134780884e-01</internalNodes>
      <leafValues>
        -2.3000380024313927e-02 4.6276128292083740e-01</leafValues></_>
    <_>
      <internalNodes>
        0 -1 43826 -7.5645055621862411e-03</internalNodes>
      <leafValues>
        2.9703268408775330e-01 -3.9821140468120575e-02</leafValues></_>
    <_>
      <internalNodes>
        0 -1 76125 3.1467201188206673e-03</internalNodes>
      <leafValues>
        -8.7416760623455048e-02 1.4458319544792175e-01</leafValues></_>
    <_>
      <internalNodes>
        0 -1 60715 8.5771486163139343e-02</internalNodes>
      <leafValues>
        2.4395579472184181e-02 -5.8516883850097656e-01</leafValues></_>
    <_>
      <internalNodes>
        0 -1 48162 6.6313520073890686e-02</internalNodes>
      <leafValues>
        2.1527934819459915e-02 -6.0495173931121826e-01</leafValues></_>
    <_>
      <internalNodes>
        0 -1 74907 4.7756899148225784e-03</internalNodes>
      <leafValues>
        2.9117634519934654e-02 -4.1382348537445068e-01</leafValues></_>
    <_>
      <internalNodes>
        0 -1 26909 -2.4121169000864029e-02</internalNodes>
      <leafValues>
        -8.8287109136581421e-01 1.3370055705308914e-02</leafValues></_>
    <_>
      <internalNodes>
        0 -1 43841 6.0927460435777903e-04</internalNodes>
      <leafValues>
        -1.1681480705738068e-01 1.0497806966304779e-01</leafValues></_>
    <_>
      <internalNodes>
        0 -1 38246 -2.0715810358524323e-02</internalNodes>
      <leafValues>
        3.9147329330444336e-01 -3.5972099751234055e-02</leafValues></_>
    <_>
      <internalNodes>
        0 -1 44471 1.7331244423985481e-02</internalNodes>
      <leafValues>
        2.5949725881218910e-02 -5.7226318120956421e-01</leafValues></_>
    <_>
      <internalNodes>
        0 -1 70795 2.5336502585560083e-04</internalNodes>
      <leafValues>
        -8.9869976043701172e-02 1.4827693998813629e-01</leafValues></_>
    <_>
      <internalNodes>
        0 -1 65742 2.1125822968315333e-04</internalNodes>
      <leafValues>
        8.6035497486591339e-02 -1.6339626908302307e-01</leafValues></_>
    <_>
      <internalNodes>
        0 -1 33936 -2.3174211382865906e-03</internalNodes>
      <leafValues>
        -3.0022332072257996e-01 3.8953654468059540e-02</leafValues></_>
    <_>
      <internalNodes>
        0 -1 54054 8.1645119935274124e-03</internalNodes>
      <leafValues>
        -5.1213923841714859e-02 2.3820105195045471e-01</leafValues></_>
    <_>
      <internalNodes>
        0 -1 21720 -7.0199402980506420e-03</internalNodes>
      <leafValues>
        1.9343006610870361e-01 -6.2383677810430527e-02</leafValues></_>
    <_>
      <internalNodes>
        0 -1 70568 4.6196213224902749e-04</internalNodes>
      <leafValues>
        -9.4648860394954681e-02 1.2683062255382538e-01</leafValues></_>
    <_>
      <internalNodes>
        0 -1 47598 -4.5817252248525620e-03</internalNodes>
      <leafValues>
        -3.5545122623443604e-01 3.4546047449111938e-02</leafValues></_>
    <_>
      <internalNodes>
        0 -1 67102 -8.2455128431320190e-03</internalNodes>
      <leafValues>
        1.7384852468967438e-01 -7.3446221649646759e-02</leafValues></_>
    <_>
      <internalNodes>
        0 -1 70156 1.5935558825731277e-02</internalNodes>
      <leafValues>
        2.7860749512910843e-02 -4.8379808664321899e-01</leafValues></_>
    <_>
      <internalNodes>
        0 -1 7157 1.0461730882525444e-02</internalNodes>
      <leafValues>
        2.6228405535221100e-02 -4.2723917961120605e-01</leafValues></_>
    <_>
      <internalNodes>
        0 -1 53927 1.6778733581304550e-02</internalNodes>
      <leafValues>
        -4.3975807726383209e-02 2.6513242721557617e-01</leafValues></_>
    <_>
      <internalNodes>
        0 -1 70689 4.4592443737201393e-04</internalNodes>
      <leafValues>
        -8.7430141866207123e-02 1.3092599809169769e-01</leafValues></_>
    <_>
      <internalNodes>
        0 -1 65059 1.1498418170958757e-03</internalNodes>
      <leafValues>
        -1.3042649626731873e-01 9.6287280321121216e-02</leafValues></_>
    <_>
      <internalNodes>
        0 -1 61963 1.5351617475971580e-03</internalNodes>
      <leafValues>
        1.0013499110937119e-01 -1.2735392153263092e-01</leafValues></_>
    <_>
      <internalNodes>
        0 -1 42636 -2.6072002947330475e-04</internalNodes>
      <leafValues>
        1.3360345363616943e-01 -9.0780712664127350e-02</leafValues></_>
    <_>
      <internalNodes>
        0 -1 54212 1.2944888323545456e-02</internalNodes>
      <leafValues>
        2.0554602146148682e-02 -6.3362866640090942e-01</leafValues></_>
    <_>
      <internalNodes>
        0 -1 46420 1.2022472918033600e-01</internalNodes>
      <leafValues>
        -5.8655004948377609e-02 1.9830779731273651e-01</leafValues></_>
    <_>
      <internalNodes>
        0 -1 49535 7.9036932438611984e-03</internalNodes>
      <leafValues>
        -6.0817375779151917e-02 1.9956360757350922e-01</leafValues></_>
    <_>
      <internalNodes>
        0 -1 49663 -4.8672466073185205e-04</internalNodes>
      <leafValues>
        1.5303634107112885e-01 -8.2835972309112549e-02</leafValues></_>
    <_>
      <internalNodes>
        0 -1 47933 -1.3216389343142509e-02</internalNodes>
      <leafValues>
        -7.2634541988372803e-01 1.6788212582468987e-02</leafValues></_>
    <_>
      <internalNodes>
        0 -1 48306 2.2984106093645096e-02</internalNodes>
      <leafValues>
        1.6965230926871300e-02 -6.0845088958740234e-01</leafValues></_>
    <_>
      <internalNodes>
        0 -1 65060 4.6200733631849289e-03</internalNodes>
      <leafValues>
        1.7891006544232368e-02 -5.6402486562728882e-01</leafValues></_>
    <_>
      <internalNodes>
        0 -1 44374 3.6670405417680740e-02</internalNodes>
      <leafValues>
        -4.3046273291110992e-02 3.3413255214691162e-01</leafValues></_>
    <_>
      <internalNodes>
        0 -1 73249 6.3026032876223326e-04</internalNodes>
      <leafValues>
        -8.3386220037937164e-02 1.4582377672195435e-01</leafValues></_></weakClassifiers></stage17>
</opencv_storage>
