<?xml version="1.0"?>
<opencv_storage>
<stage10>
  <maxWeakCount>26</maxWeakCount>
  <stageThreshold>-8.5758596658706665e-01</stageThreshold>
  <weakClassifiers>
    <_>
      <internalNodes>
        0 -1 356378 -1.2772070243954659e-02</internalNodes>
      <leafValues>
        5.9186267852783203e-01 -2.7506655082106590e-02</leafValues></_>
    <_>
      <internalNodes>
        0 -1 225873 -9.4635756686329842e-03</internalNodes>
      <leafValues>
        3.9739492535591125e-01 -2.6281756162643433e-01</leafValues></_>
    <_>
      <internalNodes>
        0 -1 215595 1.9444374367594719e-02</internalNodes>
      <leafValues>
        -1.7417779564857483e-01 4.7467601299285889e-01</leafValues></_>
    <_>
      <internalNodes>
        0 -1 247887 -2.8806639602407813e-04</internalNodes>
      <leafValues>
        9.0941660106182098e-02 -6.4081364870071411e-01</leafValues></_>
    <_>
      <internalNodes>
        0 -1 327337 1.1258481536060572e-03</internalNodes>
      <leafValues>
        -4.2553955316543579e-01 1.8224924802780151e-01</leafValues></_>
    <_>
      <internalNodes>
        0 -1 245466 5.6112511083483696e-03</internalNodes>
      <leafValues>
        -1.8281583487987518e-01 4.0624535083770752e-01</leafValues></_>
    <_>
      <internalNodes>
        0 -1 329184 -8.3559975028038025e-03</internalNodes>
      <leafValues>
        3.5757535696029663e-01 -1.6506797075271606e-01</leafValues></_>
    <_>
      <internalNodes>
        0 -1 337598 2.4096820503473282e-02</internalNodes>
      <leafValues>
        -1.5763646364212036e-01 4.7872570157051086e-01</leafValues></_>
    <_>
      <internalNodes>
        0 -1 245674 -1.7795842140913010e-02</internalNodes>
      <leafValues>
        3.3523914217948914e-01 -2.3969943821430206e-01</leafValues></_>
    <_>
      <internalNodes>
        0 -1 348200 7.6453568181023002e-04</internalNodes>
      <leafValues>
        1.1374790221452713e-01 -5.8376854658126831e-01</leafValues></_>
    <_>
      <internalNodes>
        0 -1 328751 2.0905232522636652e-03</internalNodes>
      <leafValues>
        5.2571285516023636e-02 -8.5434663295745850e-01</leafValues></_>
    <_>
      <internalNodes>
        0 -1 179000 -1.1042760685086250e-02</internalNodes>
      <leafValues>
        3.1479132175445557e-01 -1.8537314236164093e-01</leafValues></_>
    <_>
      <internalNodes>
        0 -1 246189 1.3226451352238655e-02</internalNodes>
      <leafValues>
        1.0018605738878250e-01 -5.7293707132339478e-01</leafValues></_>
    <_>
      <internalNodes>
        0 -1 214894 1.8629037076607347e-03</internalNodes>
      <leafValues>
        -2.0397084951400757e-01 2.6894390583038330e-01</leafValues></_>
    <_>
      <internalNodes>
        0 -1 307424 1.4853923348709941e-03</internalNodes>
      <leafValues>
        -1.4598612487316132e-01 3.9439395070075989e-01</leafValues></_>
    <_>
      <internalNodes>
        0 -1 266418 7.1591539308428764e-03</internalNodes>
      <leafValues>
        -1.5228839218616486e-01 4.0110677480697632e-01</leafValues></_>
    <_>
      <internalNodes>
        0 -1 49429 -9.7932629287242889e-03</internalNodes>
      <leafValues>
        -4.5330050587654114e-01 1.3784612715244293e-01</leafValues></_>
    <_>
      <internalNodes>
        0 -1 179139 1.2616441585123539e-02</internalNodes>
      <leafValues>
        7.4586600065231323e-02 -7.3657363653182983e-01</leafValues></_>
    <_>
      <internalNodes>
        0 -1 281094 -5.8305081911385059e-03</internalNodes>
      <leafValues>
        4.1058450937271118e-01 -1.3727053999900818e-01</leafValues></_>
    <_>
      <internalNodes>
        0 -1 250783 -9.7369700670242310e-03</internalNodes>
      <leafValues>
        -5.4759758710861206e-01 9.3455076217651367e-02</leafValues></_>
    <_>
      <internalNodes>
        0 -1 356551 3.5481905797496438e-04</internalNodes>
      <leafValues>
        -1.9060336053371429e-01 2.8409349918365479e-01</leafValues></_>
    <_>
      <internalNodes>
        0 -1 234622 4.5336615294218063e-03</internalNodes>
      <leafValues>
        -1.4073197543621063e-01 3.9710319042205811e-01</leafValues></_>
    <_>
      <internalNodes>
        0 -1 347282 1.0861398186534643e-03</internalNodes>
      <leafValues>
        8.3879590034484863e-02 -7.3919641971588135e-01</leafValues></_>
    <_>
      <internalNodes>
        0 -1 260552 -8.4325326606631279e-03</internalNodes>
      <leafValues>
        -7.9088509082794189e-01 5.8102283626794815e-02</leafValues></_>
    <_>
      <internalNodes>
        0 -1 280943 1.8281180411577225e-02</internalNodes>
      <leafValues>
        6.9498300552368164e-02 -6.4267754554748535e-01</leafValues></_>
    <_>
      <internalNodes>
        0 -1 317908 4.1134823113679886e-03</internalNodes>
      <leafValues>
        6.6132143139839172e-02 -6.9699013233184814e-01</leafValues></_></weakClassifiers></stage10>
</opencv_storage>
