<?xml version="1.0"?>
<opencv_storage>
<stage25>
  <maxWeakCount>14</maxWeakCount>
  <stageThreshold>-1.6276725530624390e+00</stageThreshold>
  <weakClassifiers>
    <_>
      <internalNodes>
        0 -1 64160 1.1450171470642090e-02</internalNodes>
      <leafValues>
        -1.6383662819862366e-01 8.0008614063262939e-01</leafValues></_>
    <_>
      <internalNodes>
        0 -1 3321 1.7424135876353830e-04</internalNodes>
      <leafValues>
        6.4257144927978516e-01 -3.2252228260040283e-01</leafValues></_>
    <_>
      <internalNodes>
        0 -1 78283 9.2534860596060753e-04</internalNodes>
      <leafValues>
        4.8255771398544312e-01 -5.0981730222702026e-01</leafValues></_>
    <_>
      <internalNodes>
        0 -1 60135 3.6861509084701538e-02</internalNodes>
      <leafValues>
        -2.1795721352100372e-01 1.</leafValues></_>
    <_>
      <internalNodes>
        0 -1 53299 -2.1864933893084526e-02</internalNodes>
      <leafValues>
        -3.9536416530609131e-01 5.8140563964843750e-01</leafValues></_>
    <_>
      <internalNodes>
        0 -1 29219 -1.0684286244213581e-03</internalNodes>
      <leafValues>
        8.6332291364669800e-01 -1.9521106779575348e-01</leafValues></_>
    <_>
      <internalNodes>
        0 -1 29360 2.0320005714893341e-02</internalNodes>
      <leafValues>
        -3.6525964736938477e-01 5.5466705560684204e-01</leafValues></_>
    <_>
      <internalNodes>
        0 -1 78314 -8.3901628386229277e-04</internalNodes>
      <leafValues>
        -4.3131068348884583e-01 5.1043230295181274e-01</leafValues></_>
    <_>
      <internalNodes>
        0 -1 73399 -7.0967171341180801e-03</internalNodes>
      <leafValues>
        7.1028494834899902e-01 -3.3226683735847473e-01</leafValues></_>
    <_>
      <internalNodes>
        0 -1 53229 -1.9512273138388991e-03</internalNodes>
      <leafValues>
        5.3287869691848755e-01 -3.9231628179550171e-01</leafValues></_>
    <_>
      <internalNodes>
        0 -1 72581 2.1634772565448657e-05</internalNodes>
      <leafValues>
        -2.4278272688388824e-01 8.3230447769165039e-01</leafValues></_>
    <_>
      <internalNodes>
        0 -1 78037 -3.1931404955685139e-03</internalNodes>
      <leafValues>
        -3.7810486555099487e-01 5.2056318521499634e-01</leafValues></_>
    <_>
      <internalNodes>
        0 -1 31960 -1.0030063276644796e-04</internalNodes>
      <leafValues>
        7.5925940275192261e-01 -2.7378812432289124e-01</leafValues></_>
    <_>
      <internalNodes>
        0 -1 57196 -9.1478595277294517e-04</internalNodes>
      <leafValues>
        6.3741934299468994e-01 -2.8953176736831665e-01</leafValues></_></weakClassifiers></stage25>
</opencv_storage>
