<?xml version="1.0"?>
<opencv_storage>
<stage26>
  <maxWeakCount>49</maxWeakCount>
  <stageThreshold>-8.4445309638977051e-01</stageThreshold>
  <weakClassifiers>
    <_>
      <internalNodes>
        0 -1 26218 3.1481660902500153e-02</internalNodes>
      <leafValues>
        1.2654614448547363e-01 5.9708738327026367e-01</leafValues></_>
    <_>
      <internalNodes>
        0 -1 64326 -1.2021809816360474e-03</internalNodes>
      <leafValues>
        3.4729188680648804e-01 -1.4257347583770752e-01</leafValues></_>
    <_>
      <internalNodes>
        0 -1 38246 3.7273250520229340e-02</internalNodes>
      <leafValues>
        -7.2832763195037842e-02 5.6480944156646729e-01</leafValues></_>
    <_>
      <internalNodes>
        0 -1 57763 3.1380876898765564e-02</internalNodes>
      <leafValues>
        -1.2998512387275696e-01 4.3804645538330078e-01</leafValues></_>
    <_>
      <internalNodes>
        0 -1 57200 7.0864483714103699e-03</internalNodes>
      <leafValues>
        -1.4535559713840485e-01 3.1288033723831177e-01</leafValues></_>
    <_>
      <internalNodes>
        0 -1 69095 3.0557191930711269e-03</internalNodes>
      <leafValues>
        1.1820023506879807e-01 -3.7399038672447205e-01</leafValues></_>
    <_>
      <internalNodes>
        0 -1 67102 2.6870623230934143e-02</internalNodes>
      <leafValues>
        -1.1299243569374084e-01 3.8224509358406067e-01</leafValues></_>
    <_>
      <internalNodes>
        0 -1 44181 -1.1890355497598648e-02</internalNodes>
      <leafValues>
        8.0851238965988159e-01 -3.6868967115879059e-02</leafValues></_>
    <_>
      <internalNodes>
        0 -1 48782 -4.6251094900071621e-03</internalNodes>
      <leafValues>
        4.7757008671760559e-01 -9.5968194305896759e-02</leafValues></_>
    <_>
      <internalNodes>
        0 -1 58260 -1.4907614327967167e-02</internalNodes>
      <leafValues>
        -4.3903663754463196e-01 1.0537972301244736e-01</leafValues></_>
    <_>
      <internalNodes>
        0 -1 50483 -4.4126892462372780e-03</internalNodes>
      <leafValues>
        5.2050393819808960e-01 -8.3814255893230438e-02</leafValues></_>
    <_>
      <internalNodes>
        0 -1 48759 1.2818418443202972e-02</internalNodes>
      <leafValues>
        8.9229844510555267e-02 -4.7070425748825073e-01</leafValues></_>
    <_>
      <internalNodes>
        0 -1 49709 -8.1991292536258698e-03</internalNodes>
      <leafValues>
        4.9831598997116089e-01 -9.3754000961780548e-02</leafValues></_>
    <_>
      <internalNodes>
        0 -1 13747 1.6658265143632889e-02</internalNodes>
      <leafValues>
        1.2235277891159058e-01 -3.5223862528800964e-01</leafValues></_>
    <_>
      <internalNodes>
        0 -1 68226 2.4634151486679912e-04</internalNodes>
      <leafValues>
        -2.7059409022331238e-01 1.6766297817230225e-01</leafValues></_>
    <_>
      <internalNodes>
        0 -1 70026 5.2186790853738785e-03</internalNodes>
      <leafValues>
        1.4834761619567871e-01 -2.7774563431739807e-01</leafValues></_>
    <_>
      <internalNodes>
        0 -1 67883 1.5249209478497505e-02</internalNodes>
      <leafValues>
        -9.7764305770397186e-02 4.1177070140838623e-01</leafValues></_>
    <_>
      <internalNodes>
        0 -1 56362 1.2759747914969921e-02</internalNodes>
      <leafValues>
        -7.1756638586521149e-02 5.4839694499969482e-01</leafValues></_>
    <_>
      <internalNodes>
        0 -1 14362 1.9800981506705284e-02</internalNodes>
      <leafValues>
        -4.8520501703023911e-02 7.3566472530364990e-01</leafValues></_>
    <_>
      <internalNodes>
        0 -1 38939 1.6001372132450342e-03</internalNodes>
      <leafValues>
        -1.0762476921081543e-01 3.7795692682266235e-01</leafValues></_>
    <_>
      <internalNodes>
        0 -1 71780 -3.3587232232093811e-02</internalNodes>
      <leafValues>
        4.8115596175193787e-01 -8.3693511784076691e-02</leafValues></_>
    <_>
      <internalNodes>
        0 -1 60709 -1.6004133969545364e-02</internalNodes>
      <leafValues>
        -2.8197601437568665e-01 1.4570654928684235e-01</leafValues></_>
    <_>
      <internalNodes>
        0 -1 68101 1.0626169387251139e-03</internalNodes>
      <leafValues>
        -1.5577256679534912e-01 2.7513384819030762e-01</leafValues></_>
    <_>
      <internalNodes>
        0 -1 47788 -1.0930858115898445e-04</internalNodes>
      <leafValues>
        1.7590689659118652e-01 -2.4901185929775238e-01</leafValues></_>
    <_>
      <internalNodes>
        0 -1 56055 -8.7670674547553062e-03</internalNodes>
      <leafValues>
        -5.2953809499740601e-01 7.6359555125236511e-02</leafValues></_>
    <_>
      <internalNodes>
        0 -1 53927 2.0858399569988251e-02</internalNodes>
      <leafValues>
        -6.9728210568428040e-02 6.4060962200164795e-01</leafValues></_>
    <_>
      <internalNodes>
        0 -1 56913 -1.1844518594443798e-03</internalNodes>
      <leafValues>
        2.3824189603328705e-01 -1.5559336543083191e-01</leafValues></_>
    <_>
      <internalNodes>
        0 -1 6939 1.1565009132027626e-02</internalNodes>
      <leafValues>
        -6.2942340970039368e-02 5.8819919824600220e-01</leafValues></_>
    <_>
      <internalNodes>
        0 -1 41263 -7.9516386613249779e-03</internalNodes>
      <leafValues>
        3.7966957688331604e-01 -9.9598236382007599e-02</leafValues></_>
    <_>
      <internalNodes>
        0 -1 39334 -2.2658323869109154e-03</internalNodes>
      <leafValues>
        5.6153362989425659e-01 -7.4534021317958832e-02</leafValues></_>
    <_>
      <internalNodes>
        0 -1 20450 -3.9173867553472519e-02</internalNodes>
      <leafValues>
        -5.6587040424346924e-01 7.4773795902729034e-02</leafValues></_>
    <_>
      <internalNodes>
        0 -1 53627 -8.6064375936985016e-03</internalNodes>
      <leafValues>
        9.5970362424850464e-02 -3.7063661217689514e-01</leafValues></_>
    <_>
      <internalNodes>
        0 -1 38740 -2.7322086971253157e-03</internalNodes>
      <leafValues>
        -1.4395324885845184e-01 3.3131417632102966e-01</leafValues></_>
    <_>
      <internalNodes>
        0 -1 75071 6.5187696600332856e-04</internalNodes>
      <leafValues>
        -1.4927630126476288e-01 2.7310422062873840e-01</leafValues></_>
    <_>
      <internalNodes>
        0 -1 64329 -1.1285676155239344e-03</internalNodes>
      <leafValues>
        4.3047073483467102e-01 -9.0268343687057495e-02</leafValues></_>
    <_>
      <internalNodes>
        0 -1 49559 -2.4870030581951141e-02</internalNodes>
      <leafValues>
        -4.5924162864685059e-01 8.8231019675731659e-02</leafValues></_>
    <_>
      <internalNodes>
        0 -1 47342 -1.3024246320128441e-02</internalNodes>
      <leafValues>
        2.1711367368698120e-01 -2.0436146855354309e-01</leafValues></_>
    <_>
      <internalNodes>
        0 -1 21807 1.1301279067993164e-02</internalNodes>
      <leafValues>
        1.3756762444972992e-01 -2.8804826736450195e-01</leafValues></_>
    <_>
      <internalNodes>
        0 -1 61630 -1.8316220957785845e-03</internalNodes>
      <leafValues>
        2.6200887560844421e-01 -1.5478546917438507e-01</leafValues></_>
    <_>
      <internalNodes>
        0 -1 54439 2.9203207232058048e-03</internalNodes>
      <leafValues>
        -8.9148446917533875e-02 4.6146070957183838e-01</leafValues></_>
    <_>
      <internalNodes>
        0 -1 76440 -5.9752231463789940e-03</internalNodes>
      <leafValues>
        -4.7412562370300293e-01 8.1875637173652649e-02</leafValues></_>
    <_>
      <internalNodes>
        0 -1 38949 2.1317305509001017e-03</internalNodes>
      <leafValues>
        -1.1753870546817780e-01 3.5728299617767334e-01</leafValues></_>
    <_>
      <internalNodes>
        0 -1 62165 3.5403738729655743e-04</internalNodes>
      <leafValues>
        -1.5296529233455658e-01 2.9667052626609802e-01</leafValues></_>
    <_>
      <internalNodes>
        0 -1 54722 -2.2512268275022507e-02</internalNodes>
      <leafValues>
        4.5476818084716797e-01 -9.1018334031105042e-02</leafValues></_>
    <_>
      <internalNodes>
        0 -1 65549 -1.1994368396699429e-02</internalNodes>
      <leafValues>
        -6.7525368928909302e-01 6.3162788748741150e-02</leafValues></_>
    <_>
      <internalNodes>
        0 -1 22319 2.7092028409242630e-02</internalNodes>
      <leafValues>
        -1.1794118583202362e-01 3.1671151518821716e-01</leafValues></_>
    <_>
      <internalNodes>
        0 -1 66105 -3.2463021576404572e-02</internalNodes>
      <leafValues>
        6.6625636816024780e-01 -5.1776044070720673e-02</leafValues></_>
    <_>
      <internalNodes>
        0 -1 73239 5.4472591727972031e-04</internalNodes>
      <leafValues>
        -1.4443536102771759e-01 2.5349390506744385e-01</leafValues></_>
    <_>
      <internalNodes>
        0 -1 3315 -2.1453393995761871e-01</internalNodes>
      <leafValues>
        8.6859691143035889e-01 -4.0295410901308060e-02</leafValues></_></weakClassifiers></stage26>
</opencv_storage>
