<?xml version="1.0"?>
<opencv_storage>
<stage3>
  <maxWeakCount>16</maxWeakCount>
  <stageThreshold>-1.1872326135635376e+00</stageThreshold>
  <weakClassifiers>
    <_>
      <internalNodes>
        0 -1 56471 2.1047515794634819e-02</internalNodes>
      <leafValues>
        -1.9746376574039459e-01 7.0050126314163208e-01</leafValues></_>
    <_>
      <internalNodes>
        0 -1 43914 2.9351588338613510e-02</internalNodes>
      <leafValues>
        -2.0348535478115082e-01 6.8604815006256104e-01</leafValues></_>
    <_>
      <internalNodes>
        0 -1 25864 2.9465604573488235e-02</internalNodes>
      <leafValues>
        -2.7956768870353699e-01 5.3956580162048340e-01</leafValues></_>
    <_>
      <internalNodes>
        0 -1 42951 -1.2210745364427567e-02</internalNodes>
      <leafValues>
        5.3844499588012695e-01 -2.4436970055103302e-01</leafValues></_>
    <_>
      <internalNodes>
        0 -1 60849 3.2961864490061998e-03</internalNodes>
      <leafValues>
        -6.5446925163269043e-01 1.8245223164558411e-01</leafValues></_>
    <_>
      <internalNodes>
        0 -1 67515 -1.1188091710209846e-02</internalNodes>
      <leafValues>
        1.5669429302215576e-01 -5.4925441741943359e-01</leafValues></_>
    <_>
      <internalNodes>
        0 -1 67923 -3.0005965381860733e-02</internalNodes>
      <leafValues>
        2.9377242922782898e-01 -3.0327361822128296e-01</leafValues></_>
    <_>
      <internalNodes>
        0 -1 44068 3.6060257116332650e-04</internalNodes>
      <leafValues>
        -2.8725397586822510e-01 3.1018105149269104e-01</leafValues></_>
    <_>
      <internalNodes>
        0 -1 48798 -1.8537072464823723e-03</internalNodes>
      <leafValues>
        1.6780023276805878e-01 -5.0744134187698364e-01</leafValues></_>
    <_>
      <internalNodes>
        0 -1 61787 -5.9212988708168268e-04</internalNodes>
      <leafValues>
        3.3815565705299377e-01 -2.5144758820533752e-01</leafValues></_>
    <_>
      <internalNodes>
        0 -1 54095 -1.1587891727685928e-02</internalNodes>
      <leafValues>
        4.5670011639595032e-01 -1.7360028624534607e-01</leafValues></_>
    <_>
      <internalNodes>
        0 -1 49694 4.5625976053997874e-04</internalNodes>
      <leafValues>
        -2.6914134621620178e-01 2.9631248116493225e-01</leafValues></_>
    <_>
      <internalNodes>
        0 -1 48861 1.1580681428313255e-02</internalNodes>
      <leafValues>
        1.1162295937538147e-01 -6.9206446409225464e-01</leafValues></_>
    <_>
      <internalNodes>
        0 -1 56754 -4.7966055572032928e-02</internalNodes>
      <leafValues>
        -7.4968349933624268e-01 8.6569555103778839e-02</leafValues></_>
    <_>
      <internalNodes>
        0 -1 67966 8.2295783795416355e-04</internalNodes>
      <leafValues>
        -3.7498718500137329e-01 1.8141043186187744e-01</leafValues></_>
    <_>
      <internalNodes>
        0 -1 62067 8.0832950770854950e-03</internalNodes>
      <leafValues>
        -1.4515644311904907e-01 4.7335618734359741e-01</leafValues></_></weakClassifiers></stage3>
</opencv_storage>
