<?xml version="1.0"?>
<opencv_storage>
<stage5>
  <maxWeakCount>11</maxWeakCount>
  <stageThreshold>-1.2606571912765503e+00</stageThreshold>
  <weakClassifiers>
    <_>
      <internalNodes>
        0 -1 21363 1.1266652494668961e-02</internalNodes>
      <leafValues>
        -2.9158109426498413e-01 6.8597912788391113e-01</leafValues></_>
    <_>
      <internalNodes>
        0 -1 5387 4.4355727732181549e-02</internalNodes>
      <leafValues>
        -5.7114040851593018e-01 4.5281416177749634e-01</leafValues></_>
    <_>
      <internalNodes>
        0 -1 20578 5.2770627662539482e-03</internalNodes>
      <leafValues>
        -7.4958634376525879e-01 2.8814801573753357e-01</leafValues></_>
    <_>
      <internalNodes>
        0 -1 15826 -8.4966346621513367e-02</internalNodes>
      <leafValues>
        4.4801157712936401e-01 -4.3223926424980164e-01</leafValues></_>
    <_>
      <internalNodes>
        0 -1 7788 3.1534507870674133e-02</internalNodes>
      <leafValues>
        -5.6318730115890503e-01 3.0117484927177429e-01</leafValues></_>
    <_>
      <internalNodes>
        0 -1 17360 -6.4910470973700285e-04</internalNodes>
      <leafValues>
        2.5466880202293396e-01 -6.1964315176010132e-01</leafValues></_>
    <_>
      <internalNodes>
        0 -1 15449 4.8249305109493434e-04</internalNodes>
      <leafValues>
        -7.9681229591369629e-01 1.6415049135684967e-01</leafValues></_>
    <_>
      <internalNodes>
        0 -1 23796 -4.6103131026029587e-03</internalNodes>
      <leafValues>
        2.7469068765640259e-01 -5.1187586784362793e-01</leafValues></_>
    <_>
      <internalNodes>
        0 -1 528 5.6856587529182434e-02</internalNodes>
      <leafValues>
        -3.8230815529823303e-01 3.6119976639747620e-01</leafValues></_>
    <_>
      <internalNodes>
        0 -1 18894 -1.2679337523877621e-03</internalNodes>
      <leafValues>
        2.1501949429512024e-01 -5.6911760568618774e-01</leafValues></_>
    <_>
      <internalNodes>
        0 -1 16069 -5.3589507006108761e-03</internalNodes>
      <leafValues>
        4.0400856733322144e-01 -2.9467403888702393e-01</leafValues></_></weakClassifiers></stage5>
</opencv_storage>
