<?xml version="1.0"?>
<opencv_storage>
<stage24>
  <maxWeakCount>31</maxWeakCount>
  <stageThreshold>-1.4731478691101074e+00</stageThreshold>
  <weakClassifiers>
    <_>
      <internalNodes>
        0 -1 48238 4.8342393711209297e-03</internalNodes>
      <leafValues>
        -1.4402809739112854e-01 6.2535816431045532e-01</leafValues></_>
    <_>
      <internalNodes>
        0 -1 36398 -5.9482533484697342e-02</internalNodes>
      <leafValues>
        7.1219015121459961e-01 -1.6096214950084686e-01</leafValues></_>
    <_>
      <internalNodes>
        0 -1 67189 -2.1312316879630089e-02</internalNodes>
      <leafValues>
        3.6042708158493042e-01 -2.8421285748481750e-01</leafValues></_>
    <_>
      <internalNodes>
        0 -1 6471 8.9517869055271149e-03</internalNodes>
      <leafValues>
        -1.6822470724582672e-01 7.7234226465225220e-01</leafValues></_>
    <_>
      <internalNodes>
        0 -1 38290 6.0365237295627594e-02</internalNodes>
      <leafValues>
        2.3026376962661743e-01 -5.4689157009124756e-01</leafValues></_>
    <_>
      <internalNodes>
        0 -1 29229 -2.2387146018445492e-03</internalNodes>
      <leafValues>
        5.6684249639511108e-01 -1.8248793482780457e-01</leafValues></_>
    <_>
      <internalNodes>
        0 -1 73313 2.4815234355628490e-03</internalNodes>
      <leafValues>
        1.2870740890502930e-01 -7.2949910163879395e-01</leafValues></_>
    <_>
      <internalNodes>
        0 -1 39949 -6.6532967612147331e-03</internalNodes>
      <leafValues>
        4.7457048296928406e-01 -1.9869013130664825e-01</leafValues></_>
    <_>
      <internalNodes>
        0 -1 53756 -3.7760811392217875e-03</internalNodes>
      <leafValues>
        6.6545623540878296e-01 -1.3034854829311371e-01</leafValues></_>
    <_>
      <internalNodes>
        0 -1 60534 2.9609352350234985e-04</internalNodes>
      <leafValues>
        -1.6973514854907990e-01 4.9049606919288635e-01</leafValues></_>
    <_>
      <internalNodes>
        0 -1 19501 2.9058592393994331e-02</internalNodes>
      <leafValues>
        1.8738123774528503e-01 -4.9910441040992737e-01</leafValues></_>
    <_>
      <internalNodes>
        0 -1 65077 4.5466911979019642e-03</internalNodes>
      <leafValues>
        1.9133618474006653e-01 -4.8087310791015625e-01</leafValues></_>
    <_>
      <internalNodes>
        0 -1 62319 8.6390704382210970e-05</internalNodes>
      <leafValues>
        3.9349395036697388e-01 -3.1497052311897278e-01</leafValues></_>
    <_>
      <internalNodes>
        0 -1 75313 5.0783753395080566e-02</internalNodes>
      <leafValues>
        -1.2329903244972229e-01 6.6386479139328003e-01</leafValues></_>
    <_>
      <internalNodes>
        0 -1 72856 -9.3658483820036054e-04</internalNodes>
      <leafValues>
        3.4971174597740173e-01 -2.7302548289299011e-01</leafValues></_>
    <_>
      <internalNodes>
        0 -1 52684 -1.5735384076833725e-02</internalNodes>
      <leafValues>
        8.2554763555526733e-01 -9.7178466618061066e-02</leafValues></_>
    <_>
      <internalNodes>
        0 -1 58114 5.7755140587687492e-03</internalNodes>
      <leafValues>
        -7.3823943734169006e-02 8.7150484323501587e-01</leafValues></_>
    <_>
      <internalNodes>
        0 -1 52395 -1.7555927857756615e-02</internalNodes>
      <leafValues>
        6.9016802310943604e-01 -1.0189346224069595e-01</leafValues></_>
    <_>
      <internalNodes>
        0 -1 1738 -2.7140481397509575e-03</internalNodes>
      <leafValues>
        5.2119791507720947e-01 -1.6323891282081604e-01</leafValues></_>
    <_>
      <internalNodes>
        0 -1 47596 6.3284148927778006e-04</internalNodes>
      <leafValues>
        -1.6136670112609863e-01 5.3651309013366699e-01</leafValues></_>
    <_>
      <internalNodes>
        0 -1 53320 -4.0376172401010990e-03</internalNodes>
      <leafValues>
        5.0609844923019409e-01 -1.8452493846416473e-01</leafValues></_>
    <_>
      <internalNodes>
        0 -1 43272 -3.0935392715036869e-05</internalNodes>
      <leafValues>
        -6.1168283224105835e-01 1.7776849865913391e-01</leafValues></_>
    <_>
      <internalNodes>
        0 -1 7861 -1.5845674276351929e-01</internalNodes>
      <leafValues>
        8.9228546619415283e-01 -1.2936012446880341e-01</leafValues></_>
    <_>
      <internalNodes>
        0 -1 69976 8.7666418403387070e-04</internalNodes>
      <leafValues>
        -1.2081545591354370e-01 6.1243587732315063e-01</leafValues></_>
    <_>
      <internalNodes>
        0 -1 17941 6.7008333280682564e-03</internalNodes>
      <leafValues>
        -3.0936291813850403e-01 2.9574576020240784e-01</leafValues></_>
    <_>
      <internalNodes>
        0 -1 58505 -3.9978424319997430e-04</internalNodes>
      <leafValues>
        3.5144612193107605e-01 -2.8044915199279785e-01</leafValues></_>
    <_>
      <internalNodes>
        0 -1 36765 5.9736790135502815e-03</internalNodes>
      <leafValues>
        -2.7427893877029419e-01 3.5056105256080627e-01</leafValues></_>
    <_>
      <internalNodes>
        0 -1 65254 7.5719039887189865e-03</internalNodes>
      <leafValues>
        1.4642980694770813e-01 -6.1170709133148193e-01</leafValues></_>
    <_>
      <internalNodes>
        0 -1 13905 1.5500867448281497e-04</internalNodes>
      <leafValues>
        4.4942763447761536e-01 -2.3371289670467377e-01</leafValues></_>
    <_>
      <internalNodes>
        0 -1 60532 3.3326074481010437e-03</internalNodes>
      <leafValues>
        1.6659335792064667e-01 -5.6339752674102783e-01</leafValues></_>
    <_>
      <internalNodes>
        0 -1 25105 1.0078256949782372e-02</internalNodes>
      <leafValues>
        -4.7866547107696533e-01 2.0374712347984314e-01</leafValues></_></weakClassifiers></stage24>
</opencv_storage>
