<?xml version="1.0"?>
<opencv_storage>
<stage13>
  <maxWeakCount>34</maxWeakCount>
  <stageThreshold>-9.4187927246093750e-01</stageThreshold>
  <weakClassifiers>
    <_>
      <internalNodes>
        0 -1 303154 8.9237811043858528e-03</internalNodes>
      <leafValues>
        -2.7777779102325439e-01 4.7358834743499756e-01</leafValues></_>
    <_>
      <internalNodes>
        0 -1 230312 1.6050382691901177e-04</internalNodes>
      <leafValues>
        -3.4252545237541199e-01 2.5383856892585754e-01</leafValues></_>
    <_>
      <internalNodes>
        0 -1 197162 -3.0781246721744537e-02</internalNodes>
      <leafValues>
        1.7034718394279480e-01 -4.4087943434715271e-01</leafValues></_>
    <_>
      <internalNodes>
        0 -1 171591 9.4386022537946701e-03</internalNodes>
      <leafValues>
        -4.2823517322540283e-01 1.5690362453460693e-01</leafValues></_>
    <_>
      <internalNodes>
        0 -1 326511 -3.7591783329844475e-03</internalNodes>
      <leafValues>
        5.4694193601608276e-01 -1.2188472598791122e-01</leafValues></_>
    <_>
      <internalNodes>
        0 -1 287399 -6.0153855010867119e-03</internalNodes>
      <leafValues>
        4.9652174115180969e-01 -1.6313989460468292e-01</leafValues></_>
    <_>
      <internalNodes>
        0 -1 234983 6.4118485897779465e-04</internalNodes>
      <leafValues>
        -2.5345805287361145e-01 2.4356739223003387e-01</leafValues></_>
    <_>
      <internalNodes>
        0 -1 227801 5.2944924682378769e-03</internalNodes>
      <leafValues>
        -3.1745478510856628e-01 1.5907289087772369e-01</leafValues></_>
    <_>
      <internalNodes>
        0 -1 214527 2.2576831281185150e-02</internalNodes>
      <leafValues>
        -1.0836814343929291e-01 5.6361222267150879e-01</leafValues></_>
    <_>
      <internalNodes>
        0 -1 231727 4.7128573060035706e-03</internalNodes>
      <leafValues>
        -2.5255531072616577e-01 2.7836433053016663e-01</leafValues></_>
    <_>
      <internalNodes>
        0 -1 212248 -3.0372845940291882e-03</internalNodes>
      <leafValues>
        -5.9603369235992432e-01 8.0639660358428955e-02</leafValues></_>
    <_>
      <internalNodes>
        0 -1 197427 -1.1242888867855072e-02</internalNodes>
      <leafValues>
        4.7449377179145813e-01 -1.0703934729099274e-01</leafValues></_>
    <_>
      <internalNodes>
        0 -1 212649 5.5688865482807159e-02</internalNodes>
      <leafValues>
        1.0603049397468567e-01 -5.8547490835189819e-01</leafValues></_>
    <_>
      <internalNodes>
        0 -1 232346 2.9852869920432568e-03</internalNodes>
      <leafValues>
        -2.8047561645507812e-01 1.8299141526222229e-01</leafValues></_>
    <_>
      <internalNodes>
        0 -1 356559 2.9985629953444004e-03</internalNodes>
      <leafValues>
        7.4253015220165253e-02 -7.8028243780136108e-01</leafValues></_>
    <_>
      <internalNodes>
        0 -1 266494 -2.2354571148753166e-02</internalNodes>
      <leafValues>
        -8.4130775928497314e-01 4.4119413942098618e-02</leafValues></_>
    <_>
      <internalNodes>
        0 -1 294873 7.3509206995368004e-03</internalNodes>
      <leafValues>
        -1.1711898446083069e-01 4.3512389063835144e-01</leafValues></_>
    <_>
      <internalNodes>
        0 -1 250736 8.8130366057157516e-03</internalNodes>
      <leafValues>
        -1.4272971451282501e-01 3.6491835117340088e-01</leafValues></_>
    <_>
      <internalNodes>
        0 -1 280896 5.3712399676442146e-03</internalNodes>
      <leafValues>
        -1.4561565220355988e-01 3.7486031651496887e-01</leafValues></_>
    <_>
      <internalNodes>
        0 -1 235186 1.9216842949390411e-02</internalNodes>
      <leafValues>
        7.8114517033100128e-02 -7.2430682182312012e-01</leafValues></_>
    <_>
      <internalNodes>
        0 -1 319364 6.4363838173449039e-03</internalNodes>
      <leafValues>
        -1.4768382906913757e-01 3.8594791293144226e-01</leafValues></_>
    <_>
      <internalNodes>
        0 -1 294727 1.3682456687092781e-02</internalNodes>
      <leafValues>
        1.0181999951601028e-01 -5.4411196708679199e-01</leafValues></_>
    <_>
      <internalNodes>
        0 -1 358108 -1.7034924821928144e-03</internalNodes>
      <leafValues>
        3.1049227714538574e-01 -1.7723016440868378e-01</leafValues></_>
    <_>
      <internalNodes>
        0 -1 217950 1.2031160295009613e-02</internalNodes>
      <leafValues>
        6.3122838735580444e-02 -8.1986522674560547e-01</leafValues></_>
    <_>
      <internalNodes>
        0 -1 3443 -7.8072422184050083e-04</internalNodes>
      <leafValues>
        -4.1533192992210388e-01 1.0071761906147003e-01</leafValues></_>
    <_>
      <internalNodes>
        0 -1 208868 -2.4326194077730179e-02</internalNodes>
      <leafValues>
        -6.7695796489715576e-01 7.0860415697097778e-02</leafValues></_>
    <_>
      <internalNodes>
        0 -1 72776 -3.2734766136854887e-03</internalNodes>
      <leafValues>
        -2.7979227900505066e-01 1.6562314331531525e-01</leafValues></_>
    <_>
      <internalNodes>
        0 -1 338599 -2.2859141230583191e-02</internalNodes>
      <leafValues>
        5.8381056785583496e-01 -8.3431206643581390e-02</leafValues></_>
    <_>
      <internalNodes>
        0 -1 329169 3.6550718359649181e-03</internalNodes>
      <leafValues>
        7.0094615221023560e-02 -8.4471309185028076e-01</leafValues></_>
    <_>
      <internalNodes>
        0 -1 48044 3.2458074390888214e-02</internalNodes>
      <leafValues>
        4.8240128904581070e-02 -7.2754812240600586e-01</leafValues></_>
    <_>
      <internalNodes>
        0 -1 249296 4.0557975880801678e-03</internalNodes>
      <leafValues>
        4.9306329339742661e-02 -7.7257823944091797e-01</leafValues></_>
    <_>
      <internalNodes>
        0 -1 246115 5.0530238077044487e-03</internalNodes>
      <leafValues>
        -1.3365840911865234e-01 3.4596663713455200e-01</leafValues></_>
    <_>
      <internalNodes>
        0 -1 348471 1.3508999836631119e-04</internalNodes>
      <leafValues>
        -2.7473929524421692e-01 1.7138677835464478e-01</leafValues></_>
    <_>
      <internalNodes>
        0 -1 215829 1.9734576344490051e-03</internalNodes>
      <leafValues>
        5.1384620368480682e-02 -8.0646795034408569e-01</leafValues></_></weakClassifiers></stage13>
</opencv_storage>
