<?xml version="1.0"?>
<opencv_storage>
<stage15>
  <maxWeakCount>100</maxWeakCount>
  <stageThreshold>-9.6874225139617920e-01</stageThreshold>
  <weakClassifiers>
    <_>
      <internalNodes>
        0 -1 26232 4.3392878025770187e-02</internalNodes>
      <leafValues>
        -4.9407113343477249e-02 4.7479912638664246e-01</leafValues></_>
    <_>
      <internalNodes>
        0 -1 60372 5.9269182384014130e-02</internalNodes>
      <leafValues>
        -1.0276879370212555e-01 4.8588225245475769e-01</leafValues></_>
    <_>
      <internalNodes>
        0 -1 51519 1.3041371479630470e-02</internalNodes>
      <leafValues>
        -1.4108406007289886e-01 2.3455856740474701e-01</leafValues></_>
    <_>
      <internalNodes>
        0 -1 53920 2.0953182131052017e-02</internalNodes>
      <leafValues>
        -1.1250492930412292e-01 4.1485425829887390e-01</leafValues></_>
    <_>
      <internalNodes>
        0 -1 49637 -5.6692544370889664e-02</internalNodes>
      <leafValues>
        2.7318897843360901e-01 -7.7642001211643219e-02</leafValues></_>
    <_>
      <internalNodes>
        0 -1 48580 1.6456853598356247e-02</internalNodes>
      <leafValues>
        -1.3693740963935852e-01 2.4433930218219757e-01</leafValues></_>
    <_>
      <internalNodes>
        0 -1 43914 3.7802547216415405e-02</internalNodes>
      <leafValues>
        -7.3146492242813110e-02 3.6181795597076416e-01</leafValues></_>
    <_>
      <internalNodes>
        0 -1 57208 -1.9028600305318832e-02</internalNodes>
      <leafValues>
        3.4175875782966614e-01 -5.7531353086233139e-02</leafValues></_>
    <_>
      <internalNodes>
        0 -1 65059 1.0655516525730491e-03</internalNodes>
      <leafValues>
        -1.9127151370048523e-01 1.1421052366495132e-01</leafValues></_>
    <_>
      <internalNodes>
        0 -1 63875 -1.7950430512428284e-02</internalNodes>
      <leafValues>
        -4.1631475090980530e-01 4.3027047067880630e-02</leafValues></_>
    <_>
      <internalNodes>
        0 -1 56537 9.5727741718292236e-03</internalNodes>
      <leafValues>
        5.1169719547033310e-02 -3.4593185782432556e-01</leafValues></_>
    <_>
      <internalNodes>
        0 -1 56913 -1.2361074332147837e-03</internalNodes>
      <leafValues>
        1.6091153025627136e-01 -1.1791846901178360e-01</leafValues></_>
    <_>
      <internalNodes>
        0 -1 43542 -2.6948587037622929e-03</internalNodes>
      <leafValues>
        -3.3245098590850830e-01 4.7019556164741516e-02</leafValues></_>
    <_>
      <internalNodes>
        0 -1 58156 3.2061198726296425e-03</internalNodes>
      <leafValues>
        9.6985518932342529e-02 -1.6374841332435608e-01</leafValues></_>
    <_>
      <internalNodes>
        0 -1 67825 7.2725946083664894e-03</internalNodes>
      <leafValues>
        -9.9180795252323151e-02 1.6988304257392883e-01</leafValues></_>
    <_>
      <internalNodes>
        0 -1 43591 -1.6404047608375549e-02</internalNodes>
      <leafValues>
        2.7156606316566467e-01 -7.0364713668823242e-02</leafValues></_>
    <_>
      <internalNodes>
        0 -1 52006 -1.1313436552882195e-02</internalNodes>
      <leafValues>
        -5.6565797328948975e-01 3.3227849751710892e-02</leafValues></_>
    <_>
      <internalNodes>
        0 -1 54202 1.0372696444392204e-02</internalNodes>
      <leafValues>
        -5.0276365131139755e-02 3.3602660894393921e-01</leafValues></_>
    <_>
      <internalNodes>
        0 -1 58280 -1.9087068736553192e-02</internalNodes>
      <leafValues>
        -2.7492600679397583e-01 6.2639139592647552e-02</leafValues></_>
    <_>
      <internalNodes>
        0 -1 61299 -4.6811196953058243e-02</internalNodes>
      <leafValues>
        5.5001705884933472e-01 -3.0097205191850662e-02</leafValues></_>
    <_>
      <internalNodes>
        0 -1 53012 -1.6768679022789001e-02</internalNodes>
      <leafValues>
        -5.0457131862640381e-01 3.8253132253885269e-02</leafValues></_>
    <_>
      <internalNodes>
        0 -1 49532 9.6322223544120789e-03</internalNodes>
      <leafValues>
        -5.3351841866970062e-02 3.2402330636978149e-01</leafValues></_>
    <_>
      <internalNodes>
        0 -1 68101 9.3638477846980095e-04</internalNodes>
      <leafValues>
        -1.0183119773864746e-01 1.7336224019527435e-01</leafValues></_>
    <_>
      <internalNodes>
        0 -1 67850 7.0129483938217163e-03</internalNodes>
      <leafValues>
        -8.9912287890911102e-02 1.8754047155380249e-01</leafValues></_>
    <_>
      <internalNodes>
        0 -1 52946 7.2602648288011551e-04</internalNodes>
      <leafValues>
        7.3060303926467896e-02 -2.5094300508499146e-01</leafValues></_>
    <_>
      <internalNodes>
        0 -1 61541 -8.9528616517782211e-03</internalNodes>
      <leafValues>
        -3.5951897501945496e-01 5.0717655569314957e-02</leafValues></_>
    <_>
      <internalNodes>
        0 -1 27303 2.8395000845193863e-02</internalNodes>
      <leafValues>
        2.5506252422928810e-02 -5.9381115436553955e-01</leafValues></_>
    <_>
      <internalNodes>
        0 -1 48987 6.8625970743596554e-03</internalNodes>
      <leafValues>
        5.0282102078199387e-02 -2.8640127182006836e-01</leafValues></_>
    <_>
      <internalNodes>
        0 -1 70568 4.2858412489295006e-03</internalNodes>
      <leafValues>
        1.7840195447206497e-02 -8.1115078926086426e-01</leafValues></_>
    <_>
      <internalNodes>
        0 -1 48982 6.8114488385617733e-04</internalNodes>
      <leafValues>
        -1.4471194148063660e-01 9.9222078919410706e-02</leafValues></_>
    <_>
      <internalNodes>
        0 -1 53315 5.8707536663860083e-04</internalNodes>
      <leafValues>
        -1.8478284776210785e-01 8.4748931229114532e-02</leafValues></_>
    <_>
      <internalNodes>
        0 -1 44154 -1.0974937118589878e-02</internalNodes>
      <leafValues>
        3.3793377876281738e-01 -4.7953568398952484e-02</leafValues></_>
    <_>
      <internalNodes>
        0 -1 44123 1.0890515986829996e-03</internalNodes>
      <leafValues>
        -1.0072287917137146e-01 1.4920103549957275e-01</leafValues></_>
    <_>
      <internalNodes>
        0 -1 44183 6.1092218384146690e-03</internalNodes>
      <leafValues>
        -7.5242303311824799e-02 1.9574400782585144e-01</leafValues></_>
    <_>
      <internalNodes>
        0 -1 73134 1.6977570950984955e-02</internalNodes>
      <leafValues>
        2.9001882299780846e-02 -5.1007294654846191e-01</leafValues></_>
    <_>
      <internalNodes>
        0 -1 70518 1.5437368303537369e-02</internalNodes>
      <leafValues>
        -4.8150878399610519e-02 2.9636180400848389e-01</leafValues></_>
    <_>
      <internalNodes>
        0 -1 7170 2.1699341014027596e-03</internalNodes>
      <leafValues>
        -1.1694628000259399e-01 1.2329845130443573e-01</leafValues></_>
    <_>
      <internalNodes>
        0 -1 67822 -3.4735077060759068e-03</internalNodes>
      <leafValues>
        1.0833964496850967e-01 -1.3111038506031036e-01</leafValues></_>
    <_>
      <internalNodes>
        0 -1 36131 9.7213178873062134e-02</internalNodes>
      <leafValues>
        5.8557361364364624e-02 -2.7260774374008179e-01</leafValues></_>
    <_>
      <internalNodes>
        0 -1 58265 -3.8589142262935638e-02</internalNodes>
      <leafValues>
        -5.2653986215591431e-01 2.3512810468673706e-02</leafValues></_>
    <_>
      <internalNodes>
        0 -1 76415 5.9968624264001846e-03</internalNodes>
      <leafValues>
        1.8120935186743736e-02 -6.3112193346023560e-01</leafValues></_>
    <_>
      <internalNodes>
        0 -1 73385 2.1328050643205643e-03</internalNodes>
      <leafValues>
        -7.7897846698760986e-02 1.7356909811496735e-01</leafValues></_>
    <_>
      <internalNodes>
        0 -1 68439 3.1346059404313564e-03</internalNodes>
      <leafValues>
        -7.2797641158103943e-02 1.8900875747203827e-01</leafValues></_>
    <_>
      <internalNodes>
        0 -1 33625 6.2478217296302319e-04</internalNodes>
      <leafValues>
        -8.6488395929336548e-02 1.5570509433746338e-01</leafValues></_>
    <_>
      <internalNodes>
        0 -1 56380 -1.6932915896177292e-02</internalNodes>
      <leafValues>
        -3.0817461013793945e-01 4.3966479599475861e-02</leafValues></_>
    <_>
      <internalNodes>
        0 -1 39433 1.3239158317446709e-02</internalNodes>
      <leafValues>
        -4.3463822454214096e-02 3.1478562951087952e-01</leafValues></_>
    <_>
      <internalNodes>
        0 -1 49521 8.6856144480407238e-04</internalNodes>
      <leafValues>
        -8.1449173390865326e-02 1.7582774162292480e-01</leafValues></_>
    <_>
      <internalNodes>
        0 -1 68596 -1.0258917696774006e-02</internalNodes>
      <leafValues>
        -6.8635338544845581e-01 2.2028248757123947e-02</leafValues></_>
    <_>
      <internalNodes>
        0 -1 63607 3.4862135071307421e-03</internalNodes>
      <leafValues>
        -5.9584353119134903e-02 2.1975319087505341e-01</leafValues></_>
    <_>
      <internalNodes>
        0 -1 64104 -4.6385190216824412e-04</internalNodes>
      <leafValues>
        1.4779058098793030e-01 -9.8994247615337372e-02</leafValues></_>
    <_>
      <internalNodes>
        0 -1 44929 -4.2121005244553089e-03</internalNodes>
      <leafValues>
        -5.5911093950271606e-01 2.4218976497650146e-02</leafValues></_>
    <_>
      <internalNodes>
        0 -1 56645 -5.3298985585570335e-04</internalNodes>
      <leafValues>
        1.1686712503433228e-01 -1.0909162461757660e-01</leafValues></_>
    <_>
      <internalNodes>
        0 -1 49369 6.0109584592282772e-04</internalNodes>
      <leafValues>
        -1.1663313955068588e-01 1.1312088370323181e-01</leafValues></_>
    <_>
      <internalNodes>
        0 -1 54215 -8.6262617260217667e-03</internalNodes>
      <leafValues>
        -2.9864126443862915e-01 4.6428173780441284e-02</leafValues></_>
    <_>
      <internalNodes>
        0 -1 44396 -1.5280052088201046e-02</internalNodes>
      <leafValues>
        3.8295921683311462e-01 -3.5641752183437347e-02</leafValues></_>
    <_>
      <internalNodes>
        0 -1 43916 2.6636954396963120e-02</internalNodes>
      <leafValues>
        2.6596007868647575e-02 -5.8547270298004150e-01</leafValues></_>
    <_>
      <internalNodes>
        0 -1 37801 -1.8617371097207069e-03</internalNodes>
      <leafValues>
        -3.5888832807540894e-01 3.3511128276586533e-02</leafValues></_>
    <_>
      <internalNodes>
        0 -1 56780 -8.8256457820534706e-03</internalNodes>
      <leafValues>
        -5.8898407220840454e-01 1.9846767187118530e-02</leafValues></_>
    <_>
      <internalNodes>
        0 -1 2105 -3.2207846641540527e-01</internalNodes>
      <leafValues>
        7.6582360267639160e-01 -1.8368739634752274e-02</leafValues></_>
    <_>
      <internalNodes>
        0 -1 49047 1.3203062117099762e-02</internalNodes>
      <leafValues>
        -8.0302961170673370e-02 1.4380204677581787e-01</leafValues></_>
    <_>
      <internalNodes>
        0 -1 64979 -1.0382875800132751e-02</internalNodes>
      <leafValues>
        1.1428355425596237e-01 -1.5000829100608826e-01</leafValues></_>
    <_>
      <internalNodes>
        0 -1 64822 5.1589533686637878e-02</internalNodes>
      <leafValues>
        -7.3430448770523071e-02 1.9399353861808777e-01</leafValues></_>
    <_>
      <internalNodes>
        0 -1 58117 -1.0404087603092194e-02</internalNodes>
      <leafValues>
        2.5210577249526978e-01 -5.9287406504154205e-02</leafValues></_>
    <_>
      <internalNodes>
        0 -1 62059 -4.9912799149751663e-03</internalNodes>
      <leafValues>
        2.3979406058788300e-01 -5.6109137833118439e-02</leafValues></_>
    <_>
      <internalNodes>
        0 -1 48059 3.6735668778419495e-02</internalNodes>
      <leafValues>
        4.1778881102800369e-02 -3.3021005988121033e-01</leafValues></_>
    <_>
      <internalNodes>
        0 -1 65565 3.5160370171070099e-03</internalNodes>
      <leafValues>
        -8.7600745260715485e-02 1.5202946960926056e-01</leafValues></_>
    <_>
      <internalNodes>
        0 -1 49679 1.7260056920349598e-03</internalNodes>
      <leafValues>
        -8.0547556281089783e-02 1.7021106183528900e-01</leafValues></_>
    <_>
      <internalNodes>
        0 -1 7102 -3.7160351872444153e-02</internalNodes>
      <leafValues>
        2.1433287858963013e-01 -8.1874005496501923e-02</leafValues></_>
    <_>
      <internalNodes>
        0 -1 56644 -8.4620446432381868e-04</internalNodes>
      <leafValues>
        1.7684520781040192e-01 -7.4038907885551453e-02</leafValues></_>
    <_>
      <internalNodes>
        0 -1 47964 4.6050650998950005e-03</internalNodes>
      <leafValues>
        -9.5517359673976898e-02 1.3171984255313873e-01</leafValues></_>
    <_>
      <internalNodes>
        0 -1 48258 -1.3948531821370125e-02</internalNodes>
      <leafValues>
        3.4771883487701416e-01 -3.7853263318538666e-02</leafValues></_>
    <_>
      <internalNodes>
        0 -1 61788 4.3302522972226143e-03</internalNodes>
      <leafValues>
        2.1154357120394707e-02 -6.0397958755493164e-01</leafValues></_>
    <_>
      <internalNodes>
        0 -1 61452 -2.1900506690144539e-03</internalNodes>
      <leafValues>
        8.5158817470073700e-02 -1.3875409960746765e-01</leafValues></_>
    <_>
      <internalNodes>
        0 -1 53541 1.3944546692073345e-02</internalNodes>
      <leafValues>
        4.7217149287462234e-02 -2.4816471338272095e-01</leafValues></_>
    <_>
      <internalNodes>
        0 -1 48512 -1.5996892470866442e-03</internalNodes>
      <leafValues>
        1.3571333885192871e-01 -1.2512011826038361e-01</leafValues></_>
    <_>
      <internalNodes>
        0 -1 46518 -5.5631548166275024e-03</internalNodes>
      <leafValues>
        -2.5156894326210022e-01 6.2191810458898544e-02</leafValues></_>
    <_>
      <internalNodes>
        0 -1 52263 -4.7001168131828308e-02</internalNodes>
      <leafValues>
        -3.9105263352394104e-01 3.6740202456712723e-02</leafValues></_>
    <_>
      <internalNodes>
        0 -1 57954 4.7368993982672691e-03</internalNodes>
      <leafValues>
        2.1561464294791222e-02 -5.6032514572143555e-01</leafValues></_>
    <_>
      <internalNodes>
        0 -1 50441 3.6915905773639679e-02</internalNodes>
      <leafValues>
        2.4183439090847969e-02 -4.6118897199630737e-01</leafValues></_>
    <_>
      <internalNodes>
        0 -1 49791 1.4844805700704455e-03</internalNodes>
      <leafValues>
        -6.2413085252046585e-02 2.0023560523986816e-01</leafValues></_>
    <_>
      <internalNodes>
        0 -1 44396 3.5749946255236864e-03</internalNodes>
      <leafValues>
        -9.7120389342308044e-02 1.3260352611541748e-01</leafValues></_>
    <_>
      <internalNodes>
        0 -1 33325 1.7647356726229191e-03</internalNodes>
      <leafValues>
        -7.4230946600437164e-02 1.7441184818744659e-01</leafValues></_>
    <_>
      <internalNodes>
        0 -1 21461 2.8722500428557396e-03</internalNodes>
      <leafValues>
        2.9331184923648834e-02 -4.3988433480262756e-01</leafValues></_>
    <_>
      <internalNodes>
        0 -1 72948 1.7451308667659760e-02</internalNodes>
      <leafValues>
        2.8393764048814774e-02 -4.1544446349143982e-01</leafValues></_>
    <_>
      <internalNodes>
        0 -1 58365 -4.6965181827545166e-03</internalNodes>
      <leafValues>
        2.5163727998733521e-01 -5.5096361786127090e-02</leafValues></_>
    <_>
      <internalNodes>
        0 -1 63659 1.2923618778586388e-02</internalNodes>
      <leafValues>
        -5.9634700417518616e-02 1.9559718668460846e-01</leafValues></_>
    <_>
      <internalNodes>
        0 -1 67251 4.2515848763287067e-03</internalNodes>
      <leafValues>
        2.9853254556655884e-02 -4.3897691369056702e-01</leafValues></_>
    <_>
      <internalNodes>
        0 -1 70898 -1.0710310190916061e-02</internalNodes>
      <leafValues>
        -4.6430259943008423e-01 2.4896262213587761e-02</leafValues></_>
    <_>
      <internalNodes>
        0 -1 66643 -3.4857708960771561e-02</internalNodes>
      <leafValues>
        3.4501019120216370e-01 -3.7917785346508026e-02</leafValues></_>
    <_>
      <internalNodes>
        0 -1 46193 2.6618622243404388e-02</internalNodes>
      <leafValues>
        4.0184922516345978e-02 -3.2180473208427429e-01</leafValues></_>
    <_>
      <internalNodes>
        0 -1 52063 -4.5601353049278259e-02</internalNodes>
      <leafValues>
        -7.7808225154876709e-01 1.4150189235806465e-02</leafValues></_>
    <_>
      <internalNodes>
        0 -1 43593 5.1002055406570435e-02</internalNodes>
      <leafValues>
        -2.1685184910893440e-02 6.4830815792083740e-01</leafValues></_>
    <_>
      <internalNodes>
        0 -1 76515 -4.5499242842197418e-03</internalNodes>
      <leafValues>
        -5.6941604614257812e-01 2.5791930034756660e-02</leafValues></_>
    <_>
      <internalNodes>
        0 -1 43826 -7.8844586387276649e-03</internalNodes>
      <leafValues>
        3.4407985210418701e-01 -3.7747539579868317e-02</leafValues></_>
    <_>
      <internalNodes>
        0 -1 44682 -1.0276449844241142e-02</internalNodes>
      <leafValues>
        -4.4962325692176819e-01 3.0384648591279984e-02</leafValues></_>
    <_>
      <internalNodes>
        0 -1 49525 -5.6418031454086304e-03</internalNodes>
      <leafValues>
        3.8333916664123535e-01 -3.5258390009403229e-02</leafValues></_>
    <_>
      <internalNodes>
        0 -1 73773 2.2908058017492294e-02</internalNodes>
      <leafValues>
        4.3373726308345795e-02 -3.0838349461555481e-01</leafValues></_>
    <_>
      <internalNodes>
        0 -1 28776 -4.4011212594341487e-05</internalNodes>
      <leafValues>
        1.1391319334506989e-01 -1.1129354685544968e-01</leafValues></_>
    <_>
      <internalNodes>
        0 -1 43915 1.6617551445960999e-02</internalNodes>
      <leafValues>
        -6.6484846174716949e-02 1.8414774537086487e-01</leafValues></_>
    <_>
      <internalNodes>
        0 -1 43587 -2.5316154584288597e-02</internalNodes>
      <leafValues>
        -3.9837145805358887e-01 4.4762056320905685e-02</leafValues></_></weakClassifiers></stage15>
</opencv_storage>
