<?xml version="1.0"?>
<opencv_storage>
<stage2>
  <maxWeakCount>15</maxWeakCount>
  <stageThreshold>-1.1437158584594727e+00</stageThreshold>
  <weakClassifiers>
    <_>
      <internalNodes>
        0 -1 37854 1.8302414566278458e-02</internalNodes>
      <leafValues>
        -2.5946444272994995e-01 7.3036485910415649e-01</leafValues></_>
    <_>
      <internalNodes>
        0 -1 61303 2.3885194212198257e-02</internalNodes>
      <leafValues>
        -3.1679329276084900e-01 5.4531788825988770e-01</leafValues></_>
    <_>
      <internalNodes>
        0 -1 65009 -1.2455560266971588e-02</internalNodes>
      <leafValues>
        2.9216945171356201e-01 -4.6850973367691040e-01</leafValues></_>
    <_>
      <internalNodes>
        0 -1 42986 6.7014964297413826e-03</internalNodes>
      <leafValues>
        -3.2400614023208618e-01 4.1080036759376526e-01</leafValues></_>
    <_>
      <internalNodes>
        0 -1 44344 -2.5022248737514019e-03</internalNodes>
      <leafValues>
        3.9616358280181885e-01 -2.9716035723686218e-01</leafValues></_>
    <_>
      <internalNodes>
        0 -1 49770 -1.1790287680923939e-03</internalNodes>
      <leafValues>
        3.1968140602111816e-01 -3.0613794922828674e-01</leafValues></_>
    <_>
      <internalNodes>
        0 -1 43585 -5.7344795204699039e-03</internalNodes>
      <leafValues>
        2.7246218919754028e-01 -3.4333088994026184e-01</leafValues></_>
    <_>
      <internalNodes>
        0 -1 54347 -1.6200677491724491e-03</internalNodes>
      <leafValues>
        4.1669896245002747e-01 -2.2357724606990814e-01</leafValues></_>
    <_>
      <internalNodes>
        0 -1 13927 2.1488585043698549e-03</internalNodes>
      <leafValues>
        -3.1767061352729797e-01 3.0491775274276733e-01</leafValues></_>
    <_>
      <internalNodes>
        0 -1 53211 -6.3142366707324982e-04</internalNodes>
      <leafValues>
        2.3464314639568329e-01 -3.5557481646537781e-01</leafValues></_>
    <_>
      <internalNodes>
        0 -1 67806 -3.7824077298864722e-04</internalNodes>
      <leafValues>
        2.8748822212219238e-01 -2.5005689263343811e-01</leafValues></_>
    <_>
      <internalNodes>
        0 -1 55014 1.1880181264132261e-03</internalNodes>
      <leafValues>
        -2.0561385154724121e-01 3.4192314743995667e-01</leafValues></_>
    <_>
      <internalNodes>
        0 -1 48911 -5.9511594474315643e-02</internalNodes>
      <leafValues>
        -7.4176847934722900e-01 1.0991267859935760e-01</leafValues></_>
    <_>
      <internalNodes>
        0 -1 64842 -3.0074070673435926e-03</internalNodes>
      <leafValues>
        1.7142304778099060e-01 -4.3414270877838135e-01</leafValues></_>
    <_>
      <internalNodes>
        0 -1 44183 5.7521532289683819e-03</internalNodes>
      <leafValues>
        -1.8687833845615387e-01 4.2566743493080139e-01</leafValues></_></weakClassifiers></stage2>
</opencv_storage>
