<?xml version="1.0"?>
<opencv_storage>
<stage1>
  <maxWeakCount>9</maxWeakCount>
  <stageThreshold>-1.3663116693496704e+00</stageThreshold>
  <weakClassifiers>
    <_>
      <internalNodes>
        0 -1 61076 7.4797812849283218e-03</internalNodes>
      <leafValues>
        -6.1246609687805176e-01 6.8909275531768799e-01</leafValues></_>
    <_>
      <internalNodes>
        0 -1 44258 -2.2738568484783173e-02</internalNodes>
      <leafValues>
        4.9609655141830444e-01 -6.3286930322647095e-01</leafValues></_>
    <_>
      <internalNodes>
        0 -1 41877 -3.7086501717567444e-02</internalNodes>
      <leafValues>
        7.1770709753036499e-01 -3.5999611020088196e-01</leafValues></_>
    <_>
      <internalNodes>
        0 -1 70600 -7.9742493107914925e-04</internalNodes>
      <leafValues>
        3.8619226217269897e-01 -4.3050414323806763e-01</leafValues></_>
    <_>
      <internalNodes>
        0 -1 52950 -4.7136851935647428e-04</internalNodes>
      <leafValues>
        2.6277223229408264e-01 -5.7205790281295776e-01</leafValues></_>
    <_>
      <internalNodes>
        0 -1 52689 1.4325017109513283e-03</internalNodes>
      <leafValues>
        -3.6835423111915588e-01 3.8406836986541748e-01</leafValues></_>
    <_>
      <internalNodes>
        0 -1 52523 3.6736978217959404e-03</internalNodes>
      <leafValues>
        1.6693085432052612e-01 -5.5387723445892334e-01</leafValues></_>
    <_>
      <internalNodes>
        0 -1 49333 1.9145823316648602e-03</internalNodes>
      <leafValues>
        1.4511920511722565e-01 -7.2702938318252563e-01</leafValues></_>
    <_>
      <internalNodes>
        0 -1 39181 -3.3274276647716761e-03</internalNodes>
      <leafValues>
        3.6597001552581787e-01 -2.7123290300369263e-01</leafValues></_></weakClassifiers></stage1>
</opencv_storage>
