<?xml version="1.0"?>
<opencv_storage>
<stage17>
  <maxWeakCount>30</maxWeakCount>
  <stageThreshold>-8.2986009120941162e-01</stageThreshold>
  <weakClassifiers>
    <_>
      <internalNodes>
        0 -1 13133 4.1339034214615822e-03</internalNodes>
      <leafValues>
        -2.3529411852359772e-01 4.7680890560150146e-01</leafValues></_>
    <_>
      <internalNodes>
        0 -1 21225 2.4717446416616440e-02</internalNodes>
      <leafValues>
        -2.4795643985271454e-01 3.8935434818267822e-01</leafValues></_>
    <_>
      <internalNodes>
        0 -1 13658 -6.3481368124485016e-02</internalNodes>
      <leafValues>
        2.3934303224086761e-01 -2.5528204441070557e-01</leafValues></_>
    <_>
      <internalNodes>
        0 -1 13349 1.6924630850553513e-02</internalNodes>
      <leafValues>
        1.0892438143491745e-01 -5.5042678117752075e-01</leafValues></_>
    <_>
      <internalNodes>
        0 -1 16962 3.5973216290585697e-04</internalNodes>
      <leafValues>
        -3.0736616253852844e-01 1.8505637347698212e-01</leafValues></_>
    <_>
      <internalNodes>
        0 -1 22890 2.2475436329841614e-02</internalNodes>
      <leafValues>
        -1.4146947860717773e-01 4.4124302268028259e-01</leafValues></_>
    <_>
      <internalNodes>
        0 -1 5559 2.0527692511677742e-02</internalNodes>
      <leafValues>
        -2.2083698213100433e-01 3.4104165434837341e-01</leafValues></_>
    <_>
      <internalNodes>
        0 -1 15310 3.1927842646837234e-03</internalNodes>
      <leafValues>
        -7.3185974359512329e-01 7.7710211277008057e-02</leafValues></_>
    <_>
      <internalNodes>
        0 -1 15201 -2.5924082845449448e-02</internalNodes>
      <leafValues>
        -6.2035191059112549e-01 9.9002778530120850e-02</leafValues></_>
    <_>
      <internalNodes>
        0 -1 23293 -1.1549321003258228e-02</internalNodes>
      <leafValues>
        1.3063341379165649e-01 -3.6312645673751831e-01</leafValues></_>
    <_>
      <internalNodes>
        0 -1 8409 -1.9569337368011475e-02</internalNodes>
      <leafValues>
        -8.5979741811752319e-01 4.4907178729772568e-02</leafValues></_>
    <_>
      <internalNodes>
        0 -1 9788 5.8199288323521614e-03</internalNodes>
      <leafValues>
        -2.4036924540996552e-01 1.8859399855136871e-01</leafValues></_>
    <_>
      <internalNodes>
        0 -1 22375 -6.5926671028137207e-02</internalNodes>
      <leafValues>
        -5.3959858417510986e-01 7.6365329325199127e-02</leafValues></_>
    <_>
      <internalNodes>
        0 -1 22889 4.1911810636520386e-02</internalNodes>
      <leafValues>
        5.4381817579269409e-02 -7.6046198606491089e-01</leafValues></_>
    <_>
      <internalNodes>
        0 -1 17854 -7.2169688064604998e-04</internalNodes>
      <leafValues>
        1.9896176457405090e-01 -2.4326121807098389e-01</leafValues></_>
    <_>
      <internalNodes>
        0 -1 20373 -8.7677799165248871e-03</internalNodes>
      <leafValues>
        -7.4993515014648438e-01 7.3083288967609406e-02</leafValues></_>
    <_>
      <internalNodes>
        0 -1 23517 -3.1127904076129198e-03</internalNodes>
      <leafValues>
        1.7477853596210480e-01 -2.5104540586471558e-01</leafValues></_>
    <_>
      <internalNodes>
        0 -1 15104 1.9521560519933701e-02</internalNodes>
      <leafValues>
        7.1234710514545441e-02 -5.9667295217514038e-01</leafValues></_>
    <_>
      <internalNodes>
        0 -1 20279 2.9439425095915794e-02</internalNodes>
      <leafValues>
        -9.6414521336555481e-02 5.5414772033691406e-01</leafValues></_>
    <_>
      <internalNodes>
        0 -1 20708 4.8765562474727631e-02</internalNodes>
      <leafValues>
        -2.6120927929878235e-01 1.9795030355453491e-01</leafValues></_>
    <_>
      <internalNodes>
        0 -1 22720 6.1179902404546738e-03</internalNodes>
      <leafValues>
        -3.6780589818954468e-01 1.5348745882511139e-01</leafValues></_>
    <_>
      <internalNodes>
        0 -1 19137 -4.0263421833515167e-02</internalNodes>
      <leafValues>
        5.5040568113327026e-01 -1.0564004629850388e-01</leafValues></_>
    <_>
      <internalNodes>
        0 -1 21819 6.3193058595061302e-03</internalNodes>
      <leafValues>
        -1.9626191258430481e-01 2.4016843736171722e-01</leafValues></_>
    <_>
      <internalNodes>
        0 -1 10195 6.7215010523796082e-02</internalNodes>
      <leafValues>
        -1.0136508941650391e-01 5.1807808876037598e-01</leafValues></_>
    <_>
      <internalNodes>
        0 -1 13634 1.0500541888177395e-02</internalNodes>
      <leafValues>
        -1.9668497145175934e-01 2.6947796344757080e-01</leafValues></_>
    <_>
      <internalNodes>
        0 -1 13569 1.8608767539262772e-02</internalNodes>
      <leafValues>
        -1.4120672643184662e-01 3.5825011134147644e-01</leafValues></_>
    <_>
      <internalNodes>
        0 -1 789 -2.6282989978790283e-01</internalNodes>
      <leafValues>
        7.3863911628723145e-01 -6.0378421097993851e-02</leafValues></_>
    <_>
      <internalNodes>
        0 -1 4396 7.3183335363864899e-02</internalNodes>
      <leafValues>
        -2.2513909637928009e-01 2.4985794723033905e-01</leafValues></_>
    <_>
      <internalNodes>
        0 -1 20129 -2.2706310264766216e-03</internalNodes>
      <leafValues>
        2.7045750617980957e-01 -1.8333230912685394e-01</leafValues></_>
    <_>
      <internalNodes>
        0 -1 13472 -6.6668257117271423e-02</internalNodes>
      <leafValues>
        -9.1242557764053345e-01 5.3868558257818222e-02</leafValues></_></weakClassifiers></stage17>
</opencv_storage>
