<?xml version="1.0"?>
<opencv_storage>
<stage0>
  <maxWeakCount>7</maxWeakCount>
  <stageThreshold>-1.2592719793319702e+00</stageThreshold>
  <weakClassifiers>
    <_>
      <internalNodes>
        0 -1 47655 -6.0254009440541267e-03</internalNodes>
      <leafValues>
        7.7401131391525269e-01 -5.0537633895874023e-01</leafValues></_>
    <_>
      <internalNodes>
        0 -1 67857 -5.8928774669766426e-03</internalNodes>
      <leafValues>
        5.3962540626525879e-01 -6.4709389209747314e-01</leafValues></_>
    <_>
      <internalNodes>
        0 -1 37854 2.3285005241632462e-02</internalNodes>
      <leafValues>
        -3.5361757874488831e-01 7.2841221094131470e-01</leafValues></_>
    <_>
      <internalNodes>
        0 -1 4534 1.8600147217512131e-02</internalNodes>
      <leafValues>
        -3.4388789534568787e-01 4.8026308417320251e-01</leafValues></_>
    <_>
      <internalNodes>
        0 -1 64473 -4.4894479215145111e-02</internalNodes>
      <leafValues>
        5.6398463249206543e-01 -2.9400774836540222e-01</leafValues></_>
    <_>
      <internalNodes>
        0 -1 51040 5.5922390893101692e-03</internalNodes>
      <leafValues>
        -4.3902868032455444e-01 2.6946526765823364e-01</leafValues></_>
    <_>
      <internalNodes>
        0 -1 3902 -5.2409814670681953e-03</internalNodes>
      <leafValues>
        5.6386017799377441e-01 -2.0890478789806366e-01</leafValues></_></weakClassifiers></stage0>
</opencv_storage>
