<?xml version="1.0"?>
<opencv_storage>
<stage22>
  <maxWeakCount>100</maxWeakCount>
  <stageThreshold>-8.5773599147796631e-01</stageThreshold>
  <weakClassifiers>
    <_>
      <internalNodes>
        0 -1 31677 1.5764450654387474e-02</internalNodes>
      <leafValues>
        6.4935065805912018e-02 4.8387095332145691e-01</leafValues></_>
    <_>
      <internalNodes>
        0 -1 64775 3.4912053495645523e-02</internalNodes>
      <leafValues>
        -1.0502777993679047e-01 3.2017260789871216e-01</leafValues></_>
    <_>
      <internalNodes>
        0 -1 61696 5.7663440704345703e-02</internalNodes>
      <leafValues>
        -7.1303717792034149e-02 4.0466874837875366e-01</leafValues></_>
    <_>
      <internalNodes>
        0 -1 57213 1.0687361471354961e-02</internalNodes>
      <leafValues>
        -1.6652187705039978e-01 2.2450317442417145e-01</leafValues></_>
    <_>
      <internalNodes>
        0 -1 67308 2.1793553605675697e-02</internalNodes>
      <leafValues>
        -1.0957220941781998e-01 3.3067393302917480e-01</leafValues></_>
    <_>
      <internalNodes>
        0 -1 64738 4.5023029670119286e-03</internalNodes>
      <leafValues>
        -1.9048140943050385e-01 1.4459785819053650e-01</leafValues></_>
    <_>
      <internalNodes>
        0 -1 70568 3.3243373036384583e-04</internalNodes>
      <leafValues>
        -1.3325978815555573e-01 1.8356183171272278e-01</leafValues></_>
    <_>
      <internalNodes>
        0 -1 305 6.4902171492576599e-02</internalNodes>
      <leafValues>
        -1.3065025210380554e-01 1.5809598565101624e-01</leafValues></_>
    <_>
      <internalNodes>
        0 -1 44738 3.2358351163566113e-03</internalNodes>
      <leafValues>
        -1.1700714379549026e-01 1.6485407948493958e-01</leafValues></_>
    <_>
      <internalNodes>
        0 -1 61442 -4.5855939388275146e-03</internalNodes>
      <leafValues>
        -3.2742616534233093e-01 6.2170371413230896e-02</leafValues></_>
    <_>
      <internalNodes>
        0 -1 48861 -2.5123930536210537e-03</internalNodes>
      <leafValues>
        7.8948602080345154e-02 -2.3151731491088867e-01</leafValues></_>
    <_>
      <internalNodes>
        0 -1 67634 1.8135843565687537e-03</internalNodes>
      <leafValues>
        -7.9620026051998138e-02 1.8254442512989044e-01</leafValues></_>
    <_>
      <internalNodes>
        0 -1 54088 3.6172546446323395e-02</internalNodes>
      <leafValues>
        -1.3813723810017109e-02 9.8200416564941406e-01</leafValues></_>
    <_>
      <internalNodes>
        0 -1 48790 -2.5627713650465012e-02</internalNodes>
      <leafValues>
        -4.2686340212821960e-01 3.8315150886774063e-02</leafValues></_>
    <_>
      <internalNodes>
        0 -1 48446 3.2757826149463654e-02</internalNodes>
      <leafValues>
        4.2767319828271866e-02 -3.4309408068656921e-01</leafValues></_>
    <_>
      <internalNodes>
        0 -1 44860 2.1360001992434263e-03</internalNodes>
      <leafValues>
        -9.6133589744567871e-02 1.6638211905956268e-01</leafValues></_>
    <_>
      <internalNodes>
        0 -1 43915 1.9834576174616814e-02</internalNodes>
      <leafValues>
        -7.9050183296203613e-02 2.3910658061504364e-01</leafValues></_>
    <_>
      <internalNodes>
        0 -1 53909 -8.3624497056007385e-03</internalNodes>
      <leafValues>
        -2.5550240278244019e-01 5.8910030871629715e-02</leafValues></_>
    <_>
      <internalNodes>
        0 -1 48521 -2.6330393739044666e-03</internalNodes>
      <leafValues>
        1.2927803397178650e-01 -1.1448296904563904e-01</leafValues></_>
    <_>
      <internalNodes>
        0 -1 47767 -7.6281148940324783e-03</internalNodes>
      <leafValues>
        1.1344844847917557e-01 -1.3647022843360901e-01</leafValues></_>
    <_>
      <internalNodes>
        0 -1 53067 -2.9953895136713982e-02</internalNodes>
      <leafValues>
        -3.2997733354568481e-01 4.5205395668745041e-02</leafValues></_>
    <_>
      <internalNodes>
        0 -1 48216 4.6487018698826432e-04</internalNodes>
      <leafValues>
        -1.7888069152832031e-01 9.3745000660419464e-02</leafValues></_>
    <_>
      <internalNodes>
        0 -1 74837 -5.2212886512279510e-03</internalNodes>
      <leafValues>
        -4.1341426968574524e-01 3.2044783234596252e-02</leafValues></_>
    <_>
      <internalNodes>
        0 -1 43812 -3.3808632288128138e-03</internalNodes>
      <leafValues>
        2.8532841801643372e-01 -4.6363994479179382e-02</leafValues></_>
    <_>
      <internalNodes>
        0 -1 3868 -2.0234063267707825e-01</internalNodes>
      <leafValues>
        2.7031740546226501e-01 -4.6354327350854874e-02</leafValues></_>
    <_>
      <internalNodes>
        0 -1 65235 1.5161791816353798e-02</internalNodes>
      <leafValues>
        -6.6279932856559753e-02 2.0986273884773254e-01</leafValues></_>
    <_>
      <internalNodes>
        0 -1 58746 -8.4115900099277496e-03</internalNodes>
      <leafValues>
        1.0866708308458328e-01 -1.2346161156892776e-01</leafValues></_>
    <_>
      <internalNodes>
        0 -1 71000 2.4495424702763557e-02</internalNodes>
      <leafValues>
        2.4817846715450287e-02 -4.6990942955017090e-01</leafValues></_>
    <_>
      <internalNodes>
        0 -1 69336 1.1146721243858337e-01</internalNodes>
      <leafValues>
        -2.1369587630033493e-02 6.6744649410247803e-01</leafValues></_>
    <_>
      <internalNodes>
        0 -1 65458 -1.5327301807701588e-02</internalNodes>
      <leafValues>
        -5.4078668355941772e-01 2.8626821935176849e-02</leafValues></_>
    <_>
      <internalNodes>
        0 -1 41981 9.9079944193363190e-02</internalNodes>
      <leafValues>
        2.3020541295409203e-02 -4.9240142107009888e-01</leafValues></_>
    <_>
      <internalNodes>
        0 -1 52106 5.1645703613758087e-02</internalNodes>
      <leafValues>
        -2.7344342321157455e-02 5.3204369544982910e-01</leafValues></_>
    <_>
      <internalNodes>
        0 -1 38702 1.6065087169408798e-02</internalNodes>
      <leafValues>
        1.8312150612473488e-02 -8.3706516027450562e-01</leafValues></_>
    <_>
      <internalNodes>
        0 -1 65448 1.1632764711976051e-02</internalNodes>
      <leafValues>
        -4.2258303612470627e-02 3.3676710724830627e-01</leafValues></_>
    <_>
      <internalNodes>
        0 -1 33215 1.4096118509769440e-02</internalNodes>
      <leafValues>
        3.5549186170101166e-02 -4.1150411963462830e-01</leafValues></_>
    <_>
      <internalNodes>
        0 -1 61948 8.9271692559123039e-03</internalNodes>
      <leafValues>
        -5.8424293994903564e-02 2.2461426258087158e-01</leafValues></_>
    <_>
      <internalNodes>
        0 -1 70689 2.4708360433578491e-04</internalNodes>
      <leafValues>
        -1.1733001470565796e-01 1.3350604474544525e-01</leafValues></_>
    <_>
      <internalNodes>
        0 -1 72818 2.4899363052099943e-04</internalNodes>
      <leafValues>
        -1.5136528015136719e-01 8.6044237017631531e-02</leafValues></_>
    <_>
      <internalNodes>
        0 -1 53459 9.5916194841265678e-03</internalNodes>
      <leafValues>
        3.1905163079500198e-02 -3.7218725681304932e-01</leafValues></_>
    <_>
      <internalNodes>
        0 -1 67907 1.5326563268899918e-02</internalNodes>
      <leafValues>
        -5.9905540198087692e-02 2.3258048295974731e-01</leafValues></_>
    <_>
      <internalNodes>
        0 -1 26825 -8.9650182053446770e-03</internalNodes>
      <leafValues>
        2.7074605226516724e-01 -4.5240916311740875e-02</leafValues></_>
    <_>
      <internalNodes>
        0 -1 48981 1.3993855100125074e-04</internalNodes>
      <leafValues>
        -1.2208114564418793e-01 1.2391232699155807e-01</leafValues></_>
    <_>
      <internalNodes>
        0 -1 62212 3.3485936000943184e-03</internalNodes>
      <leafValues>
        -1.0167209804058075e-01 1.3762286305427551e-01</leafValues></_>
    <_>
      <internalNodes>
        0 -1 60265 -8.8115856051445007e-03</internalNodes>
      <leafValues>
        -4.2379751801490784e-01 2.9802486300468445e-02</leafValues></_>
    <_>
      <internalNodes>
        0 -1 72865 -2.4949178099632263e-02</internalNodes>
      <leafValues>
        -3.9036947488784790e-01 3.0613608658313751e-02</leafValues></_>
    <_>
      <internalNodes>
        0 -1 61988 5.4016308858990669e-03</internalNodes>
      <leafValues>
        -8.9486092329025269e-02 1.3954052329063416e-01</leafValues></_>
    <_>
      <internalNodes>
        0 -1 67282 4.8614386469125748e-03</internalNodes>
      <leafValues>
        -1.1426368355751038e-01 1.4103722572326660e-01</leafValues></_>
    <_>
      <internalNodes>
        0 -1 66647 -1.5613276511430740e-02</internalNodes>
      <leafValues>
        2.0294235646724701e-01 -7.1233198046684265e-02</leafValues></_>
    <_>
      <internalNodes>
        0 -1 62086 2.0649861544370651e-02</internalNodes>
      <leafValues>
        2.8304571285843849e-02 -4.9200847744941711e-01</leafValues></_>
    <_>
      <internalNodes>
        0 -1 53710 3.3553861081600189e-02</internalNodes>
      <leafValues>
        3.3779703080654144e-02 -3.5338085889816284e-01</leafValues></_>
    <_>
      <internalNodes>
        0 -1 54632 -2.9846525285393000e-03</internalNodes>
      <leafValues>
        -2.3654952645301819e-01 5.1883623003959656e-02</leafValues></_>
    <_>
      <internalNodes>
        0 -1 28191 1.1429259029682726e-04</internalNodes>
      <leafValues>
        -1.2187431007623672e-01 1.1576936393976212e-01</leafValues></_>
    <_>
      <internalNodes>
        0 -1 44526 -2.4909485131502151e-02</internalNodes>
      <leafValues>
        -4.9837532639503479e-01 2.6806123554706573e-02</leafValues></_>
    <_>
      <internalNodes>
        0 -1 65683 -1.3465886004269123e-03</internalNodes>
      <leafValues>
        1.2930907309055328e-01 -9.9439598619937897e-02</leafValues></_>
    <_>
      <internalNodes>
        0 -1 43617 -2.4385116994380951e-02</internalNodes>
      <leafValues>
        4.5577752590179443e-01 -2.6505857706069946e-02</leafValues></_>
    <_>
      <internalNodes>
        0 -1 39068 -6.8613560870289803e-03</internalNodes>
      <leafValues>
        1.7368246614933014e-01 -7.7699400484561920e-02</leafValues></_>
    <_>
      <internalNodes>
        0 -1 71302 5.5122289806604385e-02</internalNodes>
      <leafValues>
        -5.8969598263502121e-02 2.2632023692131042e-01</leafValues></_>
    <_>
      <internalNodes>
        0 -1 77413 2.5337270926684141e-04</internalNodes>
      <leafValues>
        -9.8825708031654358e-02 1.2007229775190353e-01</leafValues></_>
    <_>
      <internalNodes>
        0 -1 78138 3.7840511649847031e-03</internalNodes>
      <leafValues>
        2.2964464500546455e-02 -5.3947848081588745e-01</leafValues></_>
    <_>
      <internalNodes>
        0 -1 57156 5.4546250030398369e-03</internalNodes>
      <leafValues>
        -2.1391918882727623e-02 5.6878292560577393e-01</leafValues></_>
    <_>
      <internalNodes>
        0 -1 61306 -2.9127731919288635e-02</internalNodes>
      <leafValues>
        2.9928836226463318e-01 -3.6068920046091080e-02</leafValues></_>
    <_>
      <internalNodes>
        0 -1 70707 1.4071451500058174e-02</internalNodes>
      <leafValues>
        2.3509927093982697e-02 -6.4053785800933838e-01</leafValues></_>
    <_>
      <internalNodes>
        0 -1 48890 -2.6243902742862701e-02</internalNodes>
      <leafValues>
        -2.1951588988304138e-01 5.3345389664173126e-02</leafValues></_>
    <_>
      <internalNodes>
        0 -1 53320 -3.9985164999961853e-02</internalNodes>
      <leafValues>
        7.6077848672866821e-01 -1.8019462004303932e-02</leafValues></_>
    <_>
      <internalNodes>
        0 -1 65071 2.8836182318627834e-03</internalNodes>
      <leafValues>
        -8.8319472968578339e-02 1.4535605907440186e-01</leafValues></_>
    <_>
      <internalNodes>
        0 -1 61326 9.6023753285408020e-03</internalNodes>
      <leafValues>
        -8.5807897150516510e-02 1.6409955918788910e-01</leafValues></_>
    <_>
      <internalNodes>
        0 -1 65201 -8.5969537030905485e-04</internalNodes>
      <leafValues>
        2.4226173758506775e-01 -5.6843400001525879e-02</leafValues></_>
    <_>
      <internalNodes>
        0 -1 64967 1.2258961796760559e-02</internalNodes>
      <leafValues>
        2.3990103974938393e-02 -6.1932444572448730e-01</leafValues></_>
    <_>
      <internalNodes>
        0 -1 76851 4.9533657729625702e-03</internalNodes>
      <leafValues>
        3.2562017440795898e-02 -3.4199336171150208e-01</leafValues></_>
    <_>
      <internalNodes>
        0 -1 61842 1.3081254437565804e-02</internalNodes>
      <leafValues>
        1.9716614857316017e-02 -5.5661636590957642e-01</leafValues></_>
    <_>
      <internalNodes>
        0 -1 68101 3.7382246227934957e-04</internalNodes>
      <leafValues>
        -1.0545288771390915e-01 1.0203018784523010e-01</leafValues></_>
    <_>
      <internalNodes>
        0 -1 61175 1.6662698239088058e-02</internalNodes>
      <leafValues>
        -7.0558391511440277e-02 2.4578630924224854e-01</leafValues></_>
    <_>
      <internalNodes>
        0 -1 56859 1.0411234945058823e-01</internalNodes>
      <leafValues>
        2.0202971994876862e-02 -7.4840486049652100e-01</leafValues></_>
    <_>
      <internalNodes>
        0 -1 54095 1.8231224268674850e-02</internalNodes>
      <leafValues>
        -4.3288379907608032e-02 2.8846070170402527e-01</leafValues></_>
    <_>
      <internalNodes>
        0 -1 27416 -3.3422179520130157e-02</internalNodes>
      <leafValues>
        2.2648422420024872e-01 -5.0895847380161285e-02</leafValues></_>
    <_>
      <internalNodes>
        0 -1 12867 -1.0798619687557220e-01</internalNodes>
      <leafValues>
        -5.2583807706832886e-01 2.4706615135073662e-02</leafValues></_>
    <_>
      <internalNodes>
        0 -1 49529 7.2422157973051071e-03</internalNodes>
      <leafValues>
        -3.3088598400354385e-02 4.1220450401306152e-01</leafValues></_>
    <_>
      <internalNodes>
        0 -1 70158 2.6105463504791260e-02</internalNodes>
      <leafValues>
        4.8894803971052170e-02 -2.8093138337135315e-01</leafValues></_>
    <_>
      <internalNodes>
        0 -1 19771 5.9531256556510925e-04</internalNodes>
      <leafValues>
        7.3811195790767670e-02 -1.5887227654457092e-01</leafValues></_>
    <_>
      <internalNodes>
        0 -1 48506 1.8053817329928279e-03</internalNodes>
      <leafValues>
        -4.8673499375581741e-02 2.6326602697372437e-01</leafValues></_>
    <_>
      <internalNodes>
        0 -1 20749 -2.3154061287641525e-02</internalNodes>
      <leafValues>
        -3.8827756047248840e-01 3.4643560647964478e-02</leafValues></_>
    <_>
      <internalNodes>
        0 -1 8268 -1.2125352397561073e-02</internalNodes>
      <leafValues>
        1.3853961229324341e-01 -9.4256244599819183e-02</leafValues></_>
    <_>
      <internalNodes>
        0 -1 38137 4.7743767936481163e-05</internalNodes>
      <leafValues>
        -1.3850121200084686e-01 9.0961642563343048e-02</leafValues></_>
    <_>
      <internalNodes>
        0 -1 57521 2.1399758756160736e-02</internalNodes>
      <leafValues>
        1.7206506803631783e-02 -6.7596435546875000e-01</leafValues></_>
    <_>
      <internalNodes>
        0 -1 70136 1.2988045811653137e-01</internalNodes>
      <leafValues>
        -4.4407598674297333e-02 2.9337543249130249e-01</leafValues></_>
    <_>
      <internalNodes>
        0 -1 53846 2.7885472401976585e-02</internalNodes>
      <leafValues>
        2.6096107438206673e-02 -4.6740406751632690e-01</leafValues></_>
    <_>
      <internalNodes>
        0 -1 49010 4.5893909409642220e-03</internalNodes>
      <leafValues>
        -4.7189854085445404e-02 2.6720324158668518e-01</leafValues></_>
    <_>
      <internalNodes>
        0 -1 47700 -2.4363450706005096e-02</internalNodes>
      <leafValues>
        -3.8629719614982605e-01 3.6361619830131531e-02</leafValues></_>
    <_>
      <internalNodes>
        0 -1 49703 2.0707888528704643e-02</internalNodes>
      <leafValues>
        4.7259964048862457e-02 -2.6359912753105164e-01</leafValues></_>
    <_>
      <internalNodes>
        0 -1 58355 1.2474996037781239e-03</internalNodes>
      <leafValues>
        -9.1390661895275116e-02 1.5385466814041138e-01</leafValues></_>
    <_>
      <internalNodes>
        0 -1 77714 -1.6545187681913376e-02</internalNodes>
      <leafValues>
        -1.9329430162906647e-01 6.5144896507263184e-02</leafValues></_>
    <_>
      <internalNodes>
        0 -1 33742 3.4284971654415131e-02</internalNodes>
      <leafValues>
        -4.2694460600614548e-02 2.7834269404411316e-01</leafValues></_>
    <_>
      <internalNodes>
        0 -1 74044 6.9094542413949966e-03</internalNodes>
      <leafValues>
        4.8603560775518417e-02 -2.5098279118537903e-01</leafValues></_>
    <_>
      <internalNodes>
        0 -1 54063 1.0445548221468925e-02</internalNodes>
      <leafValues>
        -5.6554730981588364e-02 2.0792876183986664e-01</leafValues></_>
    <_>
      <internalNodes>
        0 -1 74838 6.0219725128263235e-04</internalNodes>
      <leafValues>
        -1.0016191005706787e-01 1.2064668536186218e-01</leafValues></_>
    <_>
      <internalNodes>
        0 -1 76414 3.1100673368200660e-04</internalNodes>
      <leafValues>
        -9.8730407655239105e-02 1.3926929235458374e-01</leafValues></_>
    <_>
      <internalNodes>
        0 -1 65666 -6.7033560480922461e-04</internalNodes>
      <leafValues>
        1.0964600741863251e-01 -1.0087649524211884e-01</leafValues></_>
    <_>
      <internalNodes>
        0 -1 67957 7.0312817115336657e-04</internalNodes>
      <leafValues>
        -7.8019194304943085e-02 1.5403540432453156e-01</leafValues></_>
    <_>
      <internalNodes>
        0 -1 48816 -2.0222167950123549e-03</internalNodes>
      <leafValues>
        1.2712478637695312e-01 -9.7417145967483521e-02</leafValues></_>
    <_>
      <internalNodes>
        0 -1 33224 1.4298423193395138e-03</internalNodes>
      <leafValues>
        -6.5287664532661438e-02 1.8670172989368439e-01</leafValues></_></weakClassifiers></stage22>
</opencv_storage>
