<?xml version="1.0"?>
<opencv_storage>
<stage20>
  <maxWeakCount>100</maxWeakCount>
  <stageThreshold>-1.0078321695327759e+00</stageThreshold>
  <weakClassifiers>
    <_>
      <internalNodes>
        0 -1 49040 -2.0151309669017792e-02</internalNodes>
      <leafValues>
        6.6148722171783447e-01 1.1415863782167435e-01</leafValues></_>
    <_>
      <internalNodes>
        0 -1 44783 -4.0364772081375122e-02</internalNodes>
      <leafValues>
        2.0959904789924622e-01 -3.1925702095031738e-01</leafValues></_>
    <_>
      <internalNodes>
        0 -1 31319 6.0630910098552704e-02</internalNodes>
      <leafValues>
        -1.6784133017063141e-01 3.2426694035530090e-01</leafValues></_>
    <_>
      <internalNodes>
        0 -1 20397 2.4212099611759186e-02</internalNodes>
      <leafValues>
        -2.3185926675796509e-01 1.2079952657222748e-01</leafValues></_>
    <_>
      <internalNodes>
        0 -1 76449 -7.4312724173069000e-03</internalNodes>
      <leafValues>
        1.4961710572242737e-01 -1.6513401269912720e-01</leafValues></_>
    <_>
      <internalNodes>
        0 -1 61358 2.2245720028877258e-02</internalNodes>
      <leafValues>
        -1.5296261012554169e-01 2.4398352205753326e-01</leafValues></_>
    <_>
      <internalNodes>
        0 -1 65246 4.4049397110939026e-02</internalNodes>
      <leafValues>
        -4.8990011215209961e-02 3.7457597255706787e-01</leafValues></_>
    <_>
      <internalNodes>
        0 -1 61866 3.0420403927564621e-03</internalNodes>
      <leafValues>
        -1.0188566893339157e-01 2.5109949707984924e-01</leafValues></_>
    <_>
      <internalNodes>
        0 -1 68348 -2.4222694337368011e-03</internalNodes>
      <leafValues>
        1.9315075874328613e-01 -1.5953937172889709e-01</leafValues></_>
    <_>
      <internalNodes>
        0 -1 7443 1.3992234133183956e-02</internalNodes>
      <leafValues>
        -7.1788996458053589e-02 3.1967765092849731e-01</leafValues></_>
    <_>
      <internalNodes>
        0 -1 53219 1.6515720635652542e-02</internalNodes>
      <leafValues>
        4.1808232665061951e-02 -5.2609372138977051e-01</leafValues></_>
    <_>
      <internalNodes>
        0 -1 56927 1.9471902633085847e-03</internalNodes>
      <leafValues>
        -2.2502884268760681e-01 9.0425498783588409e-02</leafValues></_>
    <_>
      <internalNodes>
        0 -1 68338 6.8249250762164593e-04</internalNodes>
      <leafValues>
        -1.2786850333213806e-01 1.9338589906692505e-01</leafValues></_>
    <_>
      <internalNodes>
        0 -1 57987 -6.9697122089564800e-03</internalNodes>
      <leafValues>
        3.3521214127540588e-01 -6.6023409366607666e-02</leafValues></_>
    <_>
      <internalNodes>
        0 -1 72831 4.3364549055695534e-03</internalNodes>
      <leafValues>
        -9.4857893884181976e-02 2.5425341725349426e-01</leafValues></_>
    <_>
      <internalNodes>
        0 -1 60801 -1.2058761902153492e-02</internalNodes>
      <leafValues>
        -8.2210928201675415e-01 2.7236312627792358e-02</leafValues></_>
    <_>
      <internalNodes>
        0 -1 37120 -7.0621720515191555e-03</internalNodes>
      <leafValues>
        1.9555163383483887e-01 -1.1638016253709793e-01</leafValues></_>
    <_>
      <internalNodes>
        0 -1 65331 -3.0731577426195145e-03</internalNodes>
      <leafValues>
        -5.9228241443634033e-01 3.5993464291095734e-02</leafValues></_>
    <_>
      <internalNodes>
        0 -1 19435 2.1989303827285767e-01</internalNodes>
      <leafValues>
        3.7190798670053482e-02 -5.2364516258239746e-01</leafValues></_>
    <_>
      <internalNodes>
        0 -1 39152 5.3562177345156670e-03</internalNodes>
      <leafValues>
        2.5781327858567238e-02 -7.7210885286331177e-01</leafValues></_>
    <_>
      <internalNodes>
        0 -1 24409 -3.8531571626663208e-03</internalNodes>
      <leafValues>
        -1.8743167817592621e-01 1.0617013275623322e-01</leafValues></_>
    <_>
      <internalNodes>
        0 -1 58032 1.1990137398242950e-02</internalNodes>
      <leafValues>
        2.8032943606376648e-02 -5.8500772714614868e-01</leafValues></_>
    <_>
      <internalNodes>
        0 -1 58252 -2.3330587428063154e-03</internalNodes>
      <leafValues>
        2.0510886609554291e-01 -9.1658055782318115e-02</leafValues></_>
    <_>
      <internalNodes>
        0 -1 39433 1.3224747963249683e-02</internalNodes>
      <leafValues>
        -6.4530551433563232e-02 3.5926347970962524e-01</leafValues></_>
    <_>
      <internalNodes>
        0 -1 73237 4.8781423829495907e-03</internalNodes>
      <leafValues>
        3.5597603768110275e-02 -5.7414597272872925e-01</leafValues></_>
    <_>
      <internalNodes>
        0 -1 62406 -4.6488938096445054e-05</internalNodes>
      <leafValues>
        1.0867171734571457e-01 -1.7564085125923157e-01</leafValues></_>
    <_>
      <internalNodes>
        0 -1 39948 6.2262415885925293e-02</internalNodes>
      <leafValues>
        3.1558934599161148e-02 -6.4751470088958740e-01</leafValues></_>
    <_>
      <internalNodes>
        0 -1 58515 9.3781873583793640e-03</internalNodes>
      <leafValues>
        3.7318039685487747e-02 -4.8557522892951965e-01</leafValues></_>
    <_>
      <internalNodes>
        0 -1 33248 2.2681219503283501e-02</internalNodes>
      <leafValues>
        -6.7275725305080414e-02 2.8735503554344177e-01</leafValues></_>
    <_>
      <internalNodes>
        0 -1 44291 3.1386199407279491e-03</internalNodes>
      <leafValues>
        5.7114243507385254e-02 -3.6801624298095703e-01</leafValues></_>
    <_>
      <internalNodes>
        0 -1 44066 7.0633902214467525e-04</internalNodes>
      <leafValues>
        -1.6715730726718903e-01 1.2137179821729660e-01</leafValues></_>
    <_>
      <internalNodes>
        0 -1 48299 -7.2617330588400364e-03</internalNodes>
      <leafValues>
        -5.7824254035949707e-01 3.1495016068220139e-02</leafValues></_>
    <_>
      <internalNodes>
        0 -1 58189 6.8722844123840332e-02</internalNodes>
      <leafValues>
        2.4491980671882629e-02 -6.6667854785919189e-01</leafValues></_>
    <_>
      <internalNodes>
        0 -1 55746 1.6626534983515739e-02</internalNodes>
      <leafValues>
        2.5657152757048607e-02 -6.1660337448120117e-01</leafValues></_>
    <_>
      <internalNodes>
        0 -1 60123 -4.4875070452690125e-02</internalNodes>
      <leafValues>
        -8.2414346933364868e-01 1.8642717972397804e-02</leafValues></_>
    <_>
      <internalNodes>
        0 -1 61663 9.0521089732646942e-03</internalNodes>
      <leafValues>
        -5.6922700256109238e-02 3.2462450861930847e-01</leafValues></_>
    <_>
      <internalNodes>
        0 -1 70891 -1.5230397693812847e-03</internalNodes>
      <leafValues>
        2.3200686275959015e-01 -9.1191813349723816e-02</leafValues></_>
    <_>
      <internalNodes>
        0 -1 68342 -2.8436193242669106e-03</internalNodes>
      <leafValues>
        -4.5228117704391479e-01 4.4490870088338852e-02</leafValues></_>
    <_>
      <internalNodes>
        0 -1 61998 4.1735130362212658e-03</internalNodes>
      <leafValues>
        -9.4722330570220947e-02 2.3734417557716370e-01</leafValues></_>
    <_>
      <internalNodes>
        0 -1 63235 -6.3057959079742432e-02</internalNodes>
      <leafValues>
        -4.0334111452102661e-01 4.6593818813562393e-02</leafValues></_>
    <_>
      <internalNodes>
        0 -1 71632 -1.2190797924995422e-01</internalNodes>
      <leafValues>
        3.6534255743026733e-01 -4.9966610968112946e-02</leafValues></_>
    <_>
      <internalNodes>
        0 -1 63734 -1.0963366366922855e-02</internalNodes>
      <leafValues>
        -2.0545962452888489e-01 8.4548816084861755e-02</leafValues></_>
    <_>
      <internalNodes>
        0 -1 18835 1.5331953763961792e-02</internalNodes>
      <leafValues>
        2.4579778313636780e-02 -6.1800587177276611e-01</leafValues></_>
    <_>
      <internalNodes>
        0 -1 35932 -3.3429048955440521e-02</internalNodes>
      <leafValues>
        -3.8456597924232483e-01 4.3023958802223206e-02</leafValues></_>
    <_>
      <internalNodes>
        0 -1 58966 -8.4125448483973742e-04</internalNodes>
      <leafValues>
        1.6242352128028870e-01 -1.0963565111160278e-01</leafValues></_>
    <_>
      <internalNodes>
        0 -1 49459 2.1104307845234871e-02</internalNodes>
      <leafValues>
        2.9340116307139397e-02 -7.4091726541519165e-01</leafValues></_>
    <_>
      <internalNodes>
        0 -1 48540 -5.0261928699910641e-03</internalNodes>
      <leafValues>
        -5.9897673130035400e-01 2.5329869240522385e-02</leafValues></_>
    <_>
      <internalNodes>
        0 -1 30166 2.7463650703430176e-01</internalNodes>
      <leafValues>
        1.6425399109721184e-02 -7.9784917831420898e-01</leafValues></_>
    <_>
      <internalNodes>
        0 -1 60673 -2.8037410229444504e-02</internalNodes>
      <leafValues>
        -7.2167229652404785e-01 1.8627803772687912e-02</leafValues></_>
    <_>
      <internalNodes>
        0 -1 68375 2.4601949378848076e-02</internalNodes>
      <leafValues>
        -5.7979185134172440e-02 2.9664555191993713e-01</leafValues></_>
    <_>
      <internalNodes>
        0 -1 65246 -1.9226599251851439e-03</internalNodes>
      <leafValues>
        1.6629205644130707e-01 -1.3079477846622467e-01</leafValues></_>
    <_>
      <internalNodes>
        0 -1 19776 -3.7315052002668381e-02</internalNodes>
      <leafValues>
        5.3564000129699707e-01 -3.1835049390792847e-02</leafValues></_>
    <_>
      <internalNodes>
        0 -1 77660 -3.0194196733646095e-04</internalNodes>
      <leafValues>
        -1.6881327331066132e-01 1.1559097468852997e-01</leafValues></_>
    <_>
      <internalNodes>
        0 -1 27379 -1.8344372510910034e-02</internalNodes>
      <leafValues>
        -6.5476632118225098e-01 2.9274681583046913e-02</leafValues></_>
    <_>
      <internalNodes>
        0 -1 34256 1.3115238398313522e-03</internalNodes>
      <leafValues>
        8.8868871331214905e-02 -1.9217915832996368e-01</leafValues></_>
    <_>
      <internalNodes>
        0 -1 48747 8.0171819718088955e-05</internalNodes>
      <leafValues>
        -1.6377340257167816e-01 1.1090059578418732e-01</leafValues></_>
    <_>
      <internalNodes>
        0 -1 65330 -6.1266664415597916e-03</internalNodes>
      <leafValues>
        -7.4711138010025024e-01 2.0225953310728073e-02</leafValues></_>
    <_>
      <internalNodes>
        0 -1 57389 -8.2688336260616779e-04</internalNodes>
      <leafValues>
        9.1294758021831512e-02 -1.8380543589591980e-01</leafValues></_>
    <_>
      <internalNodes>
        0 -1 53517 -9.6834730356931686e-03</internalNodes>
      <leafValues>
        3.1029888987541199e-01 -5.9393882751464844e-02</leafValues></_>
    <_>
      <internalNodes>
        0 -1 70689 2.5420842575840652e-04</internalNodes>
      <leafValues>
        -1.4756639301776886e-01 1.5238092839717865e-01</leafValues></_>
    <_>
      <internalNodes>
        0 -1 48980 -2.1118451841175556e-03</internalNodes>
      <leafValues>
        -5.4209566116333008e-01 3.4778911620378494e-02</leafValues></_>
    <_>
      <internalNodes>
        0 -1 44201 -5.0588343292474747e-03</internalNodes>
      <leafValues>
        2.8128525614738464e-01 -6.9346882402896881e-02</leafValues></_>
    <_>
      <internalNodes>
        0 -1 53698 4.4188456377014518e-04</internalNodes>
      <leafValues>
        -1.2794072926044464e-01 1.8322902917861938e-01</leafValues></_>
    <_>
      <internalNodes>
        0 -1 37132 -1.2036222964525223e-02</internalNodes>
      <leafValues>
        2.4768249690532684e-01 -7.7543452382087708e-02</leafValues></_>
    <_>
      <internalNodes>
        0 -1 37870 1.2363623082637787e-01</internalNodes>
      <leafValues>
        -3.0547929927706718e-02 6.7491906881332397e-01</leafValues></_>
    <_>
      <internalNodes>
        0 -1 45703 -1.3741478323936462e-02</internalNodes>
      <leafValues>
        4.1169378161430359e-01 -4.4525433331727982e-02</leafValues></_>
    <_>
      <internalNodes>
        0 -1 46666 -2.0725449547171593e-02</internalNodes>
      <leafValues>
        -3.6014723777770996e-01 6.8588271737098694e-02</leafValues></_>
    <_>
      <internalNodes>
        0 -1 61061 -1.0167489759624004e-02</internalNodes>
      <leafValues>
        -6.5981554985046387e-01 2.1088758483529091e-02</leafValues></_>
    <_>
      <internalNodes>
        0 -1 74970 -1.1249214876443148e-03</internalNodes>
      <leafValues>
        1.8225212395191193e-01 -1.0025497525930405e-01</leafValues></_>
    <_>
      <internalNodes>
        0 -1 68071 4.6989589929580688e-02</internalNodes>
      <leafValues>
        2.9678389430046082e-02 -6.1191356182098389e-01</leafValues></_>
    <_>
      <internalNodes>
        0 -1 65569 -9.7579862922430038e-03</internalNodes>
      <leafValues>
        2.0393343269824982e-01 -8.9812062680721283e-02</leafValues></_>
    <_>
      <internalNodes>
        0 -1 44102 -8.3093289285898209e-03</internalNodes>
      <leafValues>
        3.2675573229789734e-01 -5.9561163187026978e-02</leafValues></_>
    <_>
      <internalNodes>
        0 -1 44672 1.4522464014589787e-02</internalNodes>
      <leafValues>
        3.2735321670770645e-02 -6.2709158658981323e-01</leafValues></_>
    <_>
      <internalNodes>
        0 -1 71272 1.3049293309450150e-02</internalNodes>
      <leafValues>
        3.0786000192165375e-02 -4.7801506519317627e-01</leafValues></_>
    <_>
      <internalNodes>
        0 -1 62092 -1.1260442435741425e-02</internalNodes>
      <leafValues>
        -5.0300151109695435e-01 3.1198227778077126e-02</leafValues></_>
    <_>
      <internalNodes>
        0 -1 61512 1.4796940609812737e-02</internalNodes>
      <leafValues>
        -7.6582506299018860e-02 2.5027632713317871e-01</leafValues></_>
    <_>
      <internalNodes>
        0 -1 53575 -3.8397279568016529e-03</internalNodes>
      <leafValues>
        2.8870189189910889e-01 -6.7038170993328094e-02</leafValues></_>
    <_>
      <internalNodes>
        0 -1 33934 3.4490274265408516e-03</internalNodes>
      <leafValues>
        4.1302300989627838e-02 -5.0654411315917969e-01</leafValues></_>
    <_>
      <internalNodes>
        0 -1 53901 -2.1956684067845345e-03</internalNodes>
      <leafValues>
        2.1131029725074768e-01 -8.7207235395908356e-02</leafValues></_>
    <_>
      <internalNodes>
        0 -1 39505 5.2667269483208656e-03</internalNodes>
      <leafValues>
        5.4082993417978287e-02 -3.8324102759361267e-01</leafValues></_>
    <_>
      <internalNodes>
        0 -1 33241 4.8208184540271759e-02</internalNodes>
      <leafValues>
        -6.0619451105594635e-02 3.9643269777297974e-01</leafValues></_>
    <_>
      <internalNodes>
        0 -1 60817 -5.5041695013642311e-03</internalNodes>
      <leafValues>
        1.5280008316040039e-01 -1.2307393550872803e-01</leafValues></_>
    <_>
      <internalNodes>
        0 -1 57213 1.5854673983994871e-04</internalNodes>
      <leafValues>
        -8.1140778958797455e-02 2.3961663246154785e-01</leafValues></_>
    <_>
      <internalNodes>
        0 -1 3995 -1.2166947126388550e-01</internalNodes>
      <leafValues>
        -3.6590498685836792e-01 5.2220039069652557e-02</leafValues></_>
    <_>
      <internalNodes>
        0 -1 12614 -3.1483152415603399e-03</internalNodes>
      <leafValues>
        1.9522583484649658e-01 -9.9225714802742004e-02</leafValues></_>
    <_>
      <internalNodes>
        0 -1 49082 2.3497041314840317e-02</internalNodes>
      <leafValues>
        3.1185407191514969e-02 -6.2917113304138184e-01</leafValues></_>
    <_>
      <internalNodes>
        0 -1 47063 6.0372386127710342e-02</internalNodes>
      <leafValues>
        3.7857428193092346e-02 -4.4763782620429993e-01</leafValues></_>
    <_>
      <internalNodes>
        0 -1 49567 -1.6731357201933861e-02</internalNodes>
      <leafValues>
        -4.3146592378616333e-01 4.1319750249385834e-02</leafValues></_>
    <_>
      <internalNodes>
        0 -1 48503 1.9269526819698513e-04</internalNodes>
      <leafValues>
        -1.8418206274509430e-01 1.0198912769556046e-01</leafValues></_>
    <_>
      <internalNodes>
        0 -1 77978 1.6216067597270012e-02</internalNodes>
      <leafValues>
        6.0027468949556351e-02 -2.8953647613525391e-01</leafValues></_>
    <_>
      <internalNodes>
        0 -1 13880 -5.1493663340806961e-03</internalNodes>
      <leafValues>
        -5.2605521678924561e-01 3.3376369625329971e-02</leafValues></_>
    <_>
      <internalNodes>
        0 -1 49681 1.2167727109044790e-03</internalNodes>
      <leafValues>
        -1.3705234229564667e-01 1.3814333081245422e-01</leafValues></_>
    <_>
      <internalNodes>
        0 -1 51092 -6.9530226290225983e-02</internalNodes>
      <leafValues>
        -7.2025054693222046e-01 2.3941302672028542e-02</leafValues></_>
    <_>
      <internalNodes>
        0 -1 44939 1.1956640519201756e-03</internalNodes>
      <leafValues>
        -6.9807171821594238e-02 2.4984081089496613e-01</leafValues></_>
    <_>
      <internalNodes>
        0 -1 49904 5.1971627399325371e-03</internalNodes>
      <leafValues>
        6.1367072165012360e-02 -2.9439067840576172e-01</leafValues></_>
    <_>
      <internalNodes>
        0 -1 39311 -2.7077717706561089e-02</internalNodes>
      <leafValues>
        -5.8784043788909912e-01 2.5640200823545456e-02</leafValues></_>
    <_>
      <internalNodes>
        0 -1 39432 6.9200908765196800e-03</internalNodes>
      <leafValues>
        -9.9076367914676666e-02 1.8551172316074371e-01</leafValues></_>
    <_>
      <internalNodes>
        0 -1 70518 -9.4573395326733589e-03</internalNodes>
      <leafValues>
        1.8827025592327118e-01 -1.0032617300748825e-01</leafValues></_>
    <_>
      <internalNodes>
        0 -1 33135 -1.3234931230545044e-01</internalNodes>
      <leafValues>
        -3.1340244412422180e-01 6.0085464268922806e-02</leafValues></_>
    <_>
      <internalNodes>
        0 -1 50975 4.1908986866474152e-02</internalNodes>
      <leafValues>
        3.2033756375312805e-02 -5.3029829263687134e-01</leafValues></_></weakClassifiers></stage20>
</opencv_storage>
