<?xml version="1.0"?>
<opencv_storage>
<stage3>
  <maxWeakCount>7</maxWeakCount>
  <stageThreshold>-1.2383539676666260e+00</stageThreshold>
  <weakClassifiers>
    <_>
      <internalNodes>
        0 -1 17296 -2.3173699155449867e-02</internalNodes>
      <leafValues>
        7.1148890256881714e-01 -6.3372856378555298e-01</leafValues></_>
    <_>
      <internalNodes>
        0 -1 10807 3.1928233802318573e-02</internalNodes>
      <leafValues>
        -6.3732701539993286e-01 5.1059257984161377e-01</leafValues></_>
    <_>
      <internalNodes>
        0 -1 23701 -3.2466143369674683e-02</internalNodes>
      <leafValues>
        5.5720043182373047e-01 -4.7458377480506897e-01</leafValues></_>
    <_>
      <internalNodes>
        0 -1 8105 1.0088701546192169e-01</internalNodes>
      <leafValues>
        -5.8341711759567261e-01 4.0027672052383423e-01</leafValues></_>
    <_>
      <internalNodes>
        0 -1 19204 -4.8357990453951061e-04</internalNodes>
      <leafValues>
        3.0883359909057617e-01 -7.1577543020248413e-01</leafValues></_>
    <_>
      <internalNodes>
        0 -1 171 5.1720183342695236e-02</internalNodes>
      <leafValues>
        -5.5224335193634033e-01 4.0526580810546875e-01</leafValues></_>
    <_>
      <internalNodes>
        0 -1 23656 6.7390117328613997e-04</internalNodes>
      <leafValues>
        -5.1385992765426636e-01 3.7660300731658936e-01</leafValues></_></weakClassifiers></stage3>
</opencv_storage>
