<?xml version="1.0"?>
<opencv_storage>
<stage5>
  <maxWeakCount>23</maxWeakCount>
  <stageThreshold>-1.0473535060882568e+00</stageThreshold>
  <weakClassifiers>
    <_>
      <internalNodes>
        0 -1 57255 6.0452084988355637e-02</internalNodes>
      <leafValues>
        -1.0491803288459778e-01 6.9459462165832520e-01</leafValues></_>
    <_>
      <internalNodes>
        0 -1 37842 3.9837490767240524e-03</internalNodes>
      <leafValues>
        -3.1189471483230591e-01 4.5188221335411072e-01</leafValues></_>
    <_>
      <internalNodes>
        0 -1 70293 -6.0953223146498203e-04</internalNodes>
      <leafValues>
        3.3829435706138611e-01 -3.3308336138725281e-01</leafValues></_>
    <_>
      <internalNodes>
        0 -1 48521 -2.7560219168663025e-03</internalNodes>
      <leafValues>
        2.9312539100646973e-01 -3.2157075405120850e-01</leafValues></_>
    <_>
      <internalNodes>
        0 -1 57983 -3.8684620521962643e-03</internalNodes>
      <leafValues>
        3.9985579252243042e-01 -2.3512054979801178e-01</leafValues></_>
    <_>
      <internalNodes>
        0 -1 65172 -2.4793177843093872e-02</internalNodes>
      <leafValues>
        1.9816845655441284e-01 -4.2323416471481323e-01</leafValues></_>
    <_>
      <internalNodes>
        0 -1 53225 -2.0570531487464905e-03</internalNodes>
      <leafValues>
        1.8667487800121307e-01 -4.2603334784507751e-01</leafValues></_>
    <_>
      <internalNodes>
        0 -1 52523 4.8370505683124065e-03</internalNodes>
      <leafValues>
        1.2644739449024200e-01 -5.8109885454177856e-01</leafValues></_>
    <_>
      <internalNodes>
        0 -1 53063 -1.6607103869318962e-02</internalNodes>
      <leafValues>
        -6.4647740125656128e-01 6.7150279879570007e-02</leafValues></_>
    <_>
      <internalNodes>
        0 -1 26801 -5.4351361468434334e-03</internalNodes>
      <leafValues>
        3.1647402048110962e-01 -2.0549945533275604e-01</leafValues></_>
    <_>
      <internalNodes>
        0 -1 61541 9.1399699449539185e-03</internalNodes>
      <leafValues>
        9.0222917497158051e-02 -6.8738019466400146e-01</leafValues></_>
    <_>
      <internalNodes>
        0 -1 52690 -2.2674300707876682e-03</internalNodes>
      <leafValues>
        2.9153662919998169e-01 -2.2584751248359680e-01</leafValues></_>
    <_>
      <internalNodes>
        0 -1 73201 7.6422765851020813e-03</internalNodes>
      <leafValues>
        8.3054043352603912e-02 -7.2222954034805298e-01</leafValues></_>
    <_>
      <internalNodes>
        0 -1 74968 -5.1633140537887812e-04</internalNodes>
      <leafValues>
        2.8470304608345032e-01 -2.9116132855415344e-01</leafValues></_>
    <_>
      <internalNodes>
        0 -1 53866 -4.2061796411871910e-03</internalNodes>
      <leafValues>
        -7.4576610326766968e-01 8.5211008787155151e-02</leafValues></_>
    <_>
      <internalNodes>
        0 -1 57989 -2.2687889635562897e-02</internalNodes>
      <leafValues>
        -8.1107157468795776e-01 5.3612302988767624e-02</leafValues></_>
    <_>
      <internalNodes>
        0 -1 67711 -3.5767327062785625e-03</internalNodes>
      <leafValues>
        -5.9174340963363647e-01 7.1318894624710083e-02</leafValues></_>
    <_>
      <internalNodes>
        0 -1 7183 -2.6377914473414421e-03</internalNodes>
      <leafValues>
        -2.9077729582786560e-01 1.6760706901550293e-01</leafValues></_>
    <_>
      <internalNodes>
        0 -1 72938 -2.6984149590134621e-03</internalNodes>
      <leafValues>
        -6.5132564306259155e-01 7.6747387647628784e-02</leafValues></_>
    <_>
      <internalNodes>
        0 -1 58526 7.4991257861256599e-04</internalNodes>
      <leafValues>
        -2.3076471686363220e-01 2.2975084185600281e-01</leafValues></_>
    <_>
      <internalNodes>
        0 -1 68147 2.9995927587151527e-02</internalNodes>
      <leafValues>
        -7.6401256024837494e-02 7.1093517541885376e-01</leafValues></_>
    <_>
      <internalNodes>
        0 -1 74840 -1.3193362392485142e-03</internalNodes>
      <leafValues>
        2.5480985641479492e-01 -2.1515610814094543e-01</leafValues></_>
    <_>
      <internalNodes>
        0 -1 43914 -2.9127553105354309e-02</internalNodes>
      <leafValues>
        7.4080765247344971e-01 -7.1931153535842896e-02</leafValues></_></weakClassifiers></stage5>
</opencv_storage>
