<?xml version="1.0"?>
<opencv_storage>
<stage9>
  <maxWeakCount>62</maxWeakCount>
  <stageThreshold>-1.2138354778289795e+00</stageThreshold>
  <weakClassifiers>
    <_>
      <internalNodes>
        0 -1 32057 6.6996037960052490e-02</internalNodes>
      <leafValues>
        -2.1004566922783852e-02 6.6926407814025879e-01</leafValues></_>
    <_>
      <internalNodes>
        0 -1 44899 -2.5867924094200134e-02</internalNodes>
      <leafValues>
        3.4511065483093262e-01 -3.0031624436378479e-01</leafValues></_>
    <_>
      <internalNodes>
        0 -1 60885 2.4539723992347717e-02</internalNodes>
      <leafValues>
        -1.8854385614395142e-01 4.1951811313629150e-01</leafValues></_>
    <_>
      <internalNodes>
        0 -1 48225 -1.8669171258807182e-03</internalNodes>
      <leafValues>
        2.6454418897628784e-01 -1.9616349041461945e-01</leafValues></_>
    <_>
      <internalNodes>
        0 -1 52657 -5.0362832844257355e-03</internalNodes>
      <leafValues>
        -7.0610582828521729e-01 2.8318552300333977e-02</leafValues></_>
    <_>
      <internalNodes>
        0 -1 61078 1.4440130442380905e-02</internalNodes>
      <leafValues>
        -1.4031687378883362e-01 3.0883371829986572e-01</leafValues></_>
    <_>
      <internalNodes>
        0 -1 44071 8.7309852242469788e-03</internalNodes>
      <leafValues>
        4.8885237425565720e-02 -7.5603705644607544e-01</leafValues></_>
    <_>
      <internalNodes>
        0 -1 50170 -8.4392465651035309e-03</internalNodes>
      <leafValues>
        2.2914546728134155e-01 -1.7790888249874115e-01</leafValues></_>
    <_>
      <internalNodes>
        0 -1 14207 3.4233259502798319e-03</internalNodes>
      <leafValues>
        -3.8400846719741821e-01 1.4074502885341644e-01</leafValues></_>
    <_>
      <internalNodes>
        0 -1 57389 -4.9329013563692570e-04</internalNodes>
      <leafValues>
        8.9872010052204132e-02 -2.9491829872131348e-01</leafValues></_>
    <_>
      <internalNodes>
        0 -1 57595 -8.5820853710174561e-03</internalNodes>
      <leafValues>
        -6.9477415084838867e-01 5.3570173680782318e-02</leafValues></_>
    <_>
      <internalNodes>
        0 -1 71774 -2.2035256028175354e-02</internalNodes>
      <leafValues>
        2.0942656695842743e-01 -1.6147047281265259e-01</leafValues></_>
    <_>
      <internalNodes>
        0 -1 13934 2.5610327720642090e-02</internalNodes>
      <leafValues>
        -1.0408198833465576e-01 3.2383620738983154e-01</leafValues></_>
    <_>
      <internalNodes>
        0 -1 38997 2.0676318556070328e-02</internalNodes>
      <leafValues>
        -7.0413209497928619e-02 5.3723025321960449e-01</leafValues></_>
    <_>
      <internalNodes>
        0 -1 26532 3.7624742835760117e-03</internalNodes>
      <leafValues>
        -1.3641873002052307e-01 2.7611386775970459e-01</leafValues></_>
    <_>
      <internalNodes>
        0 -1 46994 -2.1673340350389481e-02</internalNodes>
      <leafValues>
        -6.4927291870117188e-01 6.1257511377334595e-02</leafValues></_>
    <_>
      <internalNodes>
        0 -1 52192 -7.8752851113677025e-03</internalNodes>
      <leafValues>
        -4.5081532001495361e-01 6.0674116015434265e-02</leafValues></_>
    <_>
      <internalNodes>
        0 -1 45046 -2.4661584757268429e-03</internalNodes>
      <leafValues>
        1.9888061285018921e-01 -1.5535505115985870e-01</leafValues></_>
    <_>
      <internalNodes>
        0 -1 56925 -1.4401523396372795e-02</internalNodes>
      <leafValues>
        -8.0437386035919189e-01 3.7127420306205750e-02</leafValues></_>
    <_>
      <internalNodes>
        0 -1 68473 1.5081965830177069e-03</internalNodes>
      <leafValues>
        -1.3084523379802704e-01 2.2916987538337708e-01</leafValues></_>
    <_>
      <internalNodes>
        0 -1 54234 -3.0041870195418596e-03</internalNodes>
      <leafValues>
        3.1031292676925659e-01 -1.3757301867008209e-01</leafValues></_>
    <_>
      <internalNodes>
        0 -1 21034 -2.6668138802051544e-02</internalNodes>
      <leafValues>
        3.9200979471206665e-01 -8.1395134329795837e-02</leafValues></_>
    <_>
      <internalNodes>
        0 -1 70454 2.1826520562171936e-02</internalNodes>
      <leafValues>
        5.5333055555820465e-02 -6.5371984243392944e-01</leafValues></_>
    <_>
      <internalNodes>
        0 -1 68138 -8.3657596260309219e-03</internalNodes>
      <leafValues>
        2.6811078190803528e-01 -1.2238001823425293e-01</leafValues></_>
    <_>
      <internalNodes>
        0 -1 64619 -1.4467795379459858e-02</internalNodes>
      <leafValues>
        4.0770429372787476e-01 -9.9368438124656677e-02</leafValues></_>
    <_>
      <internalNodes>
        0 -1 49567 3.2119192183017731e-02</internalNodes>
      <leafValues>
        5.3931940346956253e-02 -7.6611965894699097e-01</leafValues></_>
    <_>
      <internalNodes>
        0 -1 52484 5.6903786957263947e-02</internalNodes>
      <leafValues>
        2.8196765109896660e-02 -8.3146119117736816e-01</leafValues></_>
    <_>
      <internalNodes>
        0 -1 67960 -3.1729880720376968e-03</internalNodes>
      <leafValues>
        -7.0832115411758423e-01 3.4849744290113449e-02</leafValues></_>
    <_>
      <internalNodes>
        0 -1 49697 -3.0655493028461933e-03</internalNodes>
      <leafValues>
        2.7691724896430969e-01 -1.1535827815532684e-01</leafValues></_>
    <_>
      <internalNodes>
        0 -1 65061 -6.3114473596215248e-03</internalNodes>
      <leafValues>
        -7.5499957799911499e-01 4.0593378245830536e-02</leafValues></_>
    <_>
      <internalNodes>
        0 -1 68101 9.2796178068965673e-04</internalNodes>
      <leafValues>
        -1.4706173539161682e-01 2.3010703921318054e-01</leafValues></_>
    <_>
      <internalNodes>
        0 -1 70609 1.6588155180215836e-02</internalNodes>
      <leafValues>
        -6.4855679869651794e-02 5.6171047687530518e-01</leafValues></_>
    <_>
      <internalNodes>
        0 -1 65515 4.5735500752925873e-02</internalNodes>
      <leafValues>
        -7.0767723023891449e-02 4.9878108501434326e-01</leafValues></_>
    <_>
      <internalNodes>
        0 -1 62053 4.3679839000105858e-03</internalNodes>
      <leafValues>
        4.0960479527711868e-02 -8.9263230562210083e-01</leafValues></_>
    <_>
      <internalNodes>
        0 -1 8279 -3.0718925595283508e-01</internalNodes>
      <leafValues>
        4.5311626791954041e-01 -7.4208088219165802e-02</leafValues></_>
    <_>
      <internalNodes>
        0 -1 50416 1.6927455365657806e-01</internalNodes>
      <leafValues>
        -1.1339724063873291e-01 3.1617334485054016e-01</leafValues></_>
    <_>
      <internalNodes>
        0 -1 61515 8.2551669329404831e-03</internalNodes>
      <leafValues>
        -8.8005177676677704e-02 3.4730789065361023e-01</leafValues></_>
    <_>
      <internalNodes>
        0 -1 26951 1.3783394359052181e-02</internalNodes>
      <leafValues>
        5.8684077113866806e-02 -5.6883299350738525e-01</leafValues></_>
    <_>
      <internalNodes>
        0 -1 68385 3.5556093789637089e-03</internalNodes>
      <leafValues>
        -1.1383786052465439e-01 2.8432339429855347e-01</leafValues></_>
    <_>
      <internalNodes>
        0 -1 38938 4.1651530191302299e-03</internalNodes>
      <leafValues>
        5.1835641264915466e-02 -5.4247242212295532e-01</leafValues></_>
    <_>
      <internalNodes>
        0 -1 70731 -8.7086148560047150e-03</internalNodes>
      <leafValues>
        2.5893220305442810e-01 -1.0291691124439240e-01</leafValues></_>
    <_>
      <internalNodes>
        0 -1 67508 5.0106095150113106e-03</internalNodes>
      <leafValues>
        -2.4633114039897919e-01 1.2450163066387177e-01</leafValues></_>
    <_>
      <internalNodes>
        0 -1 73149 6.1030765064060688e-03</internalNodes>
      <leafValues>
        3.5671677440404892e-02 -7.5464028120040894e-01</leafValues></_>
    <_>
      <internalNodes>
        0 -1 57987 8.5038524121046066e-03</internalNodes>
      <leafValues>
        -9.6644178032875061e-02 2.9772105813026428e-01</leafValues></_>
    <_>
      <internalNodes>
        0 -1 37806 2.0812754519283772e-03</internalNodes>
      <leafValues>
        -1.3865773379802704e-01 2.1673639118671417e-01</leafValues></_>
    <_>
      <internalNodes>
        0 -1 47700 -2.6290159672498703e-02</internalNodes>
      <leafValues>
        -8.8073348999023438e-01 3.3889453858137131e-02</leafValues></_>
    <_>
      <internalNodes>
        0 -1 10771 -1.0164620354771614e-02</internalNodes>
      <leafValues>
        2.9823961853981018e-01 -1.0618898272514343e-01</leafValues></_>
    <_>
      <internalNodes>
        0 -1 54637 -3.1208223663270473e-03</internalNodes>
      <leafValues>
        -3.0206054449081421e-01 9.6803918480873108e-02</leafValues></_>
    <_>
      <internalNodes>
        0 -1 72822 -1.8523052567616105e-03</internalNodes>
      <leafValues>
        2.1514473855495453e-01 -1.3233801722526550e-01</leafValues></_>
    <_>
      <internalNodes>
        0 -1 48348 4.7683570533990860e-02</internalNodes>
      <leafValues>
        5.1918115466833115e-02 -5.3077089786529541e-01</leafValues></_>
    <_>
      <internalNodes>
        0 -1 66832 2.8214190155267715e-02</internalNodes>
      <leafValues>
        3.7620130926370621e-02 -7.0112270116806030e-01</leafValues></_>
    <_>
      <internalNodes>
        0 -1 48750 2.0777022000402212e-03</internalNodes>
      <leafValues>
        3.9961736649274826e-02 -6.1797493696212769e-01</leafValues></_>
    <_>
      <internalNodes>
        0 -1 57222 1.8780402839183807e-02</internalNodes>
      <leafValues>
        -8.3480447530746460e-02 3.7291994690895081e-01</leafValues></_>
    <_>
      <internalNodes>
        0 -1 61461 -2.3365102242678404e-03</internalNodes>
      <leafValues>
        1.7846295237541199e-01 -1.7997011542320251e-01</leafValues></_>
    <_>
      <internalNodes>
        0 -1 61627 -4.3681100942194462e-03</internalNodes>
      <leafValues>
        -5.7758849859237671e-01 5.2110176533460617e-02</leafValues></_>
    <_>
      <internalNodes>
        0 -1 49269 -2.2682391107082367e-02</internalNodes>
      <leafValues>
        -5.7227629423141479e-01 4.8358295112848282e-02</leafValues></_>
    <_>
      <internalNodes>
        0 -1 61512 1.1875409632921219e-02</internalNodes>
      <leafValues>
        -1.0853891074657440e-01 3.0689141154289246e-01</leafValues></_>
    <_>
      <internalNodes>
        0 -1 72029 1.3858111924491823e-04</internalNodes>
      <leafValues>
        -1.5429131686687469e-01 1.9038255512714386e-01</leafValues></_>
    <_>
      <internalNodes>
        0 -1 37974 -8.1751048564910889e-02</internalNodes>
      <leafValues>
        -5.2469903230667114e-01 6.3995815813541412e-02</leafValues></_>
    <_>
      <internalNodes>
        0 -1 57995 -1.3965036720037460e-02</internalNodes>
      <leafValues>
        -4.7823777794837952e-01 5.8795239776372910e-02</leafValues></_>
    <_>
      <internalNodes>
        0 -1 32676 -3.5405277740210295e-03</internalNodes>
      <leafValues>
        2.5894412398338318e-01 -1.2321875244379044e-01</leafValues></_>
    <_>
      <internalNodes>
        0 -1 32933 8.0152181908488274e-04</internalNodes>
      <leafValues>
        -1.8435348570346832e-01 1.8268007040023804e-01</leafValues></_></weakClassifiers></stage9>
</opencv_storage>
